tree
version=v4
num_class=1
num_tree_per_iteration=1
label_index=0
max_feature_idx=49
objective=binary sigmoid:1
feature_names=gap_up_pct ret_30m range_30m vwap_dev rsi_14 macd_hist bb_pctb rvol vol_surge obv_delta dow mom_5d prev_day_ret consec_days avg_vol_30m nifty_ret_30m nifty_mom_5d rel_strength_30m rel_strength_5d beats_nifty_30m nifty_daily_ret_prev mom_10d mom_20d avg_ret_5d avg_ret_10d avg_range_10d vol_10d vol_20d daily_vol_ratio ret_1d_ago ret_2d_ago range_1d_ago vol_trend avg_vol_5d prev_day_direction atr_ratio nifty_mom_10d nifty_ret_1d_ago nifty_ret_5d_ago avg_vol_20d rank_ret_30m zscore_ret_30m rank_gap_up rank_rvol rank_rel_strength rank_range rank_mom_5d pct_beats_nifty rank_obv rank_vol_surge
feature_infos=[-76.63551401869158:305.61475409836066] [-16.090867158671582:334.89784649364992] [0:335.00828271673106] [-10.128874702410871:134.54771022558612] [0:99.724770642201662] [-1229.7300000000016:1258.8] [0:1] [0.00099950033308353315:4.6151205168412597] [0.0026114055123476424:297.7467789258834] [-1575388303:263410445] [1:6] [-76.451398135818906:342.84509418048918] none [-1:1] [0.77419354838709675:69383219.806451619] [-3.5399610650424851:2.0874243845527478] [-4.3986239879179507:5.2673804886417424] [-16.479904814022493:334.81253092389755] [-78.317474934108461:341.42142512876279] [0:1] [-2.2684226947736663:1.717512489505308] [-76.704394141145144:360.11750881316095] [-79.294117647058826:334.1255332114564] [-15.607616391423601:125.46012446848974] [-13.083969465648861:91.84582475526318] [0:94.61404702191922] [0:148.87632578144527] [0:119.14727738170238] [0.00099950033308353315:4.6151205168412597] [-33.358877748685529:326.89122032026506] [-33.358877748685529:326.89122032026506] [0:335.00828271673106] [0.00099950033308353315:1.0947235346414903] [0:2673744872] [-1:1] [0:7655.6157985436412] [-4.6199079424944776:6.0661026326359879] [-2.2684226947736663:1.717512489505308] [-2.2684226947736663:1.717512489505308] [0:86217091] [0.0024213075060532689:1] [-10.058099450525908:19.716693752153681] [0:1] [0.0024213075060532689:1] [0.0024213075060532689:1] [0.0024213075060532689:1] [0:1] [0.024752475247524754:0.979539641943734] [0.0024213075060532689:1] [0.0024213075060532689:1]
tree_sizes=6740 6784 6785 6799 6827 6793 6812 6814 6859 6854 6915 6889 6861 6879 6881 6872 6880 6901 6889 6886 6893 6891 6887 6894 6895 6880 6896 6876 6912 6905 6895 6896 6931 6906 6892 6894 6922 6935 6861 6889 6877 6914 6878 6873 6895 6871 6932 6895

Tree=0
num_leaves=63
num_cat=0
split_feature=2 25 2 25 25 31 43 44 31 2 44 27 4 47 47 20 9 15 0 25 11 38 35 35 7 39 33 21 39 46 20 22 35 3 47 46 39 33 21 0 24 22 23 41 43 41 7 42 22 20 2 27 35 7 1 43 21 44 23 20 3 35
split_gain=779905 284199 116794 77831 37603.3 37077.7 30226.5 27094 22034.5 16629.1 14060.1 18657.4 13668.9 13220.3 13089.8 12949.2 12687.3 12273.7 10747.4 10383.1 10148.8 9988.47 9867.76 9703.56 12743.7 11772.9 11155.6 9457.94 8781.25 8633.52 8293.5 9917.13 8227.16 7943.45 7748.66 7664.89 8915.01 7613.08 7397.86 7335.47 7891.71 7091.41 6901.89 7221.89 9537.68 8079.46 6905.34 6791.79 7083.37 6890.82 6486.64 6579.68 6468.64 6349.58 6325.82 6261.44 5851.26 6219.06 5531.22 5507.55 5455.85 5453.52
threshold=2.294202174056156 3.2011889823714146 3.3251480268663891 2.3211672367156475 3.7006349810810728 7.0814982144493257 0.452902894901616 0.29060815515951827 3.270122049445193 1.2978240016093989 0.67393949010896026 2.7692091326601074 51.519700509890278 0.573124031007752 0.70463214367496496 0.15231269096696368 169893.00000000003 -0.29174009944788065 0.9532042193403778 4.81590959028527 -1.4514849965239736 0.47622818219816782 10.393658197200386 60.632793048878135 0.43172066567374234 10318.077419354839 498950.10000000003 -1.4709667605978831 1045.9398315721171 0.50060532687651349 -0.77099812737539275 9.1315480066039623 25.489397303302365 0.37079771664689759 0.67656377165445891 0.71312574166044052 797.78498146088248 1072521.8 11.443971480725212 0.3621911889132654 -0.092449196878233261 0.50358478912112614 1.7271337864733602 -0.52507770396343723 0.6738256194416018 -0.64153468412786208 0.66663736859925138 0.79408115603561535 -1.0275747667362198 -0.010779152243710293 5.0891057851177193 1.714656454557977 18.739316100875431 0.3981020341144535 -0.57148188558316682 0.11634006198403775 1.491001337854865 0.36591828733845794 -1.2156002806558568 -0.69080472503075596 0.096500701744929265 479.68006275021082
decision_type=2 2 2 2 2 2 2 2 2 2 2 2 2 2 2 2 2 2 2 2 2 2 2 2 2 2 2 2 2 2 2 2 2 2 2 2 2 2 2 2 2 2 2 2 2 2 2 2 2 2 2 2 2 2 2 2 2 2 2 2 2 2
left_child=1 3 4 9 7 17 20 47 10 18 11 34 28 35 16 55 21 29 -1 42 58 33 39 24 60 -25 -26 -18 -11 32 -6 53 -4 -8 38 36 -14 -17 41 40 -9 -3 43 44 45 -10 52 48 -2 -49 51 -19 -45 54 -32 -12 57 -21 -5 -7 -22 -27
right_child=2 8 5 6 30 59 14 22 19 12 15 -13 13 -15 -16 37 27 50 -20 56 23 -23 -24 25 26 61 -28 -29 -30 -31 31 -33 -34 -35 -36 -37 -38 -39 -40 -41 -42 -43 -44 46 -46 -47 -48 49 -50 -51 -52 -53 -54 -55 -56 -57 -58 -59 -60 -61 -62 -63
leaf_value=-4.1507317262066445 -3.6333513273990041 -3.7208838969265461 -4.1533079381412596 -3.6328056554436401 -2.4892214860481143 -2.1701993045869541 -3.4927031478657988 -3.4123892692029285 -3.1370809791343155 -3.5614268127440862 -3.5827537597550387 -3.1373637065074984 -3.0003995821508389 -4.2332117012111468 -4.0506579919992696 -3.277579329911732 -3.932880762190901 -3.0967124110171946 -3.4348238869712002 -3.6583818981532596 -3.865381449425215 -3.9426182280309248 -2.9653331078279086 -3.0582691783974285 -3.1883732971548184 -3.8586846660572194 -3.9597961672442543 -2.9105067782323282 -4.2353790653854082 -2.8411197471179062 -4.1334130194177892 -2.7406728369954356 -3.0994568129917814 -3.1060827225226264 -4.2049266519044801 -3.114395051145209 -3.9108053449589941 -4.0850335275503102 -4.3236094883806286 -3.0991446172707757 -4.3241970428249008 -3.3587846756237902 -3.7996372137875274 -3.5233725417664163 -4.0591471136664516 -3.9919764761245871 -2.8458189574535542 -3.1249778500057577 -4.3251563827005324 -4.0014127562654433 -2.4409728485712447 -2.6571089644433421 -3.0823407581792761 -2.988984973620247 -3.1837500423667477 -2.8972484577095794 -2.740963277479687 -2.9535420671417003 -4.1359823568059131 -2.4505115862515527 -4.2729746305345095 -3.1596149783598828
leaf_weight=437.57625632360578 30.812059305608273 89.955956302583218 11.870755396783354 24.437531620264053 69.740965757519007 222.69899117946625 323.91775859519839 23.122860677540302 84.19905548542738 22.064485836774111 16.803566228598356 132.37372089549899 12.307157922536133 22.887521017342806 31.030787970870733 28.421347722411156 10.258898716419933 49.166754055768251 18.789947800338268 18.818666558712721 108.90275513380766 39.227083880454302 188.32933080196381 40.699786886572838 43.531309556216002 55.547863025218248 29.10075755417347 65.900743447244167 71.764756981283426 58.327537771314383 10.545031495392324 230.94927617907524 15.176248028874396 62.184276405721903 17.332737870514393 40.813575558364391 41.44656927511096 17.351521588861942 10.314131952822207 34.910781998187304 13.124666623771189 128.75114088878036 15.771705865859984 42.909305684268475 15.575051560997961 12.247484568506477 120.9879884198308 26.517831783741713 22.762679386883974 12.631944499909876 171.88933117687702 336.7566395662725 222.06571345031261 180.15070069208741 16.369399540126324 134.6230745241046 137.92415859550238 45.53979704529047 91.598704464733601 229.12095822766423 40.612449578940868 12.235345248132942
leaf_count=30472 1600 4975 823 1264 988 939 15526 1020 3020 1085 833 4771 349 1654 2051 1130 629 1681 838 985 6549 2452 5733 1332 1618 3321 1833 1857 5196 1503 723 5327 493 2156 1235 1413 2547 1164 778 1185 990 5584 900 2078 1030 779 3188 914 1717 808 2248 6863 7626 5623 583 3782 3162 1335 6330 3089 2991 416
internal_value=-3.19533 -3.50468 -2.73095 -3.76651 -2.99628 -2.52395 -3.59625 -3.24148 -3.1716 -4.01689 -3.31484 -3.42746 -3.79729 -3.58259 -3.44306 -3.10404 -3.40604 -2.67854 -4.11943 -3.05792 -3.78038 -3.47407 -3.08353 -3.69554 -3.81319 -3.46127 -3.48865 -3.04169 -4.07079 -3.05127 -2.8286 -2.88664 -3.54029 -3.42751 -3.5874 -3.42746 -3.68245 -3.57255 -3.54127 -3.41049 -3.73451 -3.50441 -3.13702 -3.11708 -3.35195 -3.24138 -3.05153 -3.69178 -3.92248 -3.39331 -2.62383 -2.70986 -3.15057 -3.05615 -3.53656 -2.96812 -2.86374 -3.14668 -4.02522 -2.30795 -3.97519 -3.71777
internal_weight=4893.78 2938.8 1954.97 1646.84 859.968 1095.01 979.186 352.212 1291.97 667.65 575.927 378.728 211.284 117.455 532.52 197.2 501.489 643.187 456.366 716.039 446.667 425.329 259.488 330.63 222.147 108.483 72.6321 76.1596 93.8292 85.3745 507.755 438.014 27.047 386.102 246.354 94.5673 53.7537 45.7729 229.021 71.1583 36.2475 218.707 513.756 497.985 112.022 96.4465 385.963 92.7245 53.5747 39.1498 557.813 385.923 264.975 207.065 26.9144 151.427 202.283 64.3585 116.036 451.82 149.515 67.7832
internal_count=187084 142234 44850 93879 27211 17639 50325 13967 48355 43554 24252 17343 12244 5963 24671 6909 22620 13611 31310 24103 25654 20134 8928 18060 12991 5069 3451 2486 6281 2819 13244 12256 1316 17682 12572 4309 2896 2294 11337 3195 2010 10559 18621 17721 4829 3799 12892 5039 3317 1722 10792 8544 9704 6929 1306 4615 5482 2320 7594 4028 9540 3737
is_linear=0
shrinkage=1


Tree=1
num_leaves=63
num_cat=0
split_feature=2 4 35 31 0 16 14 38 38 38 24 43 4 47 14 31 7 47 6 36 36 8 22 38 31 39 35 49 24 5 8 43 31 35 1 2 33 11 23 43 33 31 31 36 48 49 36 11 24 20 2 48 35 36 6 24 47 32 41 32 8 36
split_gain=7182.47 9113.25 6735.88 8831.13 5358.89 5026.48 4750.73 4091.06 4953.41 3530.75 3474.53 3648.51 4051.74 3270.51 3108 3999.07 3745.86 2963.04 2950.87 3009.58 3213.23 3092.02 2924.65 2824.77 2797.76 2775.64 2592.69 2449.18 3495.82 2413 2265.66 2859.63 2264.97 2208.65 2195.44 2194.14 4000.03 2592.47 2995.17 3310.37 2575.31 2469.14 3419.38 3270.61 1920.43 1880.08 1827.77 2822.33 1767.93 1942.78 2554.62 2078.54 2040.91 1801.81 3220.92 1762.23 1750.22 1671.93 1585.24 1420.5 1415.33 2470.67
threshold=0.81439072605938456 1.0000000180025095e-35 18.482871020725273 1.7184730300104532 1.1067362808482712 1.2206877555779789 2324.3709677419361 0.17055890145603694 0.035278900931059766 0.038027301316685948 0.15186883023296796 0.7794301931298836 42.622536813977696 0.77075042849690745 4410.8870967741941 3.8051088594163129 0.16056198235449587 0.76830189197352894 0.3307239805141084 -0.40921719665794942 0.96919824509218067 0.4665273869677789 3.4838142558666436 0.041253103953071552 1.4376064786512626 73.929328883945118 596.87421161079112 0.53966224170827759 0.028126443445271484 -0.97350000000000547 0.38129912436555685 0.29475134116282448 2.0128587816808192 28.376275451387677 0.10402670038181626 1.5553070363965316 472347.90000000008 2.3169733221882121 0.14788930105643941 0.27114065242301616 463709.40000000008 3.0268297043271102 2.331134441715526 0.70057825120093131 0.36540835707502378 0.091850125877122518 -1.4380400480583717 3.5914995287003406 -0.48172770506996959 -0.23788510686453784 1.7162434484959068 0.013037831810269801 123.00789014797105 3.7508104763086259 0.16032177363699479 -0.82171983512314684 0.17043388970030168 0.62805870170393951 -0.11651218796261828 0.86648840844924102 0.97970405858847709 1.9212656281016889
decision_type=2 2 2 2 2 2 2 2 2 2 2 2 2 2 2 2 2 2 2 2 2 2 2 2 2 2 2 2 2 2 2 2 2 2 2 2 2 2 2 2 2 2 2 2 2 2 2 2 2 2 2 2 2 2 2 2 2 2 2 2 2 2
left_child=1 -1 3 4 22 7 18 8 13 58 11 12 -9 17 15 16 -7 29 -3 -20 30 -22 60 -11 -25 -24 59 28 -18 -4 -21 -32 -14 -29 -23 36 40 45 -39 -40 41 42 -5 -43 -15 -38 -27 -48 53 -50 52 -52 -51 54 -16 -55 -12 -46 -10 -8 -2 -62
right_child=2 6 5 35 -6 14 26 10 9 23 56 -13 32 44 48 -17 27 -19 19 20 21 34 25 24 -26 46 -28 33 -30 -31 31 -33 -34 -35 -36 -37 37 38 39 -41 -42 43 -44 -45 57 -47 47 -49 49 50 51 -53 -54 55 -56 -57 -58 -59 -60 -61 61 -63
leaf_value=0.89274789247231956 -0.014821193737429026 0.099849444036451199 0.28562451895357516 0.31728961130094607 0.40190708577209638 -0.028533457555158074 0.018076830638010556 0.017049028274982111 0.30097247258923787 -0.029245820362324104 -0.028861939499894733 0.3262805742432579 0.37613016959939161 -0.030306478365717031 -0.029273513938943539 0.31991276704058857 0.27382959312299415 0.48744975657837808 0.047974190701002346 0.79807733891022503 -0.029329800247075967 0.49936624077515307 0.6186055659473233 0.62372072462644412 0.37228051361739584 0.45023864651791273 0.39026683155001107 0.41132125014619847 0.53213913702535087 0.33864908646816366 -0.027738480907963534 0.56090039141632886 0.20584765570151844 0.62039007147164171 0.090911277065788249 0.31693401231295526 0.34493448715078484 0.53389107352074883 0.42067078331516838 -0.030008718460212455 0.76846863457046732 0.4821950631291147 0.086692424781578958 0.21586187988978192 0.37217015561571826 0.010483802950709539 0.020871075592848506 0.29997019486802362 0.40801224047015144 0.16710433108087844 -0.029388624920004786 0.35344618899351021 0.32337236382427831 0.28649989049731478 0.40066301224554413 0.63903240150760465 0.3412078085660456 0.10951842835832276 0.63415275336015198 0.36748898983715328 -0.029407214376917755 0.43794688499526968
leaf_weight=15.721263027749954 138.98931336868554 66.627631451934576 1134.4477109909058 157.21456937864423 70.180330560542643 12.432606105692683 180.29094063770026 90.704500241205096 18.919294379651546 15.08736033644527 11.524206689558921 337.09836432524025 85.59787780046463 32.218758067116141 16.274695384316146 205.86068165674806 92.985421169549227 105.10976638551801 27.327119181863964 22.947114068083465 22.781137708574533 40.586047942750156 12.593335397541521 42.764104529283941 1154.6553704012185 17.362776232883334 19.976395434699953 73.709561508148909 104.60504095256329 2828.8657699143514 10.242444692179559 25.095955402590334 434.82723554782569 178.20989059936255 17.308608241379261 4340.7097971197218 16.649690099060535 26.345083516091108 23.439104747027159 36.35690367501229 10.056115189567207 110.60398167837411 92.860122088342905 70.439672003500164 42.72133531421423 106.47743441537023 84.623011869378388 52.245843168348074 319.50083987507969 154.69817339908332 12.784729040227829 890.67175812274218 154.29407489299774 19.864966878667474 345.523397997953 54.901291872374713 707.53348567895591 45.997279481962323 75.165186749771237 10.129119602963327 21.856385413557291 17.849904214031994
leaf_count=100 6787 2781 8129 4705 618 434 9526 2791 124 445 295 2708 1855 1087 515 2280 2115 443 1271 363 1152 953 84 534 10247 352 412 1087 1121 28254 527 440 7195 1935 727 35005 411 475 488 1530 117 1622 3341 1668 543 5016 3724 920 1794 4472 262 5855 2439 256 3090 347 6295 972 326 296 984 444
internal_value=0.321619 0.203864 0.32516 0.298023 0.164533 0.3401 0.177473 0.326862 0.339487 0.391067 0.285065 0.246699 0.202336 0.32331 0.375932 0.43308 0.482706 0.327902 0.270572 0.337953 0.394207 0.266096 0.115289 0.376639 0.381776 0.205242 0.0736029 0.496884 0.412586 0.323548 0.564 0.394139 0.234529 0.561098 0.38092 0.309106 0.256452 0.147335 0.272651 0.150615 0.307754 0.295247 0.23236 0.380343 0.167398 0.0581481 0.167703 0.128834 0.356333 0.340365 0.322215 0.347999 0.245937 0.411453 0.381288 0.550424 0.335241 0.238767 0.571056 0.0385017 0.0306201 0.186215
internal_weight=15665.4 459.034 15206.4 5406.85 415.701 9799.55 443.313 7163.24 5495.95 1306.59 1667.29 948.228 611.13 4189.36 2636.32 667.803 461.943 4068.42 232.916 166.288 138.961 80.6758 345.521 1212.51 1197.42 166.825 210.396 449.51 197.59 3963.31 58.2855 35.3384 520.425 251.919 57.8947 4991.15 650.443 209.268 86.1411 59.796 441.174 431.118 250.075 181.044 120.937 123.127 154.232 136.869 1968.51 1531.95 1212.45 903.456 308.992 436.564 361.798 74.7663 719.058 88.7186 94.0845 190.42 178.696 39.7063
internal_count=187084 18548 168536 68291 13913 100245 18448 72243 51104 11676 21139 14549 11841 39428 28002 8972 6692 36826 8214 5433 4162 2832 13295 11226 10781 5080 10234 6258 3236 36383 1330 967 9050 3022 1680 54378 19373 7920 2493 2018 11453 11336 8046 3290 2602 5427 4996 4644 19030 14822 13028 6117 6911 4208 3605 603 6590 1515 450 9822 8215 1428
is_linear=0
shrinkage=0.03


Tree=2
num_leaves=63
num_cat=0
split_feature=27 45 4 31 21 35 47 23 8 23 35 11 16 3 27 29 8 41 42 17 45 40 36 38 15 31 0 28 35 4 20 22 14 14 26 45 32 41 40 8 1 42 26 35 27 0 10 7 47 14 14 35 4 16 0 33 32 8 32 15 3 36
split_gain=6284.89 5017.47 3188.26 2833.68 3010.32 2417.31 2312.92 2189.15 2158.91 2316.01 2200.65 2407.68 2101.59 1934.22 1898.2 1866.12 1854.64 1839.39 1830.91 1757.69 2044.23 1757.21 1751.84 2012.91 2579.48 2291.89 1651.15 1626.29 1934.38 1585.69 1545.8 1512.34 1479.29 1463.46 1459.15 2035.9 1910.68 2259.14 1764.17 1652.49 1618.27 1473.49 1449.01 1437.14 1424.81 2483.15 2265.63 2109.7 1403.19 1780.86 1380.23 1358.79 1314.95 1294.58 1288.51 1262.04 1338.12 1221.08 1187.67 1246.29 1113.69 1072.48
threshold=1.4861615382592774 0.54521620210017063 40.57449739549687 1.93133696820625 -2.7449192616038114 9.3926885600308907 0.77075042849690745 -0.98443919722304341 0.47615424773967502 -0.41711230525004028 89.73868773268191 0.49194264167691776 0.98206509953263066 -0.025628228016104333 1.7358745364405819 -0.95238095238095066 0.3680243676586345 0.28084194356000186 0.9071891492794445 -1.1737336509726282 0.32053038285915009 0.21556163135110504 5.8284190854264866 0.16832712535988129 0.27911379386974627 2.0128587816808192 0.49665534398087141 0.60475167962966869 1.4830653207481483 57.35169855226787 -0.40773785516968314 4.0996083996379022 518.61290322580658 22930.951612903231 1.5278057089677985 0.072152125968097669 0.72535334099697768 -0.4132158161483242 0.3699865951742628 0.094402692275481218 -0.70664027727879863 0.090558052875458026 2.4437626855842782 67.492617838120324 1.939259663089077 0.47417439208727236 2.5000000000000004 0.41636502684019155 0.49028282828282832 350.53225806451616 5292.4516129032263 6.0887935713672432 20.429233024223212 -3.0615500666073596 0.84463189045056219 2244507.6000000006 0.69602579957347999 0.45938505281348779 0.61869956834548345 0.30462654307056464 -0.18613674341344225 3.1102064717321647
decision_type=2 2 2 2 2 2 2 2 2 2 2 2 2 2 2 2 2 2 2 2 2 2 2 2 2 2 2 2 2 2 2 2 2 2 2 2 2 2 2 2 2 2 2 2 2 2 2 2 2 2 2 2 2 2 2 2 2 2 2 2 2 2
left_child=1 2 17 8 18 27 19 -8 9 13 -10 -12 26 -4 -9 -14 -17 -1 -5 20 -2 -11 23 24 -6 -25 55 28 -3 51 42 -15 -32 -13 35 41 37 40 60 -36 -37 -21 -22 -28 45 46 -41 -47 49 -46 -45 -29 -50 -34 -39 58 -57 -23 59 -7 -38 -55
right_child=6 5 3 4 22 12 7 14 10 21 11 33 15 31 -16 16 -18 -19 -20 34 30 57 -24 25 -26 -27 43 29 -30 -31 32 -33 53 -35 39 36 38 54 -40 44 -42 -43 -44 50 48 47 -48 -49 52 -51 -52 -53 -54 61 -56 56 -58 -59 -60 -61 -62 -63
leaf_value=-0.015259629930519398 0.018660806596582476 0.2599721961104246 0.065158123241954691 0.02779421951404807 0.21313410188763335 -0.02976357993805228 -0.031104993107760711 -0.030193989666401053 0.0027140595753963087 0.40235380540343885 -0.028871581415985215 0.66270243916549498 0.10522092851214725 0.30872816709289413 0.21280257876799336 0.46552461601109513 0.29475775145727162 0.2855831087737678 0.3644966411266099 0.36844371518009156 0.28416276224896325 0.02910037991331681 0.56091775658796827 0.48647097870408751 0.39036595368442872 0.058799308776013567 0.0088066141629814659 -0.030568034019937823 -0.030882294825996477 0.26237639945203828 0.0787604490741243 0.70983624177218008 -0.030697600792100044 0.16304554047562855 -0.030514572627729331 0.20601750505124874 0.28660042941705149 0.2485919833369658 0.28969066087649165 0.12541858918604593 -0.030309926475356058 -0.029880125078371296 0.22729201958108045 0.51592368160294999 0.34004110873389998 0.11888106949486628 0.21889270825587301 0.27761375687865231 0.44595249871508097 0.25429803428628789 0.09088295294101123 0.22958406570660428 0.23376101116370035 0.22357074919444225 0.34174901767149235 0.24985985796802079 0.024376048534151786 0.35427291255164584 0.32814396939443241 0.36886389864054575 0.46566709284872487 0.15501219224652824
leaf_weight=142.72228249628097 43.460836260579526 29.210310407914221 22.223564775660634 111.16403543855995 323.35130921564996 19.076997182331983 43.486283529549837 31.258789367973804 196.97299349401146 14.316834179684518 16.382537018507719 11.743241745047273 31.364838211797178 44.418909445405006 349.623734745197 92.082862201146781 181.03690996486694 19.963942990638316 15.764192438684402 10.081806064583359 617.37526604160666 109.80835511628538 13.927350842393933 11.827045806683598 98.302557338029146 97.245159208774567 54.194629636593163 38.296587367542088 63.95632232259959 163.50964160449803 79.009186952374876 10.929101751185952 19.242454029619694 10.495391868054865 19.621680788695812 73.232011239975691 54.486313587985933 721.59242952987552 525.88930943515152 349.45727793034166 39.812017886899412 33.450251108035445 1330.7171922549605 11.118084685876967 235.92288334388286 87.075850455090404 736.66974930558354 688.45420793723315 26.710285330191255 5571.1291917497292 17.198119886219501 32.838595040142536 4558.4129825457931 1692.9611685955897 175.77738236170262 61.532147688791156 38.559528386220336 10.514818829484282 170.39238806348294 10.070560799911616 105.36323533859104 245.85509615018964
leaf_count=6555 1109 258 897 3602 7235 531 998 1136 9292 382 760 221 571 970 3787 559 1537 621 199 91 2624 5126 169 295 1665 3262 1279 1138 1947 1378 1542 125 345 338 359 1358 854 9944 4628 6414 1400 1508 1984 25 1890 1971 9812 5090 51 30527 312 546 25267 12637 984 536 817 403 1664 81 878 2600
internal_value=0.234145 0.187109 0.147437 0.16546 0.204481 0.237049 0.239984 0.169852 0.106606 0.17581 0.0437783 0.247781 0.269225 0.305569 0.192825 0.32866 0.353831 0.0231589 0.0721577 0.241624 0.223821 0.0993272 0.235124 0.22553 0.255286 0.109199 0.221126 0.16903 0.0620691 0.211042 0.226053 0.399177 0.207387 0.444185 0.246725 0.273015 0.278219 0.251236 0.317549 0.242976 0.123225 0.0685044 0.245453 0.100562 0.243417 0.218669 0.188964 0.259971 0.247828 0.25784 0.269779 0.0910039 0.235095 0.212533 0.267203 0.253872 0.164124 0.0602272 0.297833 0.115531 0.40681 0.214963
internal_weight=20762.6 2296.51 1282.07 1119.39 671.582 1014.44 18466.1 424.369 447.806 212.212 235.594 38.6212 686.627 77.5716 380.883 304.485 273.12 162.686 126.928 18041.8 4028.62 134.64 544.653 530.726 421.654 109.072 382.142 327.811 93.1666 234.645 3985.16 55.348 2037.07 22.2386 14013.1 1739.68 1696.15 1010.41 685.739 12273.5 113.044 43.5321 1948.09 82.5108 12253.8 1861.66 1086.13 775.53 10392.2 5807.05 28.3162 71.1352 4585.12 1958.06 897.37 299.632 100.092 120.323 199.54 29.1476 159.85 1938.82
internal_count=187084 55296 42117 34941 16427 13179 131788 5921 18514 7903 10611 1319 7912 1992 4923 2667 2096 7176 3801 125867 22841 5911 12626 12457 8900 3557 5245 5267 2205 3062 21732 1095 17124 559 103026 21645 20046 13686 6360 81381 2758 1599 4608 1616 81022 23287 16226 7061 57735 32417 337 1684 25318 15582 10928 3629 1353 5529 2276 612 1732 15237
is_linear=0
shrinkage=0.03


Tree=3
num_leaves=63
num_cat=0
split_feature=45 23 29 31 21 24 28 20 36 45 23 44 14 22 5 45 30 36 21 32 48 30 15 42 48 23 29 29 49 18 36 38 45 29 47 45 38 2 4 14 21 2 23 36 30 32 39 42 24 31 21 7 0 24 1 2 45 4 5 47 23 36
split_gain=3699.13 2710 1870.77 1727.38 2015.05 2100.14 2052.97 1896.79 1950.73 1759.35 1591.01 1496.35 1453.71 1343.81 1301.79 1352.6 1262.76 1845.85 1630.15 1684 1317 1270.1 2045.88 1671.04 1224.3 1200.44 1203.38 1429.61 1741.14 1420.97 1136.44 1517.46 1875.62 1387.81 1879.39 1445.48 1348.43 1147.89 1273.39 1129.49 1570.39 1111.27 1528.61 1094.7 1091.88 1148.67 1066.44 1100.84 1065.58 957.958 1174.15 1094.49 1049.38 1018.5 957.899 987.985 956.275 946.164 926.301 926.269 905.066 1000.39
threshold=0.072152125968097669 -0.98443919722304341 -3.2034029109238018 1.9553158099874912 1.3794703387676843 -0.20704472719432562 0.74074328047737403 -0.043741559991176425 -0.008578307988885427 0.64765553684156407 0.2062684226360024 0.76394256015295758 704.91935483870975 -10.771244119792026 1.2149999999999908 0.19846344534508539 1.3852117576965237 -0.51835896845033103 -6.8843713470011645 0.59209010021330177 0.55190565124161317 -0.81506299135895499 0.13944410956548317 0.34346232407174243 0.42493278261935147 1.0000000180025095e-35 -1.0000000180025095e-35 -0.088346672343692104 0.68065027057943606 -1.7390961057246972 -0.30999731532904201 0.3177316223641613 0.67912443131933931 -0.91888854622910665 0.77075042849690745 0.11533641796799693 1.4426023059668449 1.8375647717408028 59.756097560975576 120.37634408602152 0.11839279401594159 1.8169467423296133 -1.2399771780509583 -2.9650490971458185 1.6760667822380577 0.66682338186627543 174.55620675903631 0.88365993801596232 -0.46769527881385853 7.0814982144493257 -4.0628856358736867 0.31262385389897601 -0.24784415596992557 -0.58142687160752482 -1.5272283001055122 1.9884505008070181 0.27320271268013896 57.990867579908688 -1.485000000000009 0.3528579513299378 -0.77979586551131919 1.6249766592202419
decision_type=2 2 2 2 2 2 2 2 2 2 2 2 2 2 2 2 2 2 2 2 2 2 2 2 2 2 2 2 2 2 2 2 2 2 2 2 2 2 2 2 2 2 2 2 2 2 2 2 2 2 2 2 2 2 2 2 2 2 2 2 2 2
left_child=1 24 -3 4 6 14 16 9 10 -7 11 -9 -11 49 15 -6 17 18 19 -2 59 23 -23 -19 -1 -4 27 28 -27 -28 31 39 36 34 35 -32 -33 -34 -39 40 48 42 -41 -20 45 -10 47 -35 -15 50 51 52 -5 -52 55 -48 -43 -12 -37 -18 61 -55
right_child=3 2 25 13 5 7 -8 8 44 12 57 -13 -14 30 -16 -17 20 21 43 -21 -22 22 -24 -25 -26 26 29 -29 -30 -31 33 32 37 46 -36 58 -38 38 -40 41 -42 56 -44 -45 -46 -47 54 -49 -50 -51 53 -53 -54 60 -56 -57 -58 -59 -60 -61 -62 -63
leaf_value=0.30674622879489633 0.31556031886325747 0.31195412145334356 -0.0068155238434740827 0.29146527803996236 -0.028358363206733475 0.028315469838251842 -0.0058773203513877194 0.44890870601612465 0.1252786704912833 0.37665594227390975 -0.029555037308561179 0.15535191890853717 0.12791899916718533 0.19594359264162339 0.16760046337526496 0.31444819517199185 0.21551698163744248 0.079750798250888683 0.12860753029964839 -0.029942813203832679 0.31460659380796618 0.15319783512757323 -0.030855415192677964 0.24074317457919403 0.056813455330023591 -0.03008938239563963 0.31234784894169032 0.40785620185552507 0.29010430573078899 -0.03059068612026232 -0.030239270463501708 0.028203915818964278 0.35642053983196564 -0.031001201026880199 -0.031046038484774437 0.15294164132560154 0.23781268768216893 0.080720007540786828 0.19624166970688506 0.22906970736805993 -0.029090094162795808 0.28219009230401493 0.14160200851078422 -0.031152637495329157 0.019823084151351918 0.2195680052117121 -0.030155044009294682 0.22419671721030338 0.44792189909121644 0.18756918718921251 0.047431687838358161 0.24149571100912934 -0.030696481894261957 0.22762148361501056 0.20499943289458825 0.17589266470792825 0.18551522300911935 0.24100944288926443 0.18926347944957247 -0.029946265323975776 0.15225591525884388 0.5626868452986884
leaf_weight=70.454973462037742 37.081435191445053 24.628396132029593 182.20131285488605 12.704939495772122 10.714208534918724 146.87802209798247 87.061846093274653 63.220710777677596 209.02744847070426 26.014637826010585 16.032654759474099 22.604910193942487 108.64539306797087 27.94175673648715 108.66425447165966 208.6052010692656 34.542278524488211 78.123309127986431 54.094679187051952 18.781077840365469 75.309005467221141 284.79216476809233 66.716809963807464 241.15801128465682 24.159349457360804 34.033853465691209 11.889573768712578 19.100889748893678 26.476701992563903 68.681805377826095 28.597397316247225 182.03354055993259 27.420046698302031 36.483745459467173 37.538710618391633 804.13406299892813 31.656557476148009 134.4507207646966 248.30031918361783 218.10006327461451 11.327498666942118 96.91873247269541 1114.3366911839694 128.02075162623078 42.153780131600797 279.06817686930299 21.175537911243737 24.822032766416669 40.379439483396709 1007.4198985788971 54.266974945552647 1314.1481647631153 26.554963167756796 41.397519482299685 7410.7550850184634 840.37704679649323 4814.6152919447049 39.362664724700153 3600.6401542527601 22.26386275421828 129.77639482915401 10.167122442275284
leaf_count=362 255 60 7445 84 350 4294 3012 540 3783 121 460 244 1060 209 767 1161 214 1712 1107 501 595 5790 2211 2713 547 1389 177 175 461 2765 859 3483 128 827 893 7206 167 1229 858 1731 241 258 15006 4155 954 3640 487 133 209 903 691 5205 557 212 47179 4359 17931 279 21034 669 972 65
internal_value=0.186339 0.101831 0.0645519 0.187911 0.163491 0.189355 0.133973 0.166446 0.193903 0.100497 0.293372 0.374305 0.178416 0.190536 0.255203 0.297635 0.145668 0.132776 0.0606246 0.200865 0.23266 0.15824 0.118267 0.201732 0.24422 0.0458904 0.10553 0.187507 0.112403 0.0231873 0.187818 0.177868 0.132712 0.193203 0.179499 0.181289 0.0602329 0.170226 0.155986 0.182301 0.295691 0.180807 0.156082 0.0167285 0.166904 0.179533 0.200532 0.0742174 0.349225 0.211124 0.225929 0.23682 0.0781342 0.162615 0.201459 0.170796 0.187481 0.163513 0.182669 0.120408 0.196619 0.303192
internal_weight=25219 461.627 367.013 24757.4 2408.94 1280.99 1127.95 953.008 671.47 281.538 141.221 85.8256 134.66 22348.4 327.984 219.319 1040.88 908.768 237.978 55.8625 132.115 670.79 351.509 319.281 94.6143 342.384 160.183 79.6114 60.5106 80.5714 19752 6947.48 623.861 12804.5 4470.91 4433.37 213.69 410.171 382.751 6323.62 79.6487 6243.97 1332.44 182.115 530.249 488.096 8333.61 61.3058 68.3212 2596.44 1589.02 1353.41 39.2599 235.608 8272.31 861.553 4911.53 55.3953 4404.77 56.8061 181.341 51.5646
internal_count=187084 13381 12472 173703 40587 17653 22934 15375 9900 5475 1523 784 1181 133116 2278 1511 19922 18444 6018 756 1478 12426 8001 4425 909 12412 4967 2025 1850 2942 124427 41450 5865 82977 29992 29099 3650 2215 2087 35585 659 34926 16737 5262 8377 7423 52985 960 418 8689 7786 5846 641 1940 52025 4846 18189 739 28240 883 1249 277
is_linear=0
shrinkage=0.03


Tree=4
num_leaves=63
num_cat=0
split_feature=25 25 26 43 37 6 11 11 33 6 46 5 37 39 45 29 35 36 18 26 35 33 43 5 42 29 46 43 37 26 24 41 46 31 21 22 48 37 28 23 29 2 42 49 28 30 43 41 36 39 26 6 22 31 46 31 18 27 48 24 11 37
split_gain=5146.02 2189.37 2402.69 1949.42 2048.26 2056.41 1944.18 1875.64 2396.78 1764.01 1660.87 1646.61 1544.57 1508.35 1448.95 1332.47 1288.95 1173.69 1122.77 1084.63 1077.85 2170.19 1651.26 1238.03 1062.93 1109.86 1058.52 1028.39 1268.31 1062.18 1245.7 1011.59 981.819 1002.13 1076.59 1072.64 957.73 956.234 945.487 927.355 871.05 801.095 788.202 771.172 1913.96 1227.73 768.043 811.503 1062.76 745.771 769.808 729.381 723.352 675.934 661.088 659.696 656.171 650.9 991.741 1019.05 1608.69 960.37
threshold=1.9091770129465178 2.6128348343571912 0.97005434106081634 0.7794301931298836 -0.59547052342651852 0.43902439024389178 -1.0000000180025095e-35 3.4093069458840519 28885.000000000004 0.14388489208633048 0.43685539606592244 -7.0425000000000404 0.028767206504171906 235210.2961388074 0.40316219256461183 -0.80403371995945283 4.3030494661711556 -0.22078607503151645 -2.6050638442567489 1.5202812612247241 56.512312230214796 446990.60000000003 0.91645880633222421 0.47999999999999882 0.91495223266922643 1.2089986975848726 0.93997389033942569 0.076722959715287101 0.42651898347691802 1.4534648687035079 0.8486670707583438 -0.32593106007797756 0.076729507989162102 4.1123120582548509 -2.6074416358763322 -7.8490220767425471 0.70518100864921685 -0.087199500675942079 0.24112913116033832 -0.80349817341329988 -2.4107200408847338 1.9884505008070181 0.93050118761693723 0.26081452944413874 0.51954250987698314 -0.039910202939348972 0.10052228222331316 0.16075570062811789 -1.7956576122276176 9539.1725806451632 0.77019221753337508 0.97593701979823078 -12.263313070585719 1.5384832933406207 0.21941609977324264 2.7950643043863796 -1.4416961459267232 2.3295244949098315 0.13997455470737916 -0.65291953538020542 0.42171687642727923 0.78817772458838009
decision_type=2 2 2 2 2 2 2 2 2 2 2 2 2 2 2 2 2 2 2 2 2 2 2 2 2 2 2 2 2 2 2 2 2 2 2 2 2 2 2 2 2 2 2 2 2 2 2 2 2 2 2 2 2 2 2 2 2 2 2 2 2 2
left_child=7 2 6 4 11 13 14 8 9 -1 36 -4 -9 39 -2 49 -7 -12 -18 31 21 24 26 37 25 -5 -23 28 32 30 46 -13 -3 34 35 -34 56 40 -36 -6 -22 -24 52 44 45 53 -29 48 -48 50 -16 -45 -30 -10 -49 -11 -8 58 59 -31 -61 -60
right_child=1 27 3 20 5 16 10 12 43 55 17 19 -14 -15 15 -17 18 -19 -20 -21 23 22 41 -25 -26 -27 -28 29 42 57 -32 -33 33 -35 38 -37 -38 -39 -40 -41 -42 -43 -44 51 -46 -47 47 54 -50 -51 -52 -53 -54 -55 -56 -57 -58 -59 61 60 -62 -63
leaf_value=0.42492779026697952 -0.030425775980367529 0.19097876906660338 0.38972218021754573 0.22172439179769593 0.11729269814684889 -0.03087449278424827 0.15002362624178384 -0.030477144808151769 0.12773596068338686 -0.029627208030365636 -0.030061801130881485 -0.029641960380842582 0.22887169133411148 0.29198214033382813 0.25845588122782109 0.025159490058446407 0.0041452325414733848 0.20886044406019957 0.13810457983689331 -0.030350142526489671 0.21936447443802912 -0.031714665936623379 -0.030535186528439361 -0.031193116954997928 0.026661835090118085 0.077617089108164422 0.21556124740885771 -0.029560574173253428 0.15828147830557035 0.16851636010209681 -0.031335245676055591 0.21179621676906749 -0.030363042331524911 0.16259722485793929 0.13578014929422447 0.19765543869180335 0.10849639641590374 0.25167184485819522 0.042460489990907631 0.010563059936545173 -0.030912860511195003 0.15046555927052885 0.23185201880423692 -0.010347336355480826 -0.0037483629181660804 -0.028278125854795021 0.12671247499850716 0.080443313218935039 0.21831586903581457 0.37154856246237544 -0.029515673810951847 0.16720002248837859 -0.032115144451865252 0.40791491503435695 0.17410133605623046 0.2246242414114657 0.41659535835136791 0.16369590970879525 0.15811890874968021 0.019169476471597446 0.13222662289885578 0.084561824454441936
leaf_weight=23.170805866830051 50.022606913931668 312.35832181014121 30.426704847253859 301.76843957230449 87.849693187512457 49.57345605455339 11.19919324479997 25.676757789216936 13.046632328070698 19.307494170963764 19.733912130817771 17.538646254688501 100.14130913559347 19.482665818184614 21.789296093396842 37.597360672429204 61.68376138061285 244.85838750563562 658.84100449364632 25.116768577136099 25.237404070794582 121.78856177814305 24.305824653245509 18.311861451715231 36.018078751862049 58.959216217510402 16.844596650451422 14.506308983080087 22.024399671703577 260.07883154693991 23.767184264957905 125.23784390185028 21.015179461799562 468.09283417277038 155.73474740236998 142.68814007285982 14.745273683220146 200.29878686182201 263.75476895738393 419.76144249457866 23.479242120869458 202.32082235254347 15.763483386486767 321.21088782511652 80.693661975674331 12.1495807711035 136.7326604668051 76.693289815448225 884.67114414088428 26.373165800236166 12.865717455744742 21.262839985080063 80.645267357118428 24.122027035802603 835.77839303296059 16.143607796169817 67.803367727436125 14562.017976068892 6583.6954837553203 169.0569466566667 345.04314423818141 167.64630479272455
leaf_count=149 1831 1132 244 2083 1732 1413 113 713 432 697 545 502 889 170 97 717 1720 1833 10931 636 81 2776 565 253 398 708 81 341 91 1238 389 1450 466 1512 1406 1275 169 884 4013 12070 443 1133 84 13497 3056 547 1332 765 5906 183 285 383 1399 215 3856 59 385 45795 41952 2461 2845 1758
internal_value=0.155542 0.157452 0.133191 0.121122 0.0991126 0.0852578 0.192932 0.0723601 0.0474946 0.226763 0.230796 0.188838 0.176098 0.0394864 0.100702 0.166878 0.11649 0.190984 0.126662 0.150323 0.152968 0.134403 0.0812796 0.205177 0.182976 0.198459 -0.00031937 0.160326 0.135727 0.161836 0.183215 0.182117 0.143907 0.12975 0.103148 0.168359 0.33993 0.222627 0.0773529 0.0292344 0.100486 0.130991 0.0411019 0.0248142 0.0867161 0.231925 0.185849 0.187481 0.206192 0.252325 0.153633 0.00112184 0.00983206 0.315571 0.166329 0.0890567 0.381192 0.159918 0.152587 0.119996 0.0951641 0.156306
internal_weight=29230.5 28573.6 3031.83 2524.84 1495.51 1297.19 506.988 656.926 531.108 58.6219 358.34 198.32 125.818 527.094 148.648 98.6255 770.098 264.592 720.525 167.893 1029.33 762.006 365.26 267.327 396.746 360.728 138.633 25541.8 1482.08 24059.7 1972.15 142.776 1363.64 1051.29 583.193 163.703 93.7478 249.015 419.49 507.611 48.7166 226.627 118.433 472.486 130.012 49.3182 1948.38 1933.88 1021.4 61.0282 34.655 342.474 102.67 37.1687 912.472 35.4511 79.0026 22087.5 7525.52 774.179 514.1 6751.34
internal_count=187084 166447 46431 40273 30868 28036 6158 20637 19035 905 3045 2832 1602 13972 3113 1282 14064 2378 12651 2588 9405 7744 4555 1661 3189 2791 2857 120016 11378 108638 12589 1952 9804 8672 7160 1741 667 1408 5419 13802 524 1698 1574 18130 4250 1194 12200 11859 7238 565 382 13880 1490 647 4621 756 498 96049 50254 6544 5306 43710
is_linear=0
shrinkage=0.03


Tree=5
num_leaves=63
num_cat=0
split_feature=25 7 35 39 45 33 4 49 25 37 21 48 47 47 15 8 15 21 25 23 7 27 26 26 27 43 18 10 47 21 17 17 21 17 43 35 25 14 3 8 15 42 2 2 49 39 17 35 38 15 1 28 1 1 30 23 28 49 15 15 4 25
split_gain=3829.9 1761.04 1638.61 2089.58 1515.38 1255.78 1990.08 1402.31 1151.59 1106.39 1086.94 1095.19 1042.93 2196.98 1124.11 1537.63 1464.38 1032.64 1109.05 1055.31 969.692 982.891 1468.69 1505.4 1148.73 1139.65 1076.05 1016.05 1007.24 1095.61 963.342 1108.21 928.254 923.127 920.507 908.81 863.566 1242.97 944.404 844.164 833.927 809.19 803.736 803.602 780.856 753.672 750.61 729.481 716.421 1547.54 1010 703.017 887.64 694.398 681.6 664.877 661.053 641.482 640.092 1129.6 619.462 616.89
threshold=2.6128348343571912 1.083905255596131 26.910697147255988 2121.3548387096776 0.076154604073385826 1339124.0000000002 41.285381553864831 0.13499311294765845 1.4468872619223385 -1.1997645126060099 -1.958501796945191 0.021304964539007095 0.67656377165445891 0.59637395628107714 0.047857781765611097 0.27957771466674786 0.092115398034453136 5.9842713252333066 2.0903041749613669 -0.61889784241045587 0.57753284178556197 1.7738019257812492 1.5818451356001686 1.1384576161433204 0.9680852198724551 0.58343422114608567 -1.8941805259149769 2.5000000000000004 0.77075042849690745 4.4322023978231773 0.0096244175195781389 0.48119035110081443 5.4172696346754448 -0.30684055927969661 0.38558812620701127 3.7496553293190527 3.7006349810810728 1213.3387096774195 -0.043863463193058429 0.45032709037481561 -0.37079117795499322 0.73155302048224025 3.3743152789324404 1.3483146067415634 0.48074451255685197 156125.77258064519 -0.42593561916301054 170.23733582856767 0.6770365668637105 0.0050212723259859147 -0.80808080808080829 0.41152760626564672 0.16018074648166522 -1.375410924220833 -1.6699219867625457 1.1076573348023822 0.33292885705591552 0.017305341645275644 -2.5514250751745089 -0.97309836343684497 31.60205274448607 5.2653891874461545
decision_type=2 2 2 2 2 2 2 2 2 2 2 2 2 2 2 2 2 2 2 2 2 2 2 2 2 2 2 2 2 2 2 2 2 2 2 2 2 2 2 2 2 2 2 2 2 2 2 2 2 2 2 2 2 2 2 2 2 2 2 2 2 2
left_child=1 2 3 12 8 7 -7 -6 -4 -5 34 -12 13 14 15 -1 -16 19 -19 -9 21 24 23 -23 43 36 27 44 48 -30 -11 35 -31 46 -8 -32 37 38 -26 -27 47 -35 54 -2 -25 -39 -15 -3 51 -50 -51 -24 -53 -28 57 60 -38 -22 -56 -60 -42 -34
right_child=20 40 4 9 5 6 10 17 -10 30 11 -13 -14 33 16 -17 -18 18 -20 -21 42 22 28 26 25 39 53 -29 29 32 31 -33 61 41 -36 -37 56 45 -40 -41 55 -43 -44 -45 -46 -47 -48 -49 49 50 -52 52 -54 -55 58 -57 -58 -59 59 -61 -62 -63
leaf_value=0.17914098449104607 0.35172287291693849 -0.0317406255357345 0.24381763387479982 0.23255125454450967 -0.030659507252385695 -0.031026824943319833 0.1337173884499564 0.23608825454942386 -0.030587631393261303 -0.0060832774909696354 0.30808571315471228 0.12710918425216844 -0.030550707674896128 0.18617406697604313 0.25354691924389811 0.0096560494013988619 0.098905304464630084 0.52917606055846544 0.17818905585301856 0.130003683153528 -0.031116757318267792 0.01306333739672811 0.14432083326398271 -0.029932521168786499 0.066202638850092074 -0.029835579388567797 -0.029767689287311799 0.0084593722018475124 -0.032086391651183079 0.26196962901484577 0.31307649619810846 0.013484119012457305 -0.031881670884236289 0.078285990114995901 -0.031213084313562098 0.092953897388831239 -0.030679209147899664 0.037857503515331209 0.15348692542163786 0.23595579366283695 0.046315260068477894 0.32086336568692186 0.13582466122412504 0.085592197166143552 0.21631594878024665 0.19522942844417507 0.44650270162366418 0.18296231089927431 -0.010831452974463127 -0.031925632567274542 0.15273962677591982 0.13498553216015222 0.10763311754005593 0.21257519708143952 0.21247962235043263 -0.031407473584038378 0.16425806455822642 0.16541091423942814 0.0068582716768923408 0.14375494976455602 0.15151623082559312 0.1304427463637747
leaf_weight=61.406963820569217 27.739793974906206 46.588119394145906 15.128518512472509 24.040655444376171 29.812574338167906 86.826197617687285 51.816489480435848 130.25634304247797 92.925363124348223 350.62780658435076 31.40945241600275 577.90605187788606 46.339851311407983 19.278415622189641 68.417591790668666 212.02292395289987 284.58072758000344 14.762624757364391 20.07818297110498 256.44333690684289 14.736949952319263 47.77590324729681 3539.6961406692863 13.569725139066575 199.99583201948553 12.114609109237788 10.610374217852948 53.113112676888704 70.170192196033895 28.939731067046523 18.252349079586565 193.55080991238356 34.150669011287391 39.188154813833535 71.195213835686445 158.39766285382211 16.728217488154769 469.85325607471168 259.25596729945391 80.95625876262784 54.122583190910518 17.80608450062573 8982.1711977468804 17.152454290539026 69.641921741887927 28.194038172252476 26.680985690094531 19.364277165383101 99.015927212312818 30.083661468699574 211.96656087227166 3588.8808114416897 1564.8101268187165 509.75426989514381 123.7052241191268 18.891905246302485 188.0878637637943 2074.4218644760549 54.868415519595146 6305.2696618558839 1056.0041872244328 52.565897390246391
leaf_count=544 60 986 472 196 720 2589 776 1129 3984 12136 162 7447 1567 200 617 5275 5048 41 217 3400 189 712 16895 250 2808 194 177 791 1213 97 249 4779 551 870 1779 4240 274 7666 2537 299 679 164 12587 57 256 298 61 28 1325 440 1132 18019 8312 2668 51 270 855 7971 748 30395 6443 189
internal_value=0.133878 0.106655 0.0939482 0.0723784 0.117668 0.126835 0.104436 0.167159 0.00968753 0.0364107 0.120521 0.136933 0.10682 0.115582 0.0941808 0.048244 0.129518 0.181196 0.337607 0.166262 0.137746 0.130778 0.134012 0.176013 0.106002 0.100501 0.187825 0.111434 0.130784 0.061144 0.0295519 0.0632365 0.117524 0.243612 0.0387548 0.117349 0.0922536 0.0801276 0.115709 0.201378 0.137375 0.158349 0.142194 0.254186 0.176245 0.0471456 0.343657 0.0330447 0.132209 0.0890084 0.129739 0.133893 0.126704 0.20758 0.148851 0.143433 0.14825 0.164009 0.143942 0.142576 0.146436 0.0668474
internal_weight=32874.1 4094.12 2899.15 1520.59 1378.56 1270.51 819.153 451.353 108.054 744.869 732.327 609.316 775.722 729.382 626.428 273.43 352.998 421.54 34.8408 386.7 28780 11224.8 9924.75 704.465 1300.08 1255.19 656.689 136.325 9220.28 185.826 720.829 370.201 115.656 102.954 123.012 176.65 1162.12 957.299 459.252 93.0709 1194.97 56.9942 17555.2 44.8922 83.2116 498.047 45.9594 65.9524 9034.45 341.066 242.05 8693.39 5153.69 520.365 8573 1129.02 204.816 2089.16 6483.84 6360.14 1110.13 86.7166
internal_count=187084 67068 58662 35946 22716 18260 12753 5507 4456 21600 10164 7609 14346 12779 11484 5819 5665 4787 258 4529 120016 68075 53027 4854 15048 14931 4142 1297 48173 2050 21404 9268 837 1295 2555 4489 14438 13309 5345 493 8406 1034 51941 117 506 7964 261 1014 46123 2897 1572 43226 26331 2845 39354 7392 1129 8160 31194 31143 7122 740
is_linear=0
shrinkage=0.03


Tree=6
num_leaves=63
num_cat=0
split_feature=25 25 47 5 37 45 28 33 5 42 38 38 4 37 31 8 0 5 48 18 33 35 0 49 48 41 4 15 37 37 9 32 21 5 25 31 42 40 31 4 4 26 14 14 47 15 2 49 45 3 15 28 24 37 24 30 26 15 47 28 31 6
split_gain=3181.8 1313.16 1655.87 1556.02 1967.48 1669.74 1381.02 1317.59 1731.9 1181.42 1165.13 1122.08 1645.96 1235.17 1091.08 1042.29 968.155 937.193 885.607 880.974 1286.55 973.286 964.173 885.712 821.72 804.386 801.702 764.892 756.259 691.154 653.89 607.233 765.919 1026.49 1453.42 784.401 632.47 603.351 593.244 573.124 713.371 557.804 839.069 537.349 522.319 516.198 515.671 498.912 661.485 601.926 492.876 482.269 475.25 816.945 661.046 472.549 462.075 502.366 536.048 454.063 450.444 443.219
threshold=1.9091770129465178 2.9838249955807501 0.81627440248129912 -0.66000000000000925 -0.68120908328960195 0.30479936421557408 0.25489724751950976 1638196.2000000002 -3.8400000000000367 0.96175666988106723 -0.46624048668089679 0.1615574500090026 54.008818178482862 -0.39581388384294924 2.5076367769874492 0.36577400222067913 0.11217199708216861 -3.015000000000037 0.88534959349593512 2.0644091686383432 28885.000000000004 1.9022946587335976 -0.084259698434771976 0.91753948234261906 0.29010859047414261 0.1452154907225689 66.753955273946261 -0.11685574121173579 -0.04619771721487121 0.81551423631834508 30328.500000000004 0.64579210925474884 -7.040851143937922 -1.8899999999999519 3.9971679695591673 7.2746362228031556 0.86401133144475939 0.76394256015295758 1.8973144400214677 36.818181818181927 38.218784443394782 1.7441270253671708 573.24193548387109 827.4032258064517 0.40981247064208032 0.12572028560383475 6.9749024978162018 0.94931455399061038 0.71843382728666338 -0.1262784977388387 0.19862247341226386 0.12683484299430783 -0.11948741972687087 -0.8219618485307939 0.45941624502907902 -0.70460481274638254 1.5582548575064752 0.10517440727027295 0.35566405576067084 0.8049741939482753 1.2289848022003136 0.16666666666666885
decision_type=2 2 2 2 2 2 2 2 2 2 2 2 2 2 2 2 2 2 2 2 2 2 2 2 2 2 2 2 2 2 2 2 2 2 2 2 2 2 2 2 2 2 2 2 2 2 2 2 2 2 2 2 2 2 2 2 2 2 2 2 2 2
left_child=15 2 3 4 17 6 -6 8 -7 -9 14 29 18 -14 43 16 -1 -2 -13 20 21 -17 25 -24 -16 -21 -26 59 -18 30 -12 32 41 34 35 50 61 -8 -30 52 -41 -3 -43 45 -38 -5 -31 51 49 -49 -34 -33 53 -35 -54 -42 57 -53 -59 -19 -58 -36
right_child=1 31 -4 10 5 7 37 9 -10 -11 11 12 13 -15 24 19 28 27 -20 22 -22 -23 23 -25 26 -27 -28 -29 38 46 -32 47 33 39 36 -37 44 -39 -40 40 55 42 -44 -45 -46 -47 -48 48 -50 -51 -52 56 54 -55 -56 -57 60 58 -60 -61 -62 -63
leaf_value=0.0041056467183774592 0.18400155609432509 0.17676788621841721 -0.031207546117538398 -0.030202338224665452 0.22258569318233903 0.049543603105584012 -0.01663507684295952 -0.018758341229988894 0.13410922123460556 0.15113861990296462 0.14329487906371696 0.0072937057327623293 -0.032142719794886573 0.12250545930247991 -0.031501255625166896 -0.029593576131303905 0.022235734249364997 -0.028901093316981204 0.17717393753014557 0.38469239383688059 -0.011363802959012287 0.2563742973992878 -0.031358699840555761 0.16222257822720601 0.14926971272652925 0.11314687515045252 -0.032591978421204294 -0.031360377796573011 0.1994679004005403 -0.031643458620215073 0.11583661574393304 0.019846792583490865 -0.0042354181457132118 0.19334311794078665 0.13937772613639085 0.15169421659682716 -0.034306109090008877 0.13277791121013111 0.044262776619618194 -0.032595657417153479 0.12386193034594897 -0.03261235998653636 0.12973374798631793 -0.016153835943624944 0.090189262867091308 0.1693667747862001 0.14085084841865739 0.098865397478407877 0.11305185573638697 -0.033380519439177997 0.075376608871525877 0.1548354846411463 0.20315451230061354 0.0096796843068359274 0.10402473117063905 0.10700564933790778 0.19457131368139147 0.14241324641224179 0.063751077060262062 0.19359190500986204 0.12455964396945951 0.089713394052341258
leaf_weight=62.105688219889998 231.55028989724815 238.72244837880135 76.449589284136891 17.701881249435246 25.070401947014034 347.77204292081296 296.30334099195898 162.80084974132478 591.39112604502589 46.538518687710166 2032.0349295018241 222.02201856300235 48.548312625847757 913.56878216285259 31.910839310847223 16.177644431591034 39.028324536979198 10.175459397025405 30.566112838685513 14.943003229796885 335.25783108826727 29.540347008034587 56.443388766609132 32.876786110922694 204.06235064566135 29.158201462589204 24.022851807996631 38.812078658491373 122.11206784285605 41.014478513970971 1331.3390945699066 38.852456454187632 228.19566207937896 37.750140456482768 414.13438849709928 45.683468347415328 45.566706016659737 25.491092476993799 27.913358891382813 29.319404715672135 2826.5595070589334 28.799356833100319 1534.8102068798617 135.56764854677022 87.030051300302148 31.637012789025903 23.882281705737114 64.950998770073056 676.48744361847639 57.639401283115149 99.847386747598648 973.32713452354074 193.99278031848371 50.159553483128548 93.445249272510409 3407.5642835199833 85.492114845663309 197.92155051976442 132.99524408206344 37.518814967945218 16601.556136510335 280.62005412019789
leaf_count=2210 1050 630 2229 394 309 5414 8095 3243 5530 187 17910 4454 882 7212 536 498 896 225 271 169 13084 145 1565 202 1396 298 273 808 1072 778 8023 277 3017 57 1062 30 418 154 498 365 10828 344 3402 2616 387 154 4 317 1578 655 806 2938 457 531 318 14956 162 770 851 79 47808 1257
internal_value=0.117684 0.118992 0.107253 0.108791 0.0848162 0.0703153 0.0125758 0.0877247 0.102884 0.0195364 0.117318 0.121772 0.0967911 0.114674 0.0706545 0.0570575 0.107055 0.15255 0.0284806 0.0324797 0.00914782 0.156651 0.0985162 0.0408683 0.11016 0.211712 0.130044 0.0671886 0.140659 0.130592 0.132465 0.121865 0.115652 0.111544 0.0858396 0.0365931 0.10801 -0.00441529 0.171095 0.11618 0.113973 0.133447 0.126723 0.0147961 0.0474476 0.0985279 0.0329638 0.12504 0.101433 0.0368949 0.0201426 0.12608 0.15261 0.0898696 0.17141 0.114667 0.126309 0.143834 0.111095 0.146443 0.12493 0.11948
internal_weight=36214.7 35449.2 6977.75 6901.3 1813.42 1495.37 346.865 1148.5 939.163 209.339 5087.88 4642.98 1214.71 962.117 444.903 765.557 251.159 318.057 252.588 514.397 380.976 45.718 133.421 89.3202 259.996 44.1012 228.085 86.5064 189.054 3428.27 3363.37 28471.4 9642.2 7839.87 1201.08 373.727 827.351 321.794 150.025 6638.79 6263.44 1802.33 1563.61 184.907 132.597 49.3389 64.8968 18829.2 799.078 122.59 328.043 18030.1 375.348 87.9097 287.438 6234.12 17991.3 1304.24 330.917 47.6943 16687 694.754
internal_count=187084 166447 72226 69997 25094 22932 8558 14374 10944 3430 44903 39534 12819 8094 5369 20637 4676 2162 4725 15961 13727 643 2234 1767 2205 467 1669 1112 2466 26715 25933 94221 38865 34489 6977 3853 3124 8249 1570 27512 26149 4376 3746 3164 805 548 782 55356 2550 972 3823 52806 1363 588 775 25784 52529 4559 1621 304 47970 2319
is_linear=0
shrinkage=0.03


Tree=7
num_leaves=63
num_cat=0
split_feature=27 2 32 9 20 43 7 14 18 36 15 35 20 43 26 9 36 39 38 7 26 35 22 16 38 1 26 21 0 15 16 4 32 24 9 9 32 27 7 18 42 15 20 15 45 22 8 24 7 4 21 32 21 38 20 15 36 35 4 6 21 32
split_gain=1873.33 2170.41 1220.96 1440.1 1259.67 1130.74 1075.37 1006.07 1272.29 1068.09 1343 949.716 1540.05 1681.08 1008.94 927.473 921.216 887.659 868.233 860.327 776.465 1079.73 774.444 841.547 832.049 758.427 750.831 781.664 743.16 869.117 739.448 738.794 732.413 731.123 725.322 692.438 648.3 609.532 953.454 675.288 608.005 1004.86 602.738 587.206 569.836 545.462 539.494 536.134 517.533 645.312 718.693 497.439 523.847 821.71 680.607 492.318 460.181 685.278 455.851 425.541 409.1 407.833
threshold=1.7738019257812492 1.3918884215494469 0.85119480758440413 -13773.499999999998 0.0099659878934280979 0.24735442329227328 0.41636502684019155 686.44247311827974 -1.7390961057246972 -0.43450237189808899 0.26055167495889664 10.393658197200386 -0.59547052342651852 0.7794301931298836 1.7034539463816583 -113921.99999999999 -0.5930958191983845 1018.5427419354841 0.18602625700466544 0.14961443586203618 0.78550944524082233 89.73868773268191 -11.83415359393616 1.5599726892640675 0.17055890145603694 -0.092450122251142769 0.97005434106081634 1.5505773297944281 0.63113133652659748 0.13944410956548317 1.844953681440245 53.012434352795829 0.757770053629227 -0.28510446458996302 2630.5000000000005 15716.500000000002 0.29446351571812091 1.6593357590070668 0.3187172559280152 2.0644091686383432 0.062578320802005025 0.26500621987285222 -0.40773785516968314 -0.29511058352364711 0.54521620210017063 25.489852057041499 0.094402692275481218 0.11460129603772072 0.91306500410397151 74.929364439584575 7.1762293780985402 0.98388868368265847 -7.040851143937922 -0.90520821862449219 0.47902646948543132 -0.10371576507028953 0.60986055343888024 68.697943446780215 55.979643765903283 0.97041420118343213 -8.5250426308794278 0.83465066056573989
decision_type=2 2 2 2 2 2 2 2 2 2 2 2 2 2 2 2 2 2 2 2 2 2 2 2 2 2 2 2 2 2 2 2 2 2 2 2 2 2 2 2 2 2 2 2 2 2 2 2 2 2 2 2 2 2 2 2 2 2 2 2 2 2
left_child=1 2 3 20 17 26 37 8 61 10 -9 12 18 14 -14 28 43 -4 35 -6 21 -1 58 24 -24 -11 27 -5 29 -13 -10 -16 -30 -19 -29 -8 42 39 -39 -3 41 -22 -2 -15 -18 -44 -38 -31 49 51 -51 52 53 -48 -54 -25 57 -28 60 -21 -17 -7
right_child=36 6 4 5 19 7 11 9 30 25 -12 15 13 16 31 22 44 33 -20 59 40 -23 23 55 -26 -27 56 34 32 47 -32 -33 -34 -35 -36 -37 46 38 -40 -41 -42 -43 45 -45 -46 -47 48 -49 -50 50 -52 -53 54 -55 -56 -57 -58 -59 -60 -61 -62 -63
leaf_value=-0.02959372998755876 0.11823002972700818 -0.017201289242683479 -0.030447689338223099 0.017443455719685259 0.23146398028573226 -0.03131414264829905 0.16589207565548952 -0.031653200525799431 0.1516920420442151 0.043877713277740968 0.12484066899875167 -0.032492548880848432 -0.032203781628174458 0.098136161615080958 -0.031782285438684658 0.15300544191515844 -0.031045806345500946 0.042267308977662087 -0.031741230557570853 -0.031752623963356243 -0.029274946390551504 0.22517043045639398 0.11565683380162843 0.050574916113296328 0.066687727243960451 0.10201854670813708 0.0037099826031926253 -0.028117733569922095 -0.031612652346693512 0.01999560403253493 -0.030560358617061245 0.13056193779031577 0.1557105845413308 0.208304446615205 0.25111810565844145 -0.031937895854012244 0.0095393670548966254 0.14626216534426958 -0.031892528397149192 0.087911891741953629 -0.012499382622892614 0.34173421716896973 -0.033869554403646057 -0.033129546249596964 0.1107366896708068 0.090960435776041224 0.038490160385035978 0.17298409741302109 0.11465224021724713 -0.034539572519531096 0.10110273401245597 0.13098367985061496 0.10535867349259503 0.1188590629284219 0.083505595280207706 0.14782481066001593 -0.019674820407966424 0.12004362532020499 0.050927641830432899 0.16874865204840078 0.24588154616762586 0.1677353514756062
leaf_weight=26.222387199290097 83.889690006151795 140.15480531658977 18.483980348333716 44.271055234596133 15.756540138274429 56.261235682293773 305.95333303604275 167.93795482441783 391.88801085669547 287.26723640784621 68.732447657734156 99.481340223923326 190.10667796432972 49.072468165308237 36.25178687274456 115.61332289408892 26.050425225868821 28.417412297800183 23.519715565256774 69.964434545487165 14.368681322783234 33.207540104165673 1665.677342010662 51.24818451423198 390.85978503059596 699.44652189407498 124.49104802124202 10.402394133619962 22.536554963327944 40.588793206959963 20.761628331616521 79.331738578155637 102.77919864095747 172.15235671773553 37.925455507822335 16.456758320331573 49.411153266206384 108.83493666257709 35.412158042192459 89.233041118830442 344.01379178464413 10.866966534405945 79.163681181147695 78.239323074929416 691.96631822362542 50.926031930372119 119.71837516874075 41.630043847486377 10105.402320121415 61.755772404372692 79.356084248051047 749.66302926465869 14737.762066972442 3498.4043975658715 1432.4141619857401 806.2690094159916 182.81919860560447 70.99977614171803 24.299773467704654 10.003962341696022 77.857688100077212 10.052018059417604
leaf_count=1246 157 2564 388 1362 63 1379 938 4453 3553 5600 903 1808 3801 368 590 186 511 426 368 1475 449 264 8393 435 3210 9629 3263 374 346 501 469 395 221 905 307 212 436 541 580 685 9304 81 867 1126 3544 134 852 150 17841 577 206 1621 62541 7759 8580 2584 4547 667 111 30 176 32
internal_value=0.105115 0.0923399 0.0714934 0.0646926 0.127316 0.074602 0.103776 0.0859847 0.122907 0.0714384 0.0141163 0.107496 0.0873942 0.0705976 0.0102513 0.116218 0.0923787 0.166862 0.142909 0.0360004 0.0143919 0.114081 0.121108 0.116938 0.106388 0.0851563 0.0333518 0.109445 0.0660891 0.0270444 0.142463 0.0797825 0.122015 0.185121 0.191601 0.155717 0.108496 0.0544662 0.102587 0.0238794 -0.0019096 0.137311 0.0560268 0.0178141 0.105552 0.0152957 0.108858 0.0986425 0.109017 0.106258 0.0418942 0.106698 0.105772 0.116212 0.103428 0.142082 0.0144791 0.0463721 0.176105 -0.00485873 0.191469 0.000857597
internal_weight=39274 8226.14 2916.71 2601.94 314.779 2173.26 5309.42 1702.35 478.963 1223.38 236.67 4935.79 1496.95 1151.02 305.69 3438.84 845.329 219.054 345.93 95.7249 428.679 59.4299 3131.83 2914.05 2056.54 986.714 470.909 92.5989 307.016 181.7 412.65 115.584 125.316 200.57 48.3278 322.41 31047.9 373.635 144.247 229.388 369.249 25.2356 213.979 127.312 718.017 130.09 30833.9 82.2188 30784.5 20679.1 141.112 20538 19788.3 3618.12 16170.2 857.517 378.31 195.491 217.771 79.9684 193.471 66.3133
internal_count=187084 85513 51169 47882 3287 36538 34344 26018 5433 20585 5356 29974 11853 10335 4786 18121 5549 1719 1518 1568 11344 1510 15095 14622 11603 15229 10520 2043 3026 2459 4022 985 567 1331 681 1150 101571 4370 1121 3249 9834 530 1158 1494 4055 1001 100413 651 99977 82136 783 81353 79732 8611 71121 3019 8477 3930 473 1505 362 1411
is_linear=0
shrinkage=0.03


Tree=8
num_leaves=63
num_cat=0
split_feature=25 7 35 33 48 25 7 39 20 45 14 48 4 29 16 16 25 7 20 5 15 46 27 26 5 25 8 30 38 30 30 32 14 14 23 33 7 49 26 16 16 22 46 31 16 30 39 39 23 16 26 46 28 23 15 2 20 25 30 3 8 2
split_gain=2297.65 1004.22 867.583 1513.2 880.801 867.028 859.133 788.281 873.338 702.925 737.837 964.972 856.513 806.979 698.416 902.004 665.945 662.641 827.449 808.708 626.721 606.441 596.703 648.63 632.617 571.37 540.847 540.349 803.826 759.296 1193.04 672.453 632.762 616.823 537.112 534.213 523.449 978.044 518.008 426.543 575.241 425.667 695.696 727.771 568.837 579.519 737.418 546.008 931.499 495.856 461.497 480.161 446.656 418.685 415.501 413.193 404.968 372.246 496.56 474.195 369.325 367.396
threshold=2.6128348343571912 1.1274392473897994 26.910697147255988 516652.8000000001 0.71700704955421946 2.5489782407034727 0.5868885990459769 49301.007258064528 -1.1997645126060099 0.083979483480595474 11188.193548387098 0.27429996437477738 41.285381553864831 1.046530551094732 -0.18149965678687593 -0.49648180617270815 5.7290759964814901 0.48548810366490208 0.10912533656560718 11.932499999999994 -0.37079117795499322 0.79551471461402523 0.9680852198724551 1.1312519588364796 1.5600000000000478 2.5805539823090355 2.9421046634279229 -0.57902867355299381 -0.98879347850398314 1.3852117576965237 0.73560073475110788 0.37875214700970111 269.42634408602157 156912.90322580648 1.0000000180025095e-35 2290395.8000000003 0.55684134142719788 0.79463194201886145 0.81522030568533876 0.97325811332495304 1.0252186203079072 -9.1950579749345529 0.28273030416355033 6.2259379460207915 0.79364918488525626 -2.3068789295872887 714.02906748238809 493.90252060654012 -1.2156002806558568 -4.0445563891784628 2.1263513149119722 0.72879034130485265 0.68766251190102123 1.1076573348023822 1.5522410773820499 0.84677419354837802 -0.26739143868444676 2.2040818648497043 -0.83154457606233878 0.11793040854865455 0.1736252767248411 0.99165872019053913
decision_type=2 2 2 2 2 2 2 2 2 2 2 2 2 2 2 2 2 2 2 2 2 2 2 2 2 2 2 2 2 2 2 2 2 2 2 2 2 2 2 2 2 2 2 2 2 2 2 2 2 2 2 2 2 2 2 2 2 2 2 2 2 2
left_child=1 2 3 4 5 17 16 8 -5 34 11 39 -12 21 15 -9 22 18 -1 -19 -3 -14 -2 24 -24 35 53 28 31 30 -29 -25 -30 -31 -4 -13 37 -10 -36 -11 -41 50 43 44 47 -46 -47 52 -49 -44 51 -8 -43 57 55 -51 -26 58 -22 -60 -15 -18
right_child=6 20 9 7 -6 -7 41 14 36 10 12 25 13 60 -16 -17 61 19 -20 -21 26 -23 23 27 56 -27 -28 29 32 33 -32 -33 -34 -35 38 -37 -38 -39 -40 40 -42 42 49 -45 45 46 -48 48 -50 54 -52 -53 -54 -55 -56 -57 -58 -59 59 -61 -62 -63
leaf_value=-0.001877901208649492 0.19510264030060351 0.0026477752667785825 -0.030631492585042126 0.1541160648211099 -0.0318319137577356 -0.031786969093871999 0.12956949481557123 -0.028392676590616422 -0.00087868773431911166 -0.007231397328039387 -0.031127845956676944 0.11659282727593688 0.07510417622357092 0.14416071761050292 0.022100959929493492 0.29579854934610678 -0.032938270287738394 0.10664697817508761 0.10632467554467614 -0.031546285426819531 0.0036041994446892722 0.15066127615030281 -0.012513611735074476 0.14848067956905911 0.18057711000508761 -0.031122196114515915 -0.032813435481017929 0.082668551977133631 0.13302475164175001 0.097212562149008058 0.039078123948188451 -0.033523393872889391 0.094423883638798042 -0.034139208169992594 0.17123658065672695 0.19390459763229737 -0.025098422806248293 0.12938037430218333 0.014465933835899822 0.25620214518526918 0.046884146289095319 0.14682015781367336 0.0077704899872112938 0.10197009373422815 0.015985724265244611 -0.033211870004501834 0.10599726312172576 0.078497622515951854 0.0095906135938164556 -0.031363862201753447 0.10378102121113487 -0.033228739675276057 -0.032063414871172695 -0.032084811265519486 -0.03422716366690913 0.10281720340792545 -0.030116787019540198 0.11904528264987971 0.05262979145590322 0.1184779492583254 -0.032517447651413761 0.10584546627238145
leaf_weight=147.88617643434554 47.138113407418132 59.976590783335268 82.077561512589455 34.230314247310162 65.636052787303925 57.965033853426576 1099.012371070683 10.588133274577556 215.95489857066423 81.960352506488562 71.00428219884634 585.24225904699415 524.30456092301756 11.367679571732877 39.805446535348892 25.863826356828213 16.816404052078724 783.55867081973702 110.49852305930108 39.600880962796509 58.650738717056811 118.10414577648044 107.4733327254653 23.077069841325283 29.835720278322697 20.601320691406727 25.889299735426903 2748.3487967709079 419.13802056200802 2461.1082909358665 715.1802535103634 74.776864593848586 5237.4423149852082 32.110594019293785 31.230745978653431 96.088695143349469 330.40926067717373 67.25709121208638 46.716961425729096 14.343944687396286 54.606623525731266 83.623619018122554 50.175913974642754 1423.3786203674972 85.078741742298007 35.583974728360772 681.12485344335437 363.07230431586504 343.64488180540502 20.234783863648772 2612.6120790056884 16.149617975577712 14.345017455518244 19.481672335416079 19.518525369465351 15248.966797439381 10.807428210042415 822.39937253110111 150.82429259084165 298.0846950141713 75.626713985577226 2882.51238973625
leaf_count=4037 101 907 3257 167 1394 1050 2330 399 6835 1574 1983 5296 5591 7 1005 91 160 8423 2058 856 783 507 1537 33 56 337 347 16348 1955 11959 5734 872 25091 282 257 676 9035 1202 1345 70 826 204 346 1229 587 403 2306 1399 2797 285 2999 146 157 242 161 35270 163 2512 1555 1178 1266 5106
internal_value=0.0950486 0.0762904 0.0680647 0.0540008 0.0745855 0.0807404 0.0976784 0.0196816 0.00886058 0.0829885 0.0887994 0.108271 0.067939 0.0776163 0.110269 0.203307 0.0920473 0.0867978 0.044615 0.0999649 0.0976743 0.0892123 0.0888775 0.0884386 0.0258136 0.123064 0.101811 0.0892281 0.095833 0.082832 0.0736824 0.0104364 0.0973076 0.0955066 0.0227577 0.127769 0.000515183 0.030391 0.0786895 0.0390907 0.093512 0.101447 0.0995399 0.0862906 0.0723415 0.0902659 0.0990448 0.054388 0.0450564 0.102151 0.110814 0.127182 0.120538 0.104419 0.10246 0.102637 0.125102 0.106443 0.0858236 0.0965271 -0.00802064 0.105028
internal_weight=42080.1 5177.84 3742.53 1929.25 1205.15 1139.51 36902.3 724.109 647.852 1813.28 1653.25 852.843 800.407 729.403 76.2574 36.452 14805.8 1081.54 258.385 823.16 1435.31 642.409 11906.4 11859.3 148.116 701.932 1375.33 11711.2 5754.43 5956.75 3463.53 97.8539 5656.58 2493.22 160.025 681.331 613.621 283.212 77.9477 150.911 68.9506 22096.5 18368.7 3029.85 1606.47 801.788 716.709 804.686 706.717 15338.9 3727.77 1115.16 97.9686 1349.44 15288.7 15269.2 40.6431 1329.96 507.56 448.909 86.9944 2899.33
internal_count=187084 67068 59544 36552 17818 16424 120016 18734 17239 22992 18133 8779 9354 7371 1495 490 69397 15374 6095 9279 7524 6098 64131 64030 1756 6309 6617 62274 27951 34323 22082 905 27046 12241 4859 5972 17072 8037 1602 2470 896 50619 45144 9082 7853 3296 2709 4557 4196 36062 5475 2476 361 6270 35716 35555 219 6028 3516 2733 1273 5266
is_linear=0
shrinkage=0.03


Tree=9
num_leaves=63
num_cat=0
split_feature=25 36 4 18 15 3 24 2 18 7 11 35 33 20 24 15 31 26 24 36 2 31 4 47 24 27 47 24 8 45 5 1 14 36 32 22 1 6 38 2 5 35 14 38 38 7 49 26 29 26 20 22 36 31 47 22 2 20 31 4 5 5
split_gain=1977.86 1020.53 977.163 1076.08 1027.03 909.446 942.584 834.783 943.882 804.213 929.895 771.357 1925.51 1018.7 732.344 759.299 722.151 889.676 717.254 661.331 583.339 847.116 827.899 569.628 557.756 756.239 914.06 537.328 511.464 497.088 484.272 560.09 481.391 477.254 476.227 543.868 463.663 806.827 710.939 601.014 572.881 569.281 451.236 442.867 902.512 439.775 429.542 413.972 413.385 457.871 402.154 392.04 385.712 524.397 383.688 382.652 375.329 650.533 510.582 452.079 371.865 350.477
threshold=2.6128348343571912 -0.43450237189808899 39.811373137788244 -2.7488853312935091 -0.49664451170490559 0.11793040854865455 -1.0027416782852716 1.0380622837370226 2.4492060660969242 0.5868885990459769 -7.5927616856741613 43.259172454347059 1092556.6000000003 0.20924288058363985 0.044222521232868878 -0.21833868021424704 6.472977977913744 1.5278057089677985 -0.34491193207961307 4.271349232283832 1.0769230769230755 2.5600763783426097 62.287808136641083 0.59847973968324653 0.48170430087520283 1.7510691688811311 0.075022970042064888 -0.39490076629205667 1.7482922531638336 0.76987468866749698 -1.6199999999999759 -0.41899441340781923 2056.0806451612907 -1.1564896963305082 0.98388868368265847 -5.3245835282999794 -1.0595620015388902 0.097457627118643822 0.36693366606716465 1.9052541943806964 -3.7050000000000236 1062.3398033077328 2779.0161290322585 0.45489027328461556 0.46727323682910243 2.2613205384794948 0.052565789473684212 1.9194856606558157 -3.0243895628510971 2.1715282061666392 -0.11941958488363483 13.379461957262544 -2.8123407974957844 3.7572566381622692 0.23825954198473284 14.681223510971652 1.0895723379180164 -0.01233550862102327 3.5270282690247474 67.254864354640759 -0.32999999999998114 0.38999999999999063
decision_type=2 2 2 2 2 2 2 2 2 2 2 2 2 2 2 2 2 2 2 2 2 2 2 2 2 2 2 2 2 2 2 2 2 2 2 2 2 2 2 2 2 2 2 2 2 2 2 2 2 2 2 2 2 2 2 2 2 2 2 2 2 2
left_child=1 7 5 29 -5 6 -3 48 20 10 50 12 19 -14 15 16 17 18 -12 -6 33 22 47 -19 28 26 -26 -24 30 43 31 -16 -7 -9 35 -27 38 40 39 -17 -38 -39 -32 51 -45 -10 -13 -22 -1 -50 -2 -4 61 -54 -52 -48 57 58 60 -59 -11 -23
right_child=9 2 3 4 11 32 -8 8 45 56 14 46 13 -15 24 36 -18 23 -20 -21 21 52 27 -25 25 34 -28 -29 -30 -31 42 -33 -34 -35 -36 -37 37 41 -40 -41 -42 -43 -44 44 -46 -47 55 -49 49 -51 54 -53 53 -55 -56 -57 -58 59 -60 -61 -62 -63
leaf_value=0.16893938707994016 0.091453509982858519 0.21859492809485298 -0.020819031704295981 -0.031122942557915381 0.094067711325828002 0.23365773078173005 -0.0079179555353688525 0.057597581314618056 -0.032841832442018756 -0.030579276258660984 0.021622556706509685 -0.031462521136766244 -0.010542959246723931 0.077391162202666772 0.060927256160195627 0.0040006152302453227 0.10219016288441872 0.047394824103044693 0.13480945588957052 -0.032188883983506132 -0.020580920069145012 0.12765911441050395 -0.030963680981548503 -0.0055936530064531415 0.21286899933077713 -0.03426769529546133 -0.015953863143235561 0.14726280166584668 -0.033699127555341282 0.098901342364931727 0.11822173634683826 0.13871890782799534 0.064897911350466825 0.23863099446956376 0.11875187847160536 0.080838460989780897 -0.031586013993879732 0.079812689509359713 -0.03350858128173749 0.078493091261192915 0.13369292038906777 -0.034150242382830445 0.092672899437432343 0.29500509871511965 -0.029656102237132859 0.085605860693277608 0.11016502911998785 0.16726340452197652 -0.03110463626436619 0.16789118423932156 -0.033581519157372557 0.15925456977914473 0.081956207569643738 -0.032788995358451423 0.12416545379998377 -0.031894874506042725 0.093101764300958414 -0.033299536132661511 -0.032944156266191973 0.098222786699449005 0.13192689807719948 -0.0305603431270218
leaf_weight=10.005095541477202 932.14003645814955 16.59593522362411 192.40739699080586 66.364735392853618 1758.91988661699 23.85210473369807 272.94524700194597 23.395052547566593 133.28975549340248 13.616098228842018 78.7728082370013 19.674895834177732 297.63985750917345 195.80273641739041 500.93065643124282 116.97350190021098 216.60122037678957 454.17340691387653 141.37942797318101 37.658519891090691 192.40105352085084 199.23049934953451 19.83980368822813 304.41370742022991 16.934600308537483 36.8370859362185 125.85198634024709 60.040548456832767 26.014303654432297 64.561230957508087 1173.6323998570442 100.28377814218402 42.439253428019583 31.536426738835871 309.55009936727583 3123.0360381789505 19.54734212346375 4852.7059856466949 70.165697319433093 589.79309073463082 351.87998650223017 39.22279129549861 1404.1476304456592 12.533818893134596 17.483967810869217 34.715508311986923 1259.1986475922167 10.170045425184069 184.73368744086474 10.031918624415992 13.721800573170183 10.531520998105405 207.4280080171302 42.6782605946064 748.62020980007946 16.862684342078865 23155.293039985001 84.062876669690013 23.490620410069823 31.509804153814912 130.82088161632419 13.044763151556252
leaf_count=41 1155 65 4235 1928 15802 67 7069 361 2266 188 894 321 6406 2238 3044 1269 296 3186 525 697 4615 636 378 3202 11 331 1673 489 264 260 4107 351 326 157 519 10963 268 25507 835 2160 1372 347 5877 34 488 75 8699 89 6388 23 110 38 1801 617 1131 223 48689 1021 244 61 416 236
internal_value=0.0867747 0.0698515 0.0766159 0.0809071 0.0853773 0.0288827 0.00576268 0.0449666 0.0566006 0.0891385 0.0838624 0.0875423 0.0769903 0.02443 0.0813136 0.0746248 0.0526825 0.0416299 0.0946044 0.0914031 0.0701652 0.0630309 0.0219745 0.0261477 0.0884005 0.0802384 0.0124556 0.103124 0.0975709 0.0259226 0.0986563 0.0741168 0.128233 0.163992 0.0830228 0.0794852 0.0789571 0.0821638 0.0571521 0.0661915 0.124925 0.0788915 0.104347 0.00534832 0.110949 -0.00798712 0.106115 -0.0103602 -0.0100103 -0.0200342 0.104939 -0.0107243 0.0880027 0.0623115 0.121282 0.108262 0.0926794 0.0579669 0.0954903 0.00306804 0.116482 0.117824
internal_weight=44664.1 5478.01 4305.47 3949.64 3652.12 355.833 289.541 1172.54 967.77 39186.1 15747.3 3585.76 2290.02 493.443 14052.8 7235.63 1195.34 978.739 220.152 1796.58 799.764 744.833 282.451 758.587 6817.22 3612.21 142.787 79.8804 3205.01 297.518 3178.99 601.214 66.2914 54.9315 3469.42 3159.87 6040.29 5263.36 776.932 706.767 371.427 4891.93 2577.78 232.957 30.0178 168.005 1295.74 202.571 204.771 194.766 1694.48 202.939 462.382 250.106 762.342 1276.06 23438.8 283.5 167.928 115.573 144.437 212.275
internal_count=187084 67068 48896 41369 36314 7527 7134 18172 11720 120016 69397 34386 25143 8644 67001 39861 8103 7807 1419 16499 9379 8861 5571 6388 27140 13497 1684 867 13643 5055 13379 3395 393 518 11813 11294 31758 27494 4264 3429 1640 25854 9984 4795 522 2341 9243 4704 6452 6411 2396 4273 3290 2418 1241 8922 50619 1930 848 1082 604 872
is_linear=0
shrinkage=0.03


Tree=10
num_leaves=63
num_cat=0
split_feature=27 45 32 47 42 21 42 22 21 37 30 34 48 38 5 36 11 26 45 10 18 46 31 16 47 37 16 17 8 44 5 48 41 32 43 16 49 3 15 43 35 48 22 46 23 27 11 35 43 5 6 38 23 38 46 35 18 18 38 41 44 39
split_gain=1419.04 1422.03 1125.36 969.796 933.455 799.299 832.219 791.719 1040.19 757.591 696.413 689.433 781.361 718.329 671.264 661.576 617.225 606.086 588.883 657.341 579.873 578.819 561.095 551.858 662.611 526.768 877.066 839.086 693.567 854.675 597.708 494.946 506.082 494.038 492.749 669.648 484.353 466.194 461.775 937.955 457.595 671.369 460.249 528.476 454.588 431.134 425.196 419.95 415.259 412.476 394.653 451.985 606.127 570.994 389.562 371.191 382.096 582.223 367.94 366.618 545.198 463.631
threshold=1.8289691542708975 0.51741960439091417 0.70412964887881546 0.78921109824388858 0.79013944860231577 -0.76926293039680871 0.48129009028231567 1.8655067828081564 -1.4153152196030823 -1.4478154881555441 0.82328095369131682 1.0000000180025095e-35 0.89692157482123902 -0.33419648337163704 1.3050000000000239 3.6753795491483272 -9.4759350234876454 1.057900181457645 0.24174426082823033 1.5000000000000002 0.53211729627538762 0.86990832918533278 1.8267153576647506 -0.52660146094363791 0.56035162562213181 -0.46624048668089679 -0.71002434415144677 -1.1737336509726282 0.81790023889952812 0.017427397894249685 -7.4399999999999507 0.29794071266713495 0.10620028040178937 0.39045399791962226 0.94362381451096777 -3.1820210953144321 0.3316260951681444 0.14010125234923407 -0.27066421456140516 0.5241832881884595 119.89985117355771 0.04508163036574888 -9.4268280054655111 0.25122551964435907 0.15612545660705676 1.2624263585814421 -0.70397731780854522 6.233473022346927 0.12031080374733626 -0.095999999999999003 0.5985428002654295 0.40972429537836791 0.81787051944777411 0.3571181707493955 0.52813374673073021 9.886732456162056 1.5135675566667359 1.8901843614375371 0.33550115295193911 0.56890115388345552 0.68564021036249978 1257.4573271889406
decision_type=2 2 2 2 2 2 2 2 2 2 2 2 2 2 2 2 2 2 2 2 2 2 2 2 2 2 2 2 2 2 2 2 2 2 2 2 2 2 2 2 2 2 2 2 2 2 2 2 2 2 2 2 2 2 2 2 2 2 2 2 2 2
left_child=1 2 4 33 10 6 9 31 -9 -4 15 12 14 -13 58 18 -2 -16 20 -20 -1 25 -8 -15 -25 50 30 28 37 -30 48 -6 49 -3 35 -32 -17 -28 39 -29 41 -35 45 -44 -40 -43 -38 -24 -27 -33 51 53 -53 -18 -49 56 -12 -58 -7 60 -52 -61
right_child=16 3 5 -5 7 11 22 8 -10 -11 55 13 -14 23 17 36 21 -19 19 -21 -22 -23 47 24 -26 26 27 38 29 -31 34 32 -34 40 -36 -37 46 -39 44 -41 -42 42 43 -45 -46 -47 -48 54 -50 -51 59 52 -54 -55 -56 -57 57 -59 -60 61 -62 -63
leaf_value=-0.0095800609988247343 0.093848691126740172 -0.033242631030696503 0.089336649973542737 -0.032564315665987983 -0.03072920264861536 0.12154640571807945 -0.030800066197303608 0.13243075413379063 -0.032724929633540192 -0.014994123036718449 -0.031003513031227975 -0.03260273904806775 -0.032814205538027677 -0.0043536604726351277 0.1158382316459026 -0.03077513279461493 0.091890892745426098 -0.032303709144505158 -0.013941187900162794 0.063111566597904067 0.049792082298896506 0.087243463108375038 -0.031639497926094988 0.094786658847736099 -0.0022933606790445406 0.082819656021021773 0.062085803990962675 0.038331280188553939 0.08410695599284948 -0.023070181847302709 -0.014440299417294975 0.10500046023120899 0.019505809922905858 -0.0079721947399669611 0.10270333993339711 0.062745942947558406 -0.030011211181764745 0.10848630629642267 0.088048018312167603 0.088647207587265547 0.10332789069554693 -0.032335750402139207 0.051231074019299418 0.080884431248203117 0.07442095694889482 0.11222881511051126 0.13573607878920571 0.065162310080685196 -0.035443162094496806 0.18761697245688863 0.063465925331494796 -0.034615905179565587 0.14431650100842694 0.15474896714331285 0.12328568995956214 -0.032440546890188403 0.17434407564165574 -0.030734561760602838 0.042260635115401513 -0.036412179996919238 -0.036688512536547722 0.087942226815569943
leaf_weight=389.18537066224962 4029.310613155365 33.250677322037518 82.659192971885204 67.705022761598229 20.805158694274724 745.33716567605734 42.878560224547982 51.587546567432582 97.951487204991281 248.40322302468121 37.354674010537565 65.443830387666821 37.129430755972862 75.816914307884872 43.203597256913781 22.314660496078432 3215.4051487138495 55.991584946401417 116.26154340989888 680.42522732913494 237.64055883139372 10212.635485202074 27.073379465378821 475.27359557058662 72.847960814833641 36.193919129669666 1514.02410017699 625.48487587179989 106.60293894261122 176.42503116466105 105.39943754300475 157.25033383257687 39.803794427774847 79.219563114456832 263.59445147588849 2297.1915877684951 15.212634159252046 225.74279140122235 7714.8208133326843 720.28214364591986 784.67502708174288 18.839040534570813 633.13602108415216 4041.4645278304815 3163.2767306305468 498.90441803541034 128.43976621236652 260.21490843221545 93.900220591574907 88.535960048437119 385.18152938969433 54.080089202150702 23.689963366836309 137.15558184683323 178.18147694505751 196.31605401355773 30.693989401683211 20.061191014945507 58.283676366321743 27.260934092104435 55.308776425197721 908.59791764244437
leaf_count=10076 2639 402 94 1228 423 5048 1294 192 1644 5247 962 1162 578 1271 465 514 5958 1010 2038 7916 4039 18176 504 4149 1458 147 6777 4295 211 1568 900 1292 437 923 351 10286 357 457 25459 2562 2280 254 4818 17919 11908 1199 865 2136 883 318 1125 549 57 171 671 3969 90 416 1010 191 420 1326
internal_value=0.0798364 0.0703533 0.0580792 0.0799075 0.0430874 0.0722032 0.0483138 0.0815647 0.0247313 0.0112366 0.0336855 0.0844717 0.101226 0.0615099 0.106772 0.0414183 0.0827129 0.0327004 0.0347575 0.05186 0.0129676 0.0813105 0.072385 0.0714224 0.0818981 0.0785334 0.0760386 0.0790612 0.0610832 0.0174417 0.0606151 0.109122 0.119393 0.0811636 0.0636778 0.059354 0.0979808 0.0681671 0.0820307 0.0653095 0.0817976 0.0785733 0.0798956 0.0768806 0.0840928 0.106911 0.118077 0.0819424 -0.00213721 0.135412 0.087361 0.0928495 0.0209918 0.0945087 0.0890196 -0.00951146 0.0413335 0.0942003 0.115859 0.0736222 0.0508289 0.0842817
internal_weight=47047.3 10955.8 4798.58 6157.19 2329.84 2468.74 839.411 455.934 149.539 331.062 1873.91 1629.33 939.945 689.382 902.816 1589.48 36091.6 99.1952 1423.51 796.687 626.826 32062.3 508.348 623.938 548.122 21849.6 17042.9 14246.7 2022.79 283.028 2796.28 306.395 285.59 6089.49 2666.19 2402.59 165.967 1739.77 12223.9 1345.77 6056.24 5271.56 5192.34 4674.6 10878.1 517.743 143.652 465.47 130.094 245.786 4806.68 3430.33 77.7701 3352.56 438.396 284.426 88.1099 50.7552 803.621 1376.35 440.49 935.859
internal_count=187084 90668 61645 29023 35548 26097 9946 4306 1836 5341 31242 16151 8111 8040 7533 25805 96416 1475 24069 9954 14115 93777 4605 6878 5607 75601 65804 53237 9013 1779 12567 2470 2047 27795 11537 11186 1736 7234 44224 6857 27393 25113 24190 22737 37367 1453 1222 3311 1030 1610 9797 6735 606 6129 2807 5437 1468 506 6058 3062 1545 1517
is_linear=0
shrinkage=0.03


Tree=11
num_leaves=63
num_cat=0
split_feature=25 43 2 38 38 20 35 33 15 20 35 36 31 29 49 7 11 33 24 18 49 47 47 25 46 26 14 43 36 11 28 48 0 36 6 44 6 10 7 15 16 5 17 47 44 2 43 15 35 46 31 33 18 9 49 24 24 20 31 47 48 5
split_gain=1683.45 1017.55 955.443 903.616 816.836 1079.45 955.379 933.587 837.618 854.147 797.087 788.302 737.936 732.391 683.123 656.731 746.536 647.208 765.317 620.876 602.691 638.066 598.814 757.936 593.034 559.732 558.456 631.723 557.448 555.848 561.264 554.066 542.421 513.923 513.26 636.79 502.37 659.154 632.178 525.844 659.958 491.8 491.464 481.452 472.973 467.157 516.586 440.325 509.035 438.607 462.731 413.914 413.047 411.31 401.647 387.201 370.463 363.741 359.613 356.681 354.394 344.537
threshold=2.9838249955807501 0.77556463953751986 1.2375039868169222 0.47622818219816782 -0.32150649738596876 -0.59547052342651852 19.549482038612194 1092556.6000000003 0.012558904716797105 -0.072427914484989253 30.382821322624402 3.9710279636859238 3.7572566381622692 -0.11990407673860569 0.71606489236304993 0.5868885990459769 -7.5927616856741613 1015307.6000000002 -1.1508912044911539 0.56533983270833466 0.41773804408897119 0.36691459935768528 0.40773009950248756 2.7595905385310888 0.37768848288621654 0.77019221753337508 1740.0322580645163 0.86587143568228697 -3.9568466697519113 0.42171687642727923 0.27781372863405951 0.46040329839435562 -0.098678614279831767 -3.4812133388432551 0.88269794721407557 0.97043672864028829 0.8914728682170513 3.5000000000000004 0.35541335681179242 -0.19596014940649328 -0.96388730187624294 2.6099999999999883 -0.058151049480220811 0.4816640454179294 0.9590478386650455 1.3918884215494469 0.9781487081542789 -0.37079117795499322 170.23733582856767 0.84654098402167588 2.2952460276055451 10265947.700000001 -6.0089934740495039 378186.50000000006 0.96528923249042597 0.011020409787140197 0.016484840489733168 -0.0091228245342434861 2.1071864092550019 0.19306879859175594 0.34960394591092447 15.90749999999996
decision_type=2 2 2 2 2 2 2 2 2 2 2 2 2 2 2 2 2 2 2 2 2 2 2 2 2 2 2 2 2 2 2 2 2 2 2 2 2 2 2 2 2 2 2 2 2 2 2 2 2 2 2 2 2 2 2 2 2 2 2 2 2 2
left_child=1 3 32 4 5 24 17 22 44 -10 11 -9 -12 -5 -11 16 -2 20 -19 29 21 -6 23 -8 -1 -22 27 61 43 30 -15 -29 42 41 45 49 39 38 -38 40 -35 -30 -3 -18 -7 46 -28 48 -47 -36 -51 -39 -41 -20 -21 -31 -33 -49 -26 -34 -24 -4
right_child=15 2 26 13 6 8 7 10 9 14 12 -13 -14 19 -16 -17 28 18 53 54 25 -23 60 -25 58 -27 34 31 33 55 -32 56 59 36 35 -37 37 51 -40 52 -42 -43 -44 -45 -46 47 -48 57 -50 50 -52 -53 -54 -55 -56 -57 -58 -59 -60 -61 -62 -63
leaf_value=-0.032234099753675229 0.090122189662876884 0.14462111226663976 0.13050916880597296 -0.032069775307492186 0.016246130924125898 -0.032447771744755077 0.079649858201250673 -0.032170559273651679 -0.032654769043604329 0.020790462068719023 0.071660211871310289 0.15582740273018222 -0.002966998978449693 0.1384020034463474 0.10688464054280039 0.080120044680083019 0.11771488268119167 0.17495838056538254 -0.022404994548694945 -0.032117603108496727 0.10407901069277432 0.090138533509847782 0.070160133167982044 -0.033632259221236409 -0.029950832691311071 0.026369431083310562 -0.032640685310601505 -0.0052812690162155713 -0.034744169306795532 0.15270679100953757 -0.031336461451514593 0.10265553159526854 0.081793461204017356 0.076164623056270017 -0.034644531276500565 0.074399609162298166 0.092640193245696487 -0.022927301616441513 0.029122207859495597 0.040608504005109729 0.043164981941511173 0.10567944411612354 -0.030353207668228299 0.012932323448304436 0.16755066114623499 -0.011677381349046662 0.12014206457083206 0.068847423830707521 0.097024905234798203 0.098834558880454407 -0.035175173579193059 0.067611885204785546 0.074630600255730359 0.16152895733312905 0.15218093385486894 -0.029048377974386762 0.010895766153118106 0.091948514113396884 0.1206467222674254 -0.020355877336609846 0.11517547381285093 -0.031461852383203079
leaf_weight=30.422145687043667 1844.1600646506995 48.366071661002934 410.31602532416582 180.32163965888321 133.07279385067523 274.35395337175578 306.21714584250003 136.30826126597822 106.05668280366808 163.09415965061635 1487.8067532936111 22.510700354352593 129.46779749728739 24.464189280755818 169.27382571343333 22829.604792134836 339.06268711946905 20.08663323149085 226.64270546566695 95.024084413424134 94.099765041843057 511.77176988311112 208.00054021086544 63.647541478276253 15.058280469849704 694.99750791490078 67.74401686526835 68.047404554672539 80.139965664595366 81.300756927579641 55.409452247433364 266.4779113503173 36.159797972999513 963.43217635154724 114.94018500205129 269.17783292941749 303.2328175380826 161.94698451831937 265.64601294323802 336.1170069668442 1272.2912611700594 30.030346296727657 19.958262686617672 45.019544806331396 10.082452828064559 97.913996528834105 27.048087558709085 1054.140499969013 62.944692438468337 63.755190957337618 35.436635179445148 62.017897987738252 10082.937880598009 10.497633014805613 10.971545444801448 11.736063143238423 46.865715425461531 1545.129520081915 182.09872482717037 177.73135354090482 743.55808154959232 11.77889542467892
leaf_count=510 2268 395 1326 4092 2026 5648 2377 3015 1942 2527 13478 233 1205 72 963 38901 573 17 5993 1981 923 4813 1693 728 370 9758 1184 611 755 389 1414 694 218 3398 1301 550 807 1200 1334 1457 7115 51 515 328 30 1262 33 4624 81 138 285 186 35848 138 40 313 366 4718 666 3527 3541 140
internal_value=0.0739379 0.0633397 0.0743491 0.0554709 0.0587111 0.0332454 0.0637568 0.0736689 0.0152482 0.0412251 0.0593916 -0.00469702 0.0656861 0.0149304 0.064836 0.0768514 0.0721194 0.0455674 0.00172774 0.0453342 0.0534228 0.0749432 0.092797 0.0601097 0.0900801 0.0357601 0.0779888 0.100553 0.0697316 0.0802226 0.0216835 0.0722166 0.0208372 0.0687102 0.0725284 0.0437733 0.0692388 0.0459503 0.063088 0.0706939 0.0574144 0.00411197 0.0937654 0.105506 -0.0247857 0.0773782 0.0117223 0.0796269 0.0311764 0.00509312 0.0510559 0.00231958 0.0735373 -0.013606 -0.0117689 0.129682 0.0890192 0.082611 0.109036 -0.00277259 0.105423 0.125918
internal_weight=49237.9 10622.3 4423.93 6198.35 5739.13 950.44 4788.69 3097.52 722.861 438.425 1776.09 158.819 1617.27 459.228 332.368 38615.6 15786 1691.17 257.227 278.906 1433.94 644.845 1321.42 369.865 227.579 789.097 4141.72 803.486 13941.9 172.91 79.8736 381.391 282.215 13557.8 3338.23 483.31 13447.6 792.844 568.879 12654.8 2235.72 110.17 68.3243 384.082 284.436 2854.92 94.7921 2760.13 160.859 214.132 99.1918 223.965 10419.1 237.14 105.996 93.0368 313.344 2599.27 197.157 213.891 951.559 422.095
internal_count=187084 92863 21968 70895 62594 12656 49938 26270 11110 5432 17931 3248 14683 8301 3490 94221 55320 23668 6148 4209 17520 6839 8339 3105 1546 10681 17313 3137 53052 2188 1486 1671 4655 52151 14176 2274 51345 3527 2141 47818 10513 806 910 901 5678 11902 1217 10685 1343 1724 423 1386 37305 6131 2021 702 1060 9342 1036 3745 5234 1466
is_linear=0
shrinkage=0.03


Tree=12
num_leaves=63
num_cat=0
split_feature=25 43 38 38 31 35 33 35 30 48 20 17 36 36 27 9 43 36 25 33 22 14 4 23 43 45 35 16 49 17 20 14 26 16 7 36 1 1 36 27 8 14 7 17 35 18 41 0 22 31 43 9 11 3 17 46 7 26 42 8 46 23
split_gain=1546.89 886.015 771.334 688.201 683.542 625.637 841.694 1079.58 761.352 706.244 741.51 869.46 706.581 646.573 630.639 628.924 576.983 621.132 527.878 511.665 468.833 459.829 504.677 679.901 492.926 492.853 858.382 449.214 434.555 432.912 573.03 435.704 431.58 426.664 603.172 603.563 523.413 446.355 425.685 424.65 413.898 410.805 709.418 432.118 405.55 406.001 448.967 398.571 387.892 384.389 379.439 367.635 435.622 365.414 826.773 405.558 362.534 355.85 331.143 328.328 323.653 322.88
threshold=2.9838249955807501 0.77556463953751986 0.47622818219816782 -0.9554923158519939 4.2695965217066227 12.062261105626854 1412841.0000000002 43.259172454347059 -1.2787401053010494 0.59138420391900015 -0.41245874294296431 -0.78848925508029633 -2.6628938024343562 5.6020473248146141 1.1488154897484317 21443.000000000004 0.044871330907559605 2.2698316832355521 2.7390828624526891 233709.50000000003 -6.052145864933582 1740.0322580645163 34.16296632098836 -1.4055782496789426 0.84216913643331637 0.52134681623845724 28.771942665715894 2.1612454833992323 0.71995085995086006 -1.1367930269701494 -0.59547052342651852 518.61290322580658 1.3012425496318381 1.1980471069957652 0.21269904679038631 -3.9568466697519113 -1.07854919827544 -0.59309768498688087 -1.3961353144486437 1.0070994901319992 0.37696540651694316 1007.6451612903227 0.43426326422346812 -1.1948020625406528 18.9960123218471 2.0210632159733084 2.2296773349029086 1.4302007552808804 -16.171865735502912 3.9374819050376382 0.21136116000335264 4095.5000000000005 -4.0504672419859489 -0.047576274167500009 -0.64950900355614205 0.39348741676676907 0.16056198235449587 1.1617261601881959 0.18158231255889087 5.1149168265441167 0.55984250852310991 -0.13519414876731828
decision_type=2 2 2 2 2 2 2 2 2 2 2 2 2 2 2 2 2 2 2 2 2 2 2 2 2 2 2 2 2 2 2 2 2 2 2 2 2 2 2 2 2 2 2 2 2 2 2 2 2 2 2 2 2 2 2 2 2 2 2 2 2 2
left_child=1 2 3 59 16 9 14 13 -9 10 40 -12 18 -8 15 -7 17 20 -11 32 -2 24 23 -23 -3 26 47 -16 -21 30 61 57 -4 34 50 -36 -35 49 -39 -30 -5 42 -33 -43 45 -26 -47 -24 -37 -38 -31 -22 -53 55 -55 -28 -14 -32 -41 -1 -34 -18
right_child=4 21 19 5 -6 6 7 8 -10 12 11 -13 56 -15 27 -17 29 -19 -20 28 51 22 25 -25 44 -27 53 -29 39 33 31 41 60 36 35 48 37 38 -40 58 -42 43 -44 -45 -46 46 -48 -49 -50 -51 -52 52 -54 54 -56 -57 -58 -59 -60 -61 -62 -63
leaf_value=-0.032389262043801638 -0.033971870773319875 0.11228921406258338 -0.030865752093952752 0.12758141285130373 0.075203160469009545 -0.0058030098298510651 0.00049003173194938222 0.0920074538515539 0.046132852965331837 -0.031117181476290084 -0.032135744657286136 0.050198123613152554 0.13697501301502299 0.16623742498441307 0.082490828814082276 0.10699813299874854 0.094121999664261949 -0.017992455973739843 0.14135715795585854 -0.031966009204844936 0.070777075854575169 0.09930617324081488 -0.032208328666863149 -0.018857140929658626 0.089411422936762186 0.071682228994961225 -0.031583758182554836 0.021858190860177835 0.15330855492426587 -0.034415353214805093 0.13320008422415333 -0.034107817680062179 0.11600770049278603 -0.034865353365323475 0.10923945542334867 0.10155681750103474 0.1037592561483231 0.010466675277000204 0.075670425261546936 0.081073742455810033 0.055512517153872447 0.049282736225487567 0.10633034499038344 -0.035178292281530285 -0.033642353028813278 -0.034040836996772572 0.087861316562534444 0.075293742918475223 0.064694580581553321 -0.034594417542889423 0.14413885323880557 0.09793963692020001 -0.034741884364850872 0.1370589164952655 -0.033124725094940827 0.10100125761915398 -0.02494413170920114 -0.034040991768490264 -0.031973236770456319 0.12225845226044624 -0.030711007295439002 0.04403752643496147
leaf_weight=110.6557328607887 50.031224256381392 415.01981825940311 32.603358407504857 146.44387720525265 21734.16139466688 159.45290893502533 457.02783395815641 462.91299572493881 1112.2949702981859 22.991002127528191 138.2388163972646 679.77765337005258 12.028081376105545 21.213693695142865 1993.9902767464519 60.624458561651409 476.71808211505413 128.24434754252434 48.900727832689881 208.79629540070891 530.74860416539013 62.628579787909985 153.58117611706257 139.96787756122649 381.64670055545866 2936.4794353721663 22.414758015424013 117.44136307574809 22.721574394963682 78.931112239137292 12.171060454100369 37.153842311352491 86.402215651236475 36.867529306560755 299.12259385921061 267.37477839924395 686.94765217415988 92.289005594328046 4828.7062858399004 36.836860675364733 145.36021026410162 1517.5415907241404 229.01295653730631 55.827905513346195 32.457717787474394 57.268183355219662 50.076358914375305 37.844699579291046 8752.860081853345 18.079992435872555 11.370854966342447 31.830356732010841 68.247593842446804 37.418211846612394 76.683897677809 220.83752229623497 281.12390920892358 86.814346149563789 59.818546341732144 12.900491967797278 15.540382791310547 156.95281192287803
leaf_count=2182 559 1607 807 463 32238 3119 8747 2645 10827 485 2851 9357 66 143 13072 346 763 1137 100 5022 2230 88 3466 2046 1479 9750 376 1251 221 780 15 361 463 322 584 543 1775 528 12350 272 1483 6567 475 485 341 634 48 121 30208 140 5 71 646 108 1169 735 5455 922 1245 2 271 517
internal_value=0.0688447 0.0588958 0.051685 0.054571 0.0715837 0.0560486 0.0617414 0.0476863 0.0596659 0.0390907 0.0509877 0.0362584 0.00287255 0.00818 0.0740931 0.0256001 0.0673168 0.0424393 0.0864884 0.0143223 0.0538361 0.0689334 0.0641202 0.0179643 0.0877961 0.0667964 0.0405646 0.0791317 -0.00590455 0.0684549 0.0570041 0.0488558 0.0633598 0.0704049 0.0664572 0.0672049 0.0769512 0.0776905 0.0744506 0.0395402 0.0920032 0.0521542 0.0866613 0.0462635 0.0681187 0.0749342 0.023085 -0.0106588 0.0657987 0.100163 -0.0105664 0.0608477 0.00797999 0.0679652 0.0233645 0.0886925 -0.0178473 -0.0123208 0.011469 -0.0153665 0.0935313 0.0818103
internal_weight=51258.4 11070.4 6446.1 5983.38 40188 5859.82 4384.96 2053.45 1575.21 1474.86 1109.82 818.016 365.044 478.242 2331.51 220.077 18453.8 809.102 71.8917 462.719 680.858 4624.32 3687.86 202.596 936.469 3485.26 548.78 2111.43 328.173 17644.7 2572.19 1938.52 134.546 15072.5 9409.66 9319.36 5662.89 5626.02 4921 119.377 291.804 1839.54 266.167 1573.37 521.449 488.991 107.345 191.426 9020.23 705.028 90.302 630.827 100.078 357.354 114.102 243.252 293.152 98.9854 96.6554 123.556 101.943 633.671
internal_count=187084 92863 70895 62594 94221 60410 40150 22362 13472 20260 14154 12208 6106 8890 17788 3465 61983 4643 585 8301 3506 21968 17859 2134 4109 15725 5975 14323 6760 57340 10105 8825 1541 47235 32120 31335 15115 14793 12878 1738 1946 7888 836 7052 2502 2161 682 3587 30751 1915 785 2947 717 2388 1277 1111 5521 937 1517 2184 734 1280
is_linear=0
shrinkage=0.03


Tree=13
num_leaves=63
num_cat=0
split_feature=25 25 7 22 15 15 38 16 33 35 39 11 33 24 20 31 20 31 8 36 22 11 1 49 36 11 47 8 26 49 25 43 46 42 42 35 24 25 9 3 2 36 39 28 25 26 6 43 3 6 36 33 28 9 43 1 20 22 26 16 15 27
split_gain=1470.36 1016.64 957.852 770.777 745.367 1075.91 774.665 821.25 595.347 1189.59 666.948 584.101 702.093 508.775 506.076 436.354 430.095 565.589 421.453 438.518 416.649 581.446 414.291 381.789 372.151 368.175 359.726 352.135 346.711 489.113 407.531 583.982 347.819 315.344 307.888 301.957 289.285 397.221 365.938 370.797 344.739 337.36 285.642 285.479 369.934 502.429 278.873 265.095 242.392 449.852 231.291 230.221 226.66 376.433 270.704 218.547 204.911 258.39 196.839 183.051 546.717 235.087
threshold=3.9010830213832253 1.9091770129465178 0.94730453039276286 -16.171865735502912 0.35936164018167038 1.0237739354640123 0.56135700028771274 -0.065295429357911702 2036111.5000000002 233.22497403188808 13477.216935483872 3.4093069458840519 28885.000000000004 0.43721631453924209 0.028767206504171906 1.8973144400214677 0.001906111586173863 3.2510325246965484 0.32703597522199829 1.1994638015060841 1.0000000180025095e-35 -1.0000000180025095e-35 -0.32569810159281276 0.0051612989157942416 -0.060763409330346831 -9.4759350234876454 0.2327836000758253 0.24269896133768318 2.4437626855842782 0.01297019043133033 4.8574129822092447 0.080624847647680201 0.27075459360491733 0.013679916161389328 0.85637577120452069 45.238214557141312 0.54473321868219904 2.5489782407034727 -31652.999999999996 -1.967597449465136 1.1300361517790727 3.6753795491483272 93259.883064516165 0.25489724751950976 4.81590959028527 1.1913411091871617 0.88269794721407557 0.6621802767915369 0.58435825974723776 0.83333333333332826 3.0774189496508431 6084841.5000000009 0.56614293335678345 -233874.49999999997 0.42928666315763092 0.99975380241785328 1.062128691623571 -19.405440376449338 2.3859516727034431 -2.7769200481868355 0.72541406645377948 1.2848139450158931
decision_type=2 2 2 2 2 2 2 2 2 2 2 2 2 2 2 2 2 2 2 2 2 2 2 2 2 2 2 2 2 2 2 2 2 2 2 2 2 2 2 2 2 2 2 2 2 2 2 2 2 2 2 2 2 2 2 2 2 2 2 2 2 2
left_child=1 11 3 26 6 16 8 -8 10 -10 -5 12 22 -9 -13 18 27 -18 19 24 21 -20 -1 -2 -14 -25 -3 -6 33 -30 31 32 -31 -27 -7 -33 40 -38 39 -39 41 -4 50 44 45 -35 51 -28 49 -32 -40 -16 53 -45 -54 -36 59 -58 -46 61 -61 -42
right_child=23 2 36 4 5 34 7 13 9 -11 -12 14 15 -15 46 -17 17 -19 20 -21 -22 -23 -24 25 -26 28 47 -29 29 30 48 35 -34 43 55 -37 37 38 42 -41 56 -43 -44 52 58 -47 -48 -49 -50 -51 -52 -53 54 -55 -56 -57 57 -59 -60 60 -62 -63
leaf_value=0.10785427310471829 -0.036641953208789532 0.012764515349279562 -0.032786372916280955 0.056550298454357412 0.0051242012254515126 -0.034700757628452643 -0.033957651583599105 0.048943368655517759 0.035575036178125137 0.071268099262017617 0.087332824380910945 -0.031960525134704723 -0.029411972424165472 -0.034109712188102055 0.10705621573804562 -0.031731450282468113 0.014342983105948823 0.080753520212916041 -0.030601157873867833 -0.030482504214617772 -0.031068387099313883 0.074167440829323819 -0.030673080685448707 0.07818449175260668 0.12399421005559902 -0.037922946838893259 0.11356210848394582 0.083406131223363572 -0.037909626870079392 0.053771365176091532 0.067958496189062287 0.055908283160791307 -0.0097009455192666044 0.1077922891121495 -0.032846438260136002 0.069062297786139287 -0.034276758308003301 0.082220383886815976 0.072416936730324233 -0.037538590601746212 -0.032364244599654445 0.08509612357156171 -0.038544790214937404 0.0035175811776603384 0.044798820598795509 -0.036280469219562801 -0.032522997626757803 0.024620449116061972 0.077132967112155629 0.010785778132495594 0.016923940847279093 -0.030613900696575574 0.050789643217119582 0.085563907284993246 0.075438764690947888 0.10435284355249251 0.1146595283526318 -0.036461614183033196 0.1376364322224494 0.071608815880525811 0.0097313693112981835 0.087964408116681589
leaf_weight=104.49929130636156 29.916524015367031 41.928123049438 55.972306304611266 8322.5907803894952 53.372083157300949 107.01208065543324 170.01913573872298 595.01784275844693 3105.210014927201 1154.4825036209077 689.38210005871952 35.922657307237387 16.72623195592314 73.948949323967099 181.01761772111058 194.63740564417094 222.48633766546845 240.29620713926852 77.197542080655694 30.875802130438387 162.17571431677788 121.69148305244744 23.309066332876682 3829.7293779104948 82.154848205856979 21.589514117687941 346.72242822218686 1917.8762406958267 40.024400983005762 145.43854507431388 7658.8009059689939 3257.9799394588917 164.85379981063306 28.813322756439447 15.215951556339858 3123.842559568584 43.804100200533867 34.447357445955276 720.31443747878075 66.716628387570381 14.377928970381616 34.456586511805654 23.035474382340908 51.635915100574493 48.949518777430058 79.89029992185533 15.209487957879899 33.819424929097295 3046.059164185077 126.44411724060774 75.532274823635817 11.178401218727229 508.06409920752048 2271.3480521366 2103.3484079279006 29.660740125924349 13.511742591857908 33.147052079439163 36.611417971551418 6334.0258255088702 131.6336381919682 790.22388543467969
leaf_count=319 210 229 885 51009 423 1258 2425 4493 21819 4846 2921 713 577 917 514 5078 2125 643 3150 930 5723 2153 586 1878 519 128 533 6512 256 638 13177 7949 1177 9 161 6768 489 20 1378 497 176 86 129 262 119 645 188 143 2483 485 287 187 1556 4164 2983 12 1 254 9 15416 632 832
internal_value=0.0643991 0.0593957 0.0605917 0.0565131 0.0554933 0.0703309 0.0527692 0.0247638 0.0545374 0.0452639 0.0589148 0.0305107 0.0182593 0.0397208 0.0712036 0.00616936 0.0751632 0.0489324 0.0212392 0.06739 0.00450519 0.0335375 0.082525 0.069395 0.0979801 0.069516 0.0965814 0.0812918 0.0680509 0.0660245 0.0662642 0.0604025 0.020117 0.0749467 -0.00707182 0.0623573 0.0689243 0.0533118 0.0575179 0.00361682 0.070948 0.0125376 0.0641606 0.0754297 0.0394147 0.00251503 0.0891536 0.105751 0.0698797 0.0670318 0.0671818 0.0989166 0.0768388 0.0837437 0.0706656 0.0580665 0.0716676 0.00872563 0.0856897 0.0720699 0.0703512 0.085773
internal_weight=53120.2 26546.8 25490.2 17119 16696.6 2585.92 14110.7 838.986 13271.7 4259.69 9011.97 1056.6 813.267 668.967 243.328 685.459 2434.03 462.783 490.822 129.757 361.065 198.889 127.808 26573.3 98.8811 26543.4 422.47 1971.25 22713.7 17563.4 17523.4 6692.11 310.292 5150.25 151.889 6381.82 8371.2 963.85 920.046 101.164 7407.35 90.4289 818.882 5128.66 194.265 108.704 207.406 380.542 10831.3 7785.25 795.847 192.196 4934.4 2322.98 2611.41 44.8767 7316.92 46.6588 85.5609 7270.26 6465.66 804.602
internal_count=187084 142188 121551 100469 99564 11134 88430 7835 80595 26665 53930 20637 19035 5410 1602 18130 9703 2768 13052 2026 11026 5303 905 44896 1096 44686 905 6935 42808 32933 32677 16532 1815 9875 1431 14717 21082 2800 2311 517 18282 971 1794 9747 782 654 889 676 16145 13662 1665 701 8965 4426 4539 173 17311 255 128 17056 16048 1008
is_linear=0
shrinkage=0.03


Tree=14
num_leaves=63
num_cat=0
split_feature=25 2 7 2 46 23 15 47 27 18 5 39 25 27 22 6 6 45 11 22 8 44 36 16 25 15 15 36 0 29 8 29 11 27 2 25 36 27 17 3 45 32 21 15 11 45 11 45 36 5 1 17 15 17 25 22 2 43 43 16 7 16
split_gain=1414.44 952.163 831.692 619.342 646.68 605.437 765.036 729.44 575.508 769.222 623.149 1214.54 630.732 735.169 653.992 611.192 596.893 575.285 555.585 552.397 506.693 491.24 489.924 830.441 740.305 541.569 521.206 475.469 472.477 609.073 456.98 448.025 441.342 438.149 552.425 454.446 437 477.156 414.193 414.034 402.75 399.448 398.628 388.649 381.951 377.938 375.978 374.548 391.397 367.577 364.752 359.165 358.108 350.302 338.573 334.878 330.056 441.171 325.387 324.018 323.065 372.281
