tree
version=v4
num_class=1
num_tree_per_iteration=1
label_index=0
max_feature_idx=49
objective=binary sigmoid:1
feature_names=gap_up_pct ret_30m range_30m vwap_dev rsi_14 macd_hist bb_pctb rvol vol_surge obv_delta dow mom_5d prev_day_ret consec_days avg_vol_30m nifty_ret_30m nifty_mom_5d rel_strength_30m rel_strength_5d beats_nifty_30m nifty_daily_ret_prev mom_10d mom_20d avg_ret_5d avg_ret_10d avg_range_10d vol_10d vol_20d daily_vol_ratio ret_1d_ago ret_2d_ago range_1d_ago vol_trend avg_vol_5d prev_day_direction atr_ratio nifty_mom_10d nifty_ret_1d_ago nifty_ret_5d_ago avg_vol_20d rank_ret_30m zscore_ret_30m rank_gap_up rank_rvol rank_rel_strength rank_range rank_mom_5d pct_beats_nifty rank_obv rank_vol_surge
feature_infos=[-77.695652173913047:339.36353211009174] [-16.090867158671582:334.89784649364992] [0:335.00828271673106] [-10.128874702410871:144.7007879268281] [0:99.724770642201662] [-656.77499999999998:678.60000000000002] [0:1] [0.00099950033308353315:4.6151205168412597] [0:317.07283702213277] [-163640624:136935044] [1:5] [-78.778625954198461:344.3247126436782] none [-1:1] [0.66666666666666663:14524673.35483871] [-2.3282528615237359:2.7873684388049864] [-7.9555699492904894:6.2342547039080012] [-16.479904814022493:334.81253092389755] [-79.760173139008018:347.78209909699973] [0:1] [-2.2153530964278469:2.9413458492219728] [-79.387048937221934:381.9482288828338] [-78.897333333333336:377.82697547683927] [-15.607616391423601:129.13215509432325] [-11.940874035989713:91.84582475526318] [0:94.61404702191922] [0:148.87632578144527] [0:119.14727738170238] [0.00099950033308353315:4.6151205168412597] [-33.358877748685529:330.61016949152543] [-33.358877748685529:329.30738408700631] [0:335.00828271673106] [0.00099950033308353315:1.0921578412798905] [0:1056043807.4] [-1:1] [0:11738.28239808017] [-10.079968182270136:8.7482622619526946] [-2.2153530964278469:2.9413458492219728] [-2.2153530964278469:2.9413458492219728] [0:86217091] [0.0024691358024691358:1] [-10.058099450525908:19.62537385022236] [0:1] [0.0024691358024691358:1] [0.0024691358024691358:1] [0.0024691358024691358:1] [0:1] [0.0086206896551724137:0.979539641943734] [0.0024691358024691358:1] [0.0024691358024691358:1]
tree_sizes=6714 6776 6778 6812 6789 6782 6803 6837 6855 6835 6893 6868 6899 6884 6862 6882 6912 6882 6907 6910 6892 6938 6888 6898 6901 6898 6911 6904 6901 6921

Tree=0
num_leaves=63
num_cat=0
split_feature=2 25 2 25 25 35 2 4 43 1 35 25 43 25 46 27 20 25 31 26 29 24 17 0 47 21 31 33 7 11 29 35 28 4 15 2 35 4 35 35 25 15 26 1 21 26 11 9 4 25 21 23 30 35 3 9 4 31 33 3 0 4
split_gain=744729 244823 107803 66865.9 61021.1 22004.3 21468.7 20496.8 18608.9 18320.2 17681.2 17053.2 14403.8 13916.7 13284.6 11621.1 12680.6 10689.5 10302.2 10300.3 10063.1 13194.7 10039.1 9724.73 9496.44 9058.2 9004.17 8914.03 9174.64 8762.36 8660.77 8341.76 10268.4 8282.13 8278.37 8080.27 7915.72 7580.03 7520.4 12957.9 7263.51 12095.9 9620.24 11168.5 7228.06 7159.35 7061.59 6751.7 6447.89 6367.04 6205.46 10461.9 6062.9 5956.69 5911.12 5871.4 7643.49 5832.1 5824.61 6557.64 5737.82 5687.08
threshold=1.972318339100352 2.5292248781776308 3.1004596507585216 3.4100994067542385 3.2194996704132381 61.906390197869165 4.3131897023785735 51.132255159248217 0.42170154239119767 0.3842945171908454 90.710954951319863 3.9368231482305855 0.48079382254574077 3.8089935145105946 0.8159670329670331 2.8050780902828243 0.42444014637446009 2.0638893227717765 5.4589363974260428 1.5965592498701002 -1.0324483775811226 -0.88199375919595269 -2.5046272628240325 0.55476863546049482 0.48456121343445296 -2.2908518582045203 1.8062867344936799 602248.10000000021 0.46946901192350238 0.15549960176120897 1.9173918188532577 20.590282784388588 0.25332816198626823 57.369017782551659 -0.30274205748354671 1.1823884884582634 444.03571029703579 63.076923076923215 174.0791341738462 102.11691701022376 2.2733192774531887 -0.035321403758874444 1.2841389087140416 -0.3693425801450238 -4.1595849717723601 1.8269005386231136 -4.1849875022440743 25140.500000000004 59.15119363395231 3.4651867953248132 12.636449769188488 0.25504273940117222 0.76539866873369855 40.005587768245569 0.089856862584562366 -46284.999999999993 27.653776737152807 3.837471783295713 29804.300000000007 -0.1850056455131501 0.14787430683918251 60.514696811308028
decision_type=2 2 2 2 2 2 2 2 2 2 2 2 2 2 2 2 2 2 2 2 2 2 2 2 2 2 2 2 2 2 2 2 2 2 2 2 2 2 2 2 2 2 2 2 2 2 2 2 2 2 2 2 2 2 2 2 2 2 2 2 2 2
left_child=1 9 3 7 5 12 13 14 15 40 27 34 25 61 22 16 38 -9 31 44 21 -19 -2 24 36 -3 -26 28 -11 -12 -18 -5 -33 -30 -10 47 57 45 39 -6 58 -42 43 -43 -14 -27 -36 -25 -35 -40 51 54 -23 -45 -17 -24 -57 -7 59 -1 -53 -4
right_child=2 4 6 18 8 23 -8 17 11 10 29 -13 19 -15 -16 50 30 20 -20 -21 -22 52 55 35 26 37 -28 -29 33 -31 -32 32 -34 48 46 -37 -38 -39 49 -41 41 42 -44 53 -46 -47 -48 -49 -50 -51 -52 60 -54 -55 -56 56 -58 -59 -60 -61 -62 -63
leaf_value=-3.1573784655851522 -2.9679719065177679 -4.2973792210636477 -3.1479139526420843 -3.1822555261115868 -3.3722664400262845 -4.0851057945784071 -2.4024011093085211 -3.9285267102785788 -3.7116649733410538 -4.3478877882273315 -4.0010511141971055 -2.8140484008135873 -3.9975397907436419 -2.5789521664261432 -3.0406711014661414 -3.2938444749669498 -4.1544065961581316 -2.8222900716979602 -2.6510012428481939 -3.757849213267392 -2.9575704977989563 -4.2324480893436354 -4.1235491186074826 -4.0560938355710991 -4.1498689059205729 -4.117275107698033 -3.1959831745275422 -4.1297052429066694 -4.346871244843431 -3.0427305856925657 -3.2043963241328921 -3.795739157859801 -2.8141784938850147 -2.806036378416918 -3.8654167764355911 -2.9197517350463515 -3.232412460048685 -3.3364368000859779 -3.7391088654240328 -4.1515020282622004 -4.2415682364190177 -4.1778200560114467 -3.9640257326334805 -3.7693398184263507 -3.1629434496547324 -3.6503541665423693 -3.091774656386443 -3.1735449421398143 -3.600016706210118 -2.9686709527206756 -2.763737432060303 -3.3686629331527449 -3.4042760668647882 -2.8397423104599016 -2.8307378686921085 -3.0010527161724081 -3.8101093831015311 -3.3850858216381989 -4.1637429463981839 -4.175433327736199 -4.2019611059883442 -2.7571070024962094
leaf_weight=10.366312839090826 13.702742256224154 42.457228846848011 87.179267667233944 103.28858059644699 192.74153769016266 50.190818652510643 480.596116527915 15.116603769361971 30.835185043513775 15.693939648568628 12.004379689693449 191.3167877048254 11.874784812331198 333.83009161800146 33.461459331214428 80.15066159516573 33.739387646317482 16.728143967688084 259.11778915673494 90.439155511558056 169.04064363986254 18.430338583886627 38.9640082269907 14.440763384103773 10.408415675163267 66.96234280616045 83.037402987480164 81.03829351067543 10.069521971046923 38.689973957836628 10.832854397594927 11.254676423966883 368.96776459366083 12.160563215613363 13.0171667560935 65.229119814932346 19.199512079358101 25.722028456628323 13.809642530977724 21.866549856960773 61.693002693355083 12.261622421443461 63.341474331915379 10.697418451309202 69.301623336970806 53.827932983636856 163.883375197649 18.188672035932541 50.14743846654892 67.574787095189095 41.658366322517395 15.111432373523714 13.334035530686377 22.904648222029209 50.960054144263268 12.391886971890925 65.878309555351734 13.048926800489424 398.8276894018054 12.080189593136309 14.425856873393057 95.267997033894062
leaf_count=355 390 3202 3242 3966 8644 3428 6238 944 1712 1211 778 5049 768 6258 1099 3367 2381 401 5461 5199 5258 1348 2710 966 729 4648 3219 5660 777 1280 391 646 9785 271 782 1919 740 1095 769 1539 4538 872 4072 603 2604 2893 5824 662 2609 2100 990 647 584 581 1337 363 3897 562 28328 858 1039 2309
internal_value=-3.19269 -3.55724 -2.78573 -2.98808 -3.33929 -3.56916 -2.55597 -3.30766 -3.18545 -3.98103 -3.74735 -3.02547 -3.72631 -2.70236 -3.57277 -3.30522 -3.41913 -3.12434 -2.81881 -3.5269 -3.07051 -3.48384 -3.71743 -3.36509 -3.50852 -3.91064 -3.29928 -3.89912 -3.69149 -3.25905 -3.90405 -2.91201 -2.84177 -3.55067 -3.22648 -3.11812 -3.75513 -3.7995 -3.34777 -3.4505 -4.06859 -3.90381 -3.71546 -3.38715 -3.27959 -3.90539 -3.14581 -3.5446 -3.42355 -3.09073 -3.11885 -3.22001 -3.86738 -3.11115 -3.10392 -3.81575 -3.66696 -3.92832 -4.13626 -3.67563 -3.75837 -2.93643
internal_weight=4524.78 2388.23 2136.55 1139.68 1576.25 634.329 996.873 397.048 941.924 811.976 219.804 399.053 360.585 516.277 164.398 542.871 340.565 232.65 742.629 171.616 217.533 48.4925 130.937 273.744 175.885 188.97 93.4458 169.11 88.0715 50.6944 44.5722 483.511 380.222 72.3775 207.736 97.8586 82.4393 146.512 295.993 214.608 592.172 170.898 109.205 45.8637 81.1764 120.79 176.901 32.6294 62.308 81.3844 202.306 160.648 31.7644 33.6021 131.111 117.234 78.2702 63.2397 421.274 22.4465 29.5373 182.447
internal_count=176897 121998 54899 36852 69205 32634 18047 16994 36571 52793 12586 13367 20409 11809 8459 23204 15824 8535 19858 8571 7591 2333 7360 12225 8678 11838 3948 10528 4868 2058 2772 14397 10431 3657 8318 3547 4730 8636 13052 10183 40207 10666 6128 2056 3372 7541 6606 1628 2880 2869 7380 6390 1932 1184 4704 6970 4260 3990 29541 1213 1686 5551
is_linear=0
shrinkage=1


Tree=1
num_leaves=63
num_cat=0
split_feature=31 35 33 47 16 32 31 20 20 38 43 22 43 4 18 2 35 36 47 28 5 29 16 2 46 47 21 33 20 7 35 36 23 35 10 16 7 38 0 0 2 33 29 49 46 11 2 16 48 46 11 36 7 2 18 31 28 40 38 14 32 21
split_gain=11739.3 6822.25 6399.88 6206.47 5448.62 5303.23 4169.6 4884.9 4271.69 3458.65 3497.56 3309.13 3279.92 3155.73 4369.05 3132.53 3494.95 3559.7 3044.83 2943.82 2929.27 3692.95 2887.76 4377.97 2877.41 3829.41 2820.65 2818.6 2790.41 2738.08 3344.79 2729.21 2560.89 2533.88 2407.18 3685.25 2414.94 2373.33 2362.99 2351.47 2332.07 2314.1 2188.44 2110.07 2943.32 2091.12 2035.9 2027.09 2009.63 1974.53 2832.57 3156.15 1960.71 1814.15 2421.4 1748.37 1592.02 1539.97 1507.17 1485.04 1466.86 1464.06
threshold=1.8762422021987104 18.754623083497215 1088721.2000000002 0.089769040991447849 1.2848254481842607 0.75203608294433499 2.7223343983196933 -0.014213586937862508 0.23339050654570101 -0.86058839216724736 0.84637276333900091 -4.7656560266084158 0.65834372402327523 53.777777777777658 -3.8997740798941787 3.9647577092510988 5.05972440624386 2.0943015480702809 0.5129531170881364 0.48329925917628841 -0.13500000000000054 -0.69707145550179594 2.4786147863662973 2.1052631578947452 0.016925280496538558 0.53888045145247998 -7.4600957545291857 1998004.8000000003 0.35480574542274274 1.0101272450476579 65.03431215971527 -0.46546398522434879 0.16166317706280595 102.11691701022376 4.5000000000000009 -1.6228425993727942 0.68398142431549414 -0.14965938386563979 -0.23314548791267617 0.44749194967580724 1.1449776039909307 7647486.2000000002 -1.0864485394526564 0.55972423073056443 0.36253572853641264 3.1055945668841605 0.75756001999302036 1.1962594053306705 0.87367006225240529 0.26762634631317322 -1.6599632551092995 1.1163243244568517 0.85280852344077052 4.1772505088873988 -4.0593229128809254 1.3161970214475909 0.22578818600535916 0.42510090486529023 0.64608008152094265 1789.2903225806454 0.74622873737003126 3.0565704380291967
decision_type=2 2 2 2 2 2 2 2 2 2 2 2 2 2 2 2 2 2 2 2 2 2 2 2 2 2 2 2 2 2 2 2 2 2 2 2 2 2 2 2 2 2 2 2 2 2 2 2 2 2 2 2 2 2 2 2 2 2 2 2 2 2
left_child=1 5 11 -2 6 18 7 24 13 10 38 26 45 14 -9 16 37 22 56 33 21 27 52 -24 -5 39 -3 -4 -10 30 -21 58 46 43 53 36 -36 -6 -8 -26 -37 -15 -30 44 -13 -7 -33 -27 -34 50 -20 -52 -18 54 -11 -48 -1 -45 -22 -39 -32 -47
right_child=3 2 20 4 15 12 9 8 28 34 -12 19 -14 41 -16 -17 17 -19 49 29 31 -23 23 -25 25 47 -28 -29 42 -31 60 32 48 -35 35 40 -38 59 -40 -41 -42 -43 -44 57 -46 61 55 -49 -50 -51 51 -53 -54 -55 -56 -57 -58 -59 -60 -61 -62 -63
leaf_value=0.25101486345089286 0.41298952358253721 0.49046543212827243 0.60771061433054996 0.58119793545538379 -0.030164785952836701 -0.029777514646539171 0.27692883116149564 0.54924377425716231 0.015069934234335388 0.38792981673057869 0.33592006620536613 0.83378449550886513 0.39158854494881995 0.45729265304902827 0.18517225115258315 0.29460580699774291 0.31313509861437039 0.39080221132579612 0.078812000460080189 -0.029789094524896087 -0.030154387123556631 -0.030332165923207768 0.049783804910759871 0.32634856353682451 0.18541960238421229 0.054554374225266003 0.02767907579216845 0.079998872615185082 0.037086217370821337 0.4885890693576021 0.15586454251770795 0.11094307401648239 -0.029929848028681958 0.11473519548260241 0.063394148130967248 0.047300159188661435 0.2497737752724053 0.11643120462980532 0.069946335748169691 0.31719524698289686 0.32773668456150912 0.14585715117670234 0.30459990813636378 0.12179279819614969 0.45961467084077057 0.58623187564942569 0.50665115970270913 0.34988077106239163 0.26484436639489622 0.12634911959945924 0.83283947042204165 0.15614492000867614 0.42182415069396906 0.30297275171680565 0.33083105076183844 0.31428413372193659 -0.0078222035233324553 0.47599377518851999 0.355752521330713 0.39923473726754227 0.63912251055027136 0.11611915205782548
leaf_weight=23.001105614006519 763.97768403869122 16.337029092945158 16.694420203566551 17.445881794206798 30.832528906874359 36.372306120581925 79.399057096801698 37.878545891493559 48.298761705867946 890.61987122613937 158.30908205546439 40.752279103733599 110.97527031414211 275.85128307063133 134.61306297685951 715.55132176354527 483.17548598255962 2331.5700288452208 19.711278703995049 34.636168603785336 40.21840871591121 77.22514368314296 82.727083062753081 137.48155698180199 290.41986671555787 183.21494123805314 37.936106220819056 19.532958834432065 32.434041688218713 38.070389984175563 11.213359342887999 31.017187083140016 33.822195730172098 14.640168115496634 94.138507817871869 28.140182881616056 191.05475074611604 29.702686245553195 132.45952812116593 218.93402210902423 707.40102331899107 24.584996854886413 193.65464241988957 13.937506057322024 44.998177993111312 10.000458551570775 66.112033982761204 22.719006199389696 52.29426749702543 127.91091975849122 14.697087168693544 11.196399574168025 237.70402091089636 1476.7113269641995 3369.7365592280403 149.08298682514578 195.68244857899845 74.58753071539104 10.722818143665789 40.930636553093791 12.494946759194134 14.460669207386671
leaf_count=330 2984 162 324 141 1014 2006 822 366 1578 5755 809 616 1678 3347 3974 1969 7363 23860 679 1813 1774 4075 2169 762 7606 5667 1610 749 1114 314 385 1503 1561 459 1969 989 1720 773 2791 3569 5894 517 3734 489 889 117 956 300 758 4277 335 411 1942 3242 35914 2818 9168 884 171 359 144 429
internal_value=0.320588 0.237522 0.291961 0.32921 0.324137 0.15642 0.310419 0.263984 0.318171 0.320022 0.229333 0.392562 0.295023 0.37307 0.267843 0.352927 0.365204 0.37061 0.0950988 0.433489 0.222524 0.0875731 0.320218 0.223158 0.208357 0.19846 0.173392 0.333053 0.222525 0.293172 0.159526 0.262131 0.293409 0.503164 0.324955 0.281441 0.188699 0.188889 0.148469 0.242577 0.317091 0.432386 0.266569 0.534937 0.645032 0.11533 0.342739 0.0886832 0.150023 0.18856 0.356527 0.557033 0.349513 0.332646 0.342856 0.375467 0.0204073 0.422245 0.0563041 0.283638 0.426235 0.323909
internal_weight=14862 1400.33 836.326 13461.7 12697.7 564.008 8608.02 1480.05 747.315 7127.97 370.168 339.604 171.809 472.928 172.492 4089.68 3374.12 3272.66 392.199 285.331 496.722 113.453 941.088 220.209 732.734 715.288 54.2731 36.2274 274.387 96.4149 58.3445 383.27 332.329 188.916 6757.8 1020.73 285.193 101.466 211.859 509.354 735.541 300.436 226.089 174.275 85.7505 60.8334 246.212 205.934 86.1165 173.516 45.6048 25.8935 720.88 5737.07 4260.36 215.195 218.684 88.525 50.9412 70.6333 23.7083 24.4611
internal_count=176897 41884 22454 135013 132029 19430 91818 31913 14630 59905 4422 7765 4230 8204 4340 40211 38242 36096 15200 5993 14689 5148 12236 2931 17283 17142 1772 1073 6426 2656 2342 9541 7596 3337 55483 10572 3689 2146 3613 11175 6883 3864 4848 2878 1505 2552 5277 5967 2319 5702 1425 746 9305 44911 41669 3774 9498 1373 1945 1132 529 546
is_linear=0
shrinkage=0.03


Tree=2
num_leaves=63
num_cat=0
split_feature=31 27 15 10 31 11 45 27 11 8 48 4 41 8 15 47 26 36 47 45 7 38 48 31 45 26 5 16 45 27 23 22 7 7 11 22 22 31 21 42 45 45 16 7 41 17 45 27 38 7 4 28 45 0 35 14 38 5 32 45 8 5
split_gain=5745.04 4346.87 3593.73 2745.1 2879.43 2717.1 2481.38 2345.49 2086.96 2251.79 2173.15 2086.1 2055.43 2047.8 2010.7 1993.22 1990.22 1848.4 3004.57 2701.06 2622.72 2240.06 1883.52 3026.32 1799.68 1782.51 1752.1 1719.74 1692.47 1675.96 1626.13 2261.21 1588.52 1573.98 1563.9 1845.16 1521.57 1515.03 1499.94 1467.52 2604.32 1982.23 1451.96 1448.89 1385.44 1671.59 1312.37 1305.64 2011.55 1435 1257.88 1250.01 1244.33 1604.99 1234.01 1735.85 1810.4 1588.69 1273.59 2357.32 1258.19 1221.96
threshold=1.8762422021987104 1.2851221120404501 -0.37079117795499322 4.5000000000000009 1.910112359550554 -1.7969028514255405 0.61601104972375709 2.263612623310074 5.6886386804049511 0.3049864247568041 0.11237574069876632 55.1340241867223 -0.34104513216900273 0.27745245705838684 0.68636074465605568 0.50334074127177586 1.3511847194039164 3.8173318506744063 0.68010802612436938 0.13937722498132118 0.11700596504641141 -1.1115908403432571 0.38990068839206776 3.2266973968586732 0.64777109137648992 1.3362941533499988 -4.6199999999999752 -2.0300769858399224 0.34073048117369453 2.5053934765319199 0.20255408133366745 6.5374248293657296 1.4427806564338683 1.9219986648498508 3.2142468013572851 6.8749999999999982 14.812931341948575 1.7577000211195932 1.5098147819995325 0.71623482987119369 0.46675170068027216 0.78968447498706873 2.0101363802699725 0.71582459269662058 -0.63156360087149366 -0.11615248771991883 0.080106928205347858 1.5393243679171598 -0.10029490769490072 0.46451107092670435 66.239862723238687 0.30108613827038233 0.92317529018296296 -1.0829880643404326 80.88747607365066 23356.290322580648 -0.090577817625407245 -13.334999999999978 0.77886731425063227 0.060446480471669395 0.51919337462092352 -2.1450000000000182
decision_type=2 2 2 2 2 2 2 2 2 2 2 2 2 2 2 2 2 2 2 2 2 2 2 2 2 2 2 2 2 2 2 2 2 2 2 2 2 2 2 2 2 2 2 2 2 2 2 2 2 2 2 2 2 2 2 2 2 2 2 2 2 2
left_child=1 14 50 17 16 12 7 8 9 13 -11 -10 61 -6 32 37 -5 19 24 20 -2 52 23 33 26 -22 -19 43 -25 42 44 -32 54 -23 35 -27 -31 47 -16 40 -24 -41 -9 -8 -17 -46 -39 48 -7 -49 -3 -28 53 -21 57 56 -56 -1 -59 -60 -58 -4
right_child=3 2 5 4 6 15 27 29 11 10 -12 -13 -14 -15 38 30 -18 18 -20 21 25 22 39 28 -26 34 51 -29 -30 36 31 -33 -34 -35 -36 -37 -38 46 -40 41 -42 -43 -44 -45 45 -47 -48 49 -50 -51 -52 -53 -54 -55 55 -57 60 58 59 -61 -62 -63
leaf_value=0.27631554625496024 0.53429377208197992 -0.030762181568245988 -0.029424222486940425 0.70044951202985817 0.081141095588036713 0.23080810378683489 -0.031195827890484307 0.33152004162824378 -0.028906376011481855 0.22716642047976579 0.014297583282120808 0.41950222711337232 -0.030746866485965082 0.39466953698272605 0.11085479012412373 0.4882326143354091 0.22686179256462582 -0.028930678637652984 0.020204395839747556 0.34989531804256868 0.020852375919127506 0.16865492677615385 0.18636712817067189 0.32622845133719475 0.25237913683767221 0.14859812410506393 0.077124204582780159 0.23364373327131371 0.23483879674078789 0.1081588955845678 -0.030173813491771059 0.26398259397359158 0.2426882583043318 0.30986095547022313 -0.030242004118187962 0.33784655454923301 0.27797244752793232 0.30184229103693816 0.53852058653452373 0.29295470928186751 0.24985252917553913 0.24643548198673562 -0.028706302973401061 0.17856667876333904 -0.02871051071617442 0.30585787355305111 0.029050013655871124 0.31744650972736549 -0.030225213817869565 0.19422032152552454 0.20339026490434217 0.32255598558153625 0.21443789987631223 -0.031179826207627496 -0.028687431305368806 -0.029832819621635254 0.12350367152899649 -0.020203687163830766 0.49791992569570037 0.027189119732891107 0.49052777653184421 0.24831153478823534
leaf_weight=21.078237202018499 14.993556492030619 72.242504159919918 17.478283025324345 17.530611994676292 39.31286041252315 67.754924480803311 37.314418862573802 123.14976272732019 12.54425460193306 51.350702933035791 247.06153007503599 34.047412605956197 61.326634429395199 36.081535449251533 15.055902069434525 38.117700736969709 16.546841154806316 13.258158341050146 42.672132100909948 10.88856456056237 86.278403616510332 910.00128840934485 702.26225884631276 200.56081801187247 1287.1535783763975 161.94571833219379 19.918057955801487 1860.9012875016779 3156.6283835694194 144.05846835672855 32.403892036527395 82.820157864131033 48.326745920814574 78.033756513148546 28.386831536889076 66.177010608837008 71.79403670784086 19.328601918183267 14.874837627634404 1510.8761122431606 3916.4441660614684 1982.6763621699065 10.776957767084239 137.74302350543439 13.805201880633829 339.21233863104135 73.766178438439965 160.59647436533123 42.931413136422634 198.3946218919009 27.791683518327773 774.9488532608375 62.75490852445364 60.110479844734073 13.91245573107153 27.110779721289873 13.721854935400186 216.73459786456078 11.846740944311021 38.157187316566706 24.977823183871806 71.491786064580083
leaf_count=438 113 2736 651 198 1037 1225 677 1006 342 768 7831 296 2208 374 507 586 221 416 817 68 3255 15721 12490 1937 5038 3590 315 10494 15257 2249 1214 902 656 241 822 649 530 161 239 11683 21425 5762 264 875 586 2943 2022 2686 1928 2898 265 6653 153 1446 628 1165 371 11482 355 1581 448 1003
internal_value=0.233453 0.181541 0.208924 0.238554 0.211172 0.223096 0.207692 0.161331 0.113111 0.0889898 0.0515744 0.30064 0.102676 0.234428 0.1002 0.23991 0.4836 0.243695 0.269982 0.239334 0.157175 0.241655 0.242971 0.226733 0.275056 0.139165 0.310814 0.22514 0.240395 0.21879 0.283525 0.181685 0.0826031 0.180112 0.178713 0.204746 0.165675 0.200228 0.33403 0.25164 0.240243 0.266633 0.302513 0.133914 0.312979 0.292722 0.0883257 0.222167 0.130171 0.250083 0.03563 0.316514 0.118184 0.031269 0.0609444 0.164657 0.26362 0.0317357 0.0114375 0.146348 0.366856 0.193996
internal_weight=19692.4 1765.26 1319.46 17927.2 2840.21 1219.43 2806.14 770.178 420.398 373.807 298.412 46.5917 150.297 75.3944 445.797 1069.13 34.0775 15087 2137.95 12949 357.782 12591.2 12457.5 4345.22 2095.28 342.788 808.125 2035.96 3357.19 349.779 506.359 115.224 415.866 988.035 256.51 228.123 215.853 562.772 29.9307 8112.26 4618.71 3493.55 133.927 175.057 391.135 353.018 93.0948 469.677 110.686 358.991 100.034 794.867 133.754 70.999 367.54 79.7229 52.6121 287.817 266.739 50.0039 38.6997 88.9701
internal_count=176897 41884 24014 135013 27162 21013 26743 14697 10648 10010 8599 638 3862 1411 17870 17151 419 107851 13239 94612 8429 86183 84516 33156 12422 8316 7384 12046 17194 4049 6231 2116 17124 15962 5061 4239 2779 10920 746 51360 33915 17445 1270 1552 4115 3529 2183 8737 3153 5584 3001 6968 1667 1514 16468 2612 1447 13856 13418 1936 819 1654
is_linear=0
shrinkage=0.03


Tree=3
num_leaves=63
num_cat=0
split_feature=31 15 45 7 29 4 47 48 18 22 9 14 22 21 45 15 32 8 30 15 20 30 6 21 28 20 0 2 2 49 41 1 4 15 45 39 32 39 30 0 29 38 24 15 26 28 23 23 26 47 38 36 47 31 24 6 20 9 31 44 45 38
split_gain=3568.09 4723.51 2402.47 2179.83 2055.37 1917.21 1732.51 1608.72 1600.63 1973.24 1584.87 1685.6 1538.66 1572.5 1487.01 1464.84 1533.17 1756.45 1659.36 1731.82 1442.91 1409.66 1317.38 1302.95 1286.25 1224.81 1657.18 1576.62 1105.57 1376.7 1088.41 1376.23 1083.25 1028.51 1116.77 2758.53 1064.82 1023 1310.39 1034.11 1448.12 1231.64 1012.89 1009.89 1001.97 1278.92 983.474 936.593 920.565 1245.06 919.762 1485.72 1709.01 933.916 912.31 895.006 882.498 860.734 857.96 930.884 851.081 825.274
threshold=2.6666666666666701 -0.48410981776563389 0.33697141155449678 0.41499756845303637 -1.3906447534766107 32.896452845860551 0.26147477561126592 0.42937070597993648 -3.8246027949999317 5.4015502673996219 -56614.999999999993 151.98387096774198 -3.517643527371368 -6.0503785744699607 0.85239249541063333 0.01262382938649228 0.75959169491597567 0.42901172327543052 -1.9224014375776888 0.73831673226173755 -0.90520821862449219 0.57970278819980881 0.25883955762141625 -4.4448295381480269 0.53723916260364446 0.0028082025252596766 0.11055893719210277 0.82720588235294057 1.0931165057294845 0.036882591093117416 0.1855236307054319 1.0189523100487927 34.551798696605431 0.73831673226173755 0.15528825469668725 788.99314931244055 0.78395221355067191 411.05023446568202 -0.670033988096435 0.15840447079731448 0.94212651413189974 0.54758389570449284 -0.11915427637713781 -0.99390491401852854 1.0168567707720528 1.1528944572191804 0.53320574038079682 -0.72743719785564542 1.8013897738398517 0.57104761904761914 0.0042997575545664695 0.64588752861303755 0.19216382121619033 3.104981252759528 -0.35210077634143061 0.015495300816351903 0.87567199052653077 -3307158.9999999995 2.8071690700372778 0.17615878231321175 0.79362772240679225 0.47624426138467196
decision_type=2 2 2 2 2 2 2 2 2 2 2 2 2 2 2 2 2 2 2 2 2 2 2 2 2 2 2 2 2 2 2 2 2 2 2 2 2 2 2 2 2 2 2 2 2 2 2 2 2 2 2 2 2 2 2 2 2 2 2 2 2 2
left_child=1 20 3 4 -3 54 14 8 -8 28 22 -12 13 -7 50 25 18 -18 -17 -20 -1 -14 23 55 -19 -5 -27 -28 29 -10 32 -32 -30 34 35 -9 -35 38 -13 40 -39 -41 57 -11 45 47 -44 -36 49 -45 -2 52 -52 -53 -6 -4 -37 -24 59 -46 -40 -22
right_child=6 2 10 15 5 12 7 33 9 43 11 37 21 -15 -16 16 17 24 19 -21 61 -23 42 -25 -26 26 27 -29 30 -31 31 -33 -34 36 44 56 -38 39 60 41 -42 -43 46 48 58 -47 -48 -49 -50 -51 51 53 -54 -55 -56 -57 -58 -59 -60 -61 -62 -63
leaf_value=0.23427694806457364 0.24238748704615726 -0.030584852753917233 0.36013649329722558 -0.01383268416152649 0.55087769178389923 0.22206767072434472 0.20023004468141795 0.3083328724830921 0.33426991307534193 -0.031339771716762471 0.014641101564787051 0.12794397021280082 0.22102151491515226 -0.0019452828536146406 0.18857808439681101 0.24093876915992915 0.031405798093295023 -0.028548115632847711 0.04120217465323496 0.23323270408665148 -0.00022459237561186149 0.097563716953110474 0.45428126005555292 0.0066361977992030908 0.30619963905276226 -0.030442557408553297 -0.029868181270065981 0.21206402677960826 0.087680997208260669 -0.0045034752783930827 -0.0072988792517888149 0.14287881417080439 0.16652989372744773 0.065334297873981359 0.16040954012356071 -0.0066621616452955407 0.1948828424213716 0.1515156791236919 0.34729354391782657 0.20886547534885741 0.23784245641514845 0.11430999622917236 -0.030974685458981695 0.15775505737080794 -0.029576649137532527 -0.029619374208208413 0.18494428811524041 0.32227307279599832 0.19185511479344472 -0.031144325257675659 0.18726886117602107 0.089515836096661347 0.0026308942075751371 0.25471024993540181 0.17427676246118703 0.10476373504640016 0.22524315151664473 0.19803110369602647 0.19461678655846781 0.24413099822068554 0.19062174651994576 0.12878304450358166
leaf_weight=32.920283549465239 1406.504538487643 40.25226900074631 16.316349346190691 130.81544259004295 18.403137754648927 43.47027678694576 1590.060803944245 45.4709452111274 11.393502874299882 19.299746019765735 48.383713073097169 55.219359550625086 471.4247114462778 76.977156625129282 1454.9026463255286 65.074498721398413 35.156225975602865 11.239455156028269 247.99070728570223 50.142991651780903 215.09674346726388 104.00154548883438 12.965979378670452 116.8729261662811 105.78150672186166 57.979873987846076 30.696073630824685 110.04324642941356 185.94276245590299 83.43713747151196 89.881458052434027 139.66220138873905 1151.7226352654397 113.39475113525987 45.564249940216541 90.345150924287736 117.39362964779139 1015.1633355999365 112.00949102919549 1865.7835179325193 215.90990229416639 137.22811000514776 34.461384515278041 188.62305712234229 11.235148681327699 12.19849721342325 40.554152217693627 145.17888046149164 1910.2905455632135 37.249227179214358 152.7099199835211 36.228223824873567 63.950232874602079 281.28900896571577 10.089074663817881 48.414448710158467 16.637173444032669 126.10378983430564 8250.5381263764575 454.8667891509831 49.577502180822194 55.295452743768692
leaf_count=305 5860 1229 76 4917 99 601 6503 451 75 270 1252 631 7887 2648 2668 605 983 377 8332 758 6172 2685 28 2940 1402 2427 1350 2011 1965 2130 1475 817 9114 1058 253 2193 349 12103 784 16332 1873 1710 889 2035 207 259 342 702 8347 821 1000 486 1017 1198 220 677 182 1130 35745 2573 325 1044
internal_value=0.185826 0.165246 0.171598 0.140529 0.177307 0.18889 0.192417 0.187893 0.174707 0.164025 0.184396 0.190867 0.178493 0.0800406 0.211954 0.107073 0.138654 0.218587 0.104646 0.0741815 0.0497781 0.198921 0.126823 0.0668186 0.274053 0.0574031 0.104147 0.159438 0.139235 0.0392308 0.145256 0.0842848 0.155645 0.195539 0.197145 0.115296 0.1318 0.193332 0.257511 0.188951 0.166839 0.202449 0.177161 0.183066 0.198531 0.265703 0.0866112 0.284661 0.185018 0.12659 0.22937 0.194701 0.133047 0.236211 0.428056 0.173679 0.0311264 0.225016 0.196936 0.237478 0.300711 0.0265239
internal_weight=23913.8 5807.81 5504.5 1609.54 764.618 724.366 18106 14710.4 5407.56 3817.5 3894.96 3499.27 695.874 120.447 3395.58 844.92 515.385 152.177 363.208 298.134 303.312 575.426 395.689 181.604 117.021 329.535 198.719 140.739 1662.04 94.8306 1567.21 229.544 1337.67 9302.82 9072.03 152.453 230.788 3450.89 216.806 3234.08 1231.07 2003.01 214.085 2155.46 8919.58 202.942 75.0155 190.743 2136.16 225.872 1940.68 534.177 216.66 317.517 28.4922 64.7308 106.982 139.07 8716.64 466.102 161.587 270.392
internal_count=176897 87144 79623 38531 15369 14140 89753 77524 33552 27049 41092 35010 13821 3249 12229 23162 12457 2762 9695 9090 7521 10572 6082 3693 1779 10705 5788 3361 15576 2205 13371 2292 11079 43972 42565 2826 1407 33758 1740 32018 13976 18042 2389 11473 39739 1214 1231 955 11203 2856 9561 3701 2017 1684 319 753 2375 1158 38525 2780 1109 7216
is_linear=0
shrinkage=0.03


Tree=4
num_leaves=63
num_cat=0
split_feature=25 25 36 22 26 43 15 17 45 11 3 33 38 11 21 35 43 11 2 22 35 2 39 6 32 38 32 36 46 45 5 14 37 15 31 38 3 27 39 42 23 38 46 38 31 43 28 32 38 15 41 6 17 17 6 27 15 23 27 2 11 18
split_gain=5563.24 2073.99 2736.48 2176.06 2128.61 2494.68 1648.8 1610.34 1470.9 1431.47 1419.82 1413.86 1761.37 1869.42 1783.78 1339.06 1296.94 1285.08 1416.72 1177.98 1225.85 1229.88 2139.66 1702.76 1905.47 1235.65 1207.94 1186.9 1155.95 1116.83 1085.23 1050.28 1043.73 1042.31 1318.24 1043.22 1020.5 950.287 908.643 902.943 1170.22 901.056 890.036 888.49 881.885 1616.91 860.879 1087.72 975.996 819.071 768.597 773.828 936.234 764.445 759.677 809.405 738.884 725.768 721.682 701.303 694.715 669.381
threshold=1.8998556605967554 2.6148267634119593 -1.8338877471579496 -11.050746385353388 1.0250870926243194 0.26344847543330596 -0.29272049913658588 -2.5046272628240325 0.084045792229935468 -1.0000000180025095e-35 -0.14879430022736553 102742.60000000002 -0.065086480581100795 3.3872420807904668 3.8494081770708415 302.1164889008918 0.04126752425265335 -0.30478026877766301 0.9436293418828311 -17.706728124541588 65.03431215971527 1.3846489720283548 2166.4556451612912 0.26923076923077266 0.90081720861624526 0.32176636721943358 0.8877617814905 2.4693679996467992 0.27553919294990731 0.17887370955821 2.100000000000009 10480.370967741937 -0.068802208090216768 -0.40112548140342741 3.2465119648730525 0.15061374141885478 0.2158707269559689 1.1105922792260943 6672.2374519973919 0.062849336455893842 -0.42493389326868064 1.2602164360207577 0.22411378344441227 0.4991210309442759 1.8762422021987104 0.13263952795972503 0.57284336514745804 0.68106052584252563 0.1672311564236697 0.23444046734870375 -0.097301371966643638 0.098027204020542338 -0.40683322726362359 -0.46947335000135298 0.77892165768384503 1.4353911997863251 -0.44022194039146206 -0.56323286513820103 3.0781133674489873 1.1574732803721968 2.0859283503835386 -1.284444902278733
decision_type=2 2 2 2 2 2 2 2 2 2 2 2 2 2 2 2 2 2 2 2 2 2 2 2 2 2 2 2 2 2 2 2 2 2 2 2 2 2 2 2 2 2 2 2 2 2 2 2 2 2 2 2 2 2 2 2 2 2 2 2 2 2
left_child=11 2 3 56 9 17 15 -5 -8 28 -10 29 -13 39 -15 -7 -9 18 32 59 21 22 23 24 -21 33 42 43 54 -1 53 41 -6 34 -23 -35 -25 -29 -28 40 -14 -22 -24 -27 57 -46 47 -41 -49 -47 51 52 -33 -31 55 -4 -2 -11 -53 -3 -59 -61
right_child=1 19 4 7 5 6 8 16 10 44 -12 12 13 14 -16 -17 -18 -19 -20 20 31 25 26 36 -26 27 38 37 -30 30 -32 50 -34 35 -36 -37 -38 -39 -40 46 -42 -43 -44 -45 45 49 -48 48 -50 -51 -52 58 -54 -55 -56 -57 -58 60 -60 61 -62 -63
leaf_value=-0.029619414793746326 0.35626074579700062 0.26691728292102535 -0.030240464833975744 0.19367138360553243 -0.028978026988238384 0.0043592647877724461 -0.030262552162297687 0.2457228608704001 0.10213872946847449 0.25251521989077219 0.17022141738324031 -0.030846299950680046 0.37107740314497234 0.38980380220572131 0.052964479563466595 0.24867810589841141 -0.031478386225195963 -0.030973291023414652 -0.030369968434073833 0.0083301317992544744 0.18125650252697573 0.04330271395827455 0.12609917983619559 0.20255807024250166 0.28262984529889934 0.18251987064947844 0.25298993326285069 0.45538948117238587 -0.030619651849902691 0.11910487304545625 -0.02957013282485468 0.17935151872941921 0.24995240220109596 0.15648672935454835 0.13605798071109376 0.11919548506185526 0.096702093821345508 0.19913933224683636 -0.029563870026012556 0.0090829250270243155 -0.028235484163743663 0.028839156611792188 0.040619123443334938 0.14328388583019058 0.55249291151480773 0.24982102000888642 -0.014768043262691271 0.28179540599714203 -0.028260693564798829 0.092262277889720828 0.16695492683117522 0.11860960212300264 -0.031126394014626708 0.31856432813371766 0.27268476782242718 0.17080009000670854 0.1211981025625839 -0.030017620766801881 0.15587017404235759 0.1854307185664123 0.15337249061968095 0.12529361181936019
leaf_weight=22.262047189287841 22.278857516124845 89.233304353430867 26.298501797020435 38.823536667972803 15.116270911879836 124.25133731029928 39.633344407193363 15.309327891096471 368.13490990083665 46.359653499908745 1175.82188502606 179.7093377513811 15.848071097396316 31.161563034169376 25.948132460936904 23.121739030815661 220.65487331338227 122.63978810049593 41.016574315726757 111.04470689408481 3356.944406230934 176.81049743667245 155.61475353967398 449.91628589574248 27.708579341880977 934.9948864467442 54.350714972242713 12.929031500592826 37.943227672949433 28.773193133063614 14.72199559304863 674.96670768875629 55.067281322553754 6182.2762792818248 647.50463486183435 778.83457688987255 103.81011002231389 753.77064389176667 12.306402888149021 56.065090694464743 10.623988497070966 35.741103671491146 371.72780657745898 1257.0566263310611 14.49804337043315 261.95968038588762 139.77700207103044 35.070757139474154 11.985163264907895 35.30656159017235 4266.8915137248114 1036.1248890645802 19.264799798838794 50.486760248430073 35.939743909984827 54.339905247092247 28.412823758088052 24.589855699799955 898.57207945920527 1584.9694341029972 71.382762555964291 196.61704628076404
leaf_count=906 127 210 845 183 563 3346 1493 166 6654 109 12676 7522 79 292 687 188 6820 4196 1431 2164 16583 2460 1956 4138 119 2872 327 11 1239 358 404 2278 720 25958 2967 4671 1282 2410 244 2373 427 403 6739 5966 131 1407 5650 675 536 480 14301 7347 299 305 184 520 344 893 2557 2277 590 839
internal_value=0.155147 0.157186 0.133041 0.050867 0.143409 0.12808 0.140502 0.0171977 0.149435 0.192602 0.154067 0.0663175 0.0444616 0.0858912 0.240356 0.044129 -0.0125199 0.0359077 0.109314 0.160073 0.158126 0.151541 0.123523 0.159382 0.0647588 0.154884 0.0815154 0.171553 0.112551 0.160273 0.205124 0.16581 0.190271 0.148527 0.116243 0.152333 0.182928 0.204052 0.201114 0.052364 0.215518 0.179661 0.0660402 0.160097 0.219528 0.248146 0.0337597 0.0990763 0.203817 0.23149 0.15897 0.14595 0.17347 0.248579 0.159038 0.105631 0.229459 0.15553 0.135988 0.183211 0.106529 0.17887
internal_weight=27711.3 27088.9 2898.9 325.479 2573.42 1964.8 1730.96 274.788 1583.59 608.618 1543.96 622.433 506.189 326.48 57.1097 147.373 235.964 233.84 111.2 24190 22319.2 12030.7 1286.48 692.48 138.753 10744.2 594 2958.75 154.521 116.244 93.9819 10288.5 70.1836 7785.43 824.315 6961.11 553.726 766.7 66.6571 269.37 26.4721 3392.69 527.343 2192.05 454.097 311.764 242.898 103.121 47.0559 297.266 6895.82 2628.93 694.232 79.26 116.578 80.6384 50.6917 142.332 1934.7 1870.82 95.9726 1781.59
internal_count=176897 156683 45305 7640 37665 31267 24357 7169 20823 6398 19330 20214 18241 10719 979 3534 6986 6910 2714 111378 108052 64284 16969 7703 2283 47315 9266 11259 2788 1973 1067 43768 1283 36056 5427 30629 5420 2421 571 9740 506 16986 8695 8838 3610 2018 9234 3584 1211 1887 26782 12481 2577 663 1549 1365 471 1592 9904 3326 1483 3116
is_linear=0
shrinkage=0.03


Tree=5
num_leaves=63
num_cat=0
split_feature=25 25 4 7 47 28 27 23 38 37 33 38 38 8 5 4 31 46 8 7 30 27 5 42 47 21 38 26 1 21 5 28 42 9 39 18 23 26 26 17 7 26 42 2 45 8 5 15 9 15 5 25 35 18 49 25 2 25 2 21 2 27
split_gain=4034.66 1578.97 1667.35 1759.33 1492.89 1413.45 1275.03 1209.99 1186.51 1048.59 1047.95 1501.61 1159.31 1763.46 1277.76 1310.03 968.75 1526.46 983.375 954.28 1120.18 1273.58 1272.44 1130.4 992.65 1520.84 969.514 2144.6 951.328 945.792 944.213 1157.59 931.124 895.58 1052.83 884.818 1001.3 881.524 862.543 832.568 937.992 808.181 793.993 753.68 643.451 815.114 611.48 640.245 737.123 615.177 607.695 719.792 593.111 580.129 542.531 541.525 524.83 645.488 508.854 488.562 609.887 477.788
threshold=1.8998556605967554 2.5292248781776308 54.031230091210055 1.3780576682370131 0.089769040991447849 0.82510776366067973 2.1665541374447437 -0.077572571810088128 -0.86058839216724736 -0.69196974524453303 102742.60000000002 -0.065086480581100795 0.1672311564236697 0.19482348414455772 -0.13500000000000054 52.040816326530567 3.3396226415094321 0.3979460001054686 0.35038065046550315 0.71982259754826494 -0.17004466983690616 3.2948960553283495 -2.3849999999999878 0.57543328237294444 0.78207493207493217 -9.0439948497116163 -0.32757036261525269 1.6926739555978838 -1.8536439053652678 -5.1787013648784752 2.100000000000009 1.2750903556200075 0.92709851797862008 21203.500000000004 19247.550430107531 2.0541919591328588 -0.42493389326868064 2.2971512792228879 1.3653855703061943 -0.028114005406064246 0.60631859891371664 1.4750415779768811 0.52056809024979867 0.83449235048678094 0.57263763548679758 0.31749548024211721 -9.1649999999999512 -0.64571691814449561 -1281.4999999999998 -1.9983031789836827 0.18000000000000152 2.982471416053571 43.72265700752785 0.66029258887878595 0.95753338192529369 3.5090460249896962 1.610047627770655 3.7064610143946628 1.4714361493736723 0.45614477221279098 4.1772505088873988 0.96412150745689551
decision_type=2 2 2 2 2 2 2 2 2 2 2 2 2 2 2 2 2 2 2 2 2 2 2 2 2 2 2 2 2 2 2 2 2 2 2 2 2 2 2 2 2 2 2 2 2 2 2 2 2 2 2 2 2 2 2 2 2 2 2 2 2 2
left_child=10 2 3 5 44 7 8 39 -4 -10 42 -12 14 -14 -13 35 17 -7 -19 20 22 24 23 43 52 -26 27 -24 -21 -18 31 -11 -25 -17 -35 36 -16 -28 -32 40 -2 59 -1 -6 45 -3 47 -30 -49 -48 51 -47 -22 -44 -51 -23 -52 -58 -57 60 -5 -9
right_child=1 4 6 41 19 16 -8 61 9 30 11 12 13 -15 15 33 29 18 -20 28 21 55 26 32 25 -27 37 -29 46 -31 38 -33 -34 34 -36 -37 -38 -39 -40 -41 -42 -43 53 -45 -46 50 49 48 -50 54 56 -53 -54 -55 -56 58 57 -59 -60 -61 -62 -63
leaf_value=0.023320052779149437 0.12528150732986296 -0.030673842068693065 -0.031139881454399616 0.26402188978672714 0.3804726046551633 0.015582349762539817 -0.031862604561701348 0.16884852987546362 0.0091653695076341149 0.16560500425842009 -0.030810880844367044 0.00389477392439038 0.35461614749289411 -0.030828290221568157 0.31040560398437766 -0.030145901395304413 0.21873209443995992 -0.028909348785635568 0.24459742280385771 0.11814582087698935 0.10032706681443924 0.22655340278281294 0.0022524222313785448 0.020034991619191433 0.18432492424426539 -0.032499648303664259 0.16134996705545099 0.13075438853617383 0.27635806882115937 -0.031079295950478696 0.13293271117803362 -0.031544332633011436 0.12250203446397943 0.21659699741876584 -0.030051942948384321 0.51843639941911679 -0.028003784133338028 0.13685582935242757 0.039701971806932725 -0.030547944359294421 0.013480394906425709 -0.031009986969554093 0.20885870879026819 0.12571755636871568 0.1536202831370172 -0.030231105972841423 -0.0323224908094683 0.18423514315107625 -0.031144369230351587 0.14582914053763679 0.17504214045307992 0.19104955497066581 0.12361380190231495 -0.028537199919070777 0.120179143991304 0.073867675472639532 0.39410683992094481 0.19597903210978643 0.1438098284705045 0.061609221106967066 0.11963359318108342 -0.031017949021793657
leaf_weight=40.521585260517895 213.65539627335966 13.425236929208038 37.08847988024354 82.589521072804928 10.003792134113608 46.78706107661128 41.558359406888485 10.396456716582177 53.633625755086541 1008.2180975181982 174.59671880304813 64.451297771185637 10.746623413637279 116.95353967510164 25.379589428193864 31.570403755642474 17.10971040930599 12.956740716472266 113.07258014753461 1419.8208297807723 1717.4072604645044 68.53659718669951 128.15509975608438 209.58453223761171 40.380890987813473 97.41747790761292 2360.7455230699852 1338.3868332905695 64.522478489205241 54.462822770699859 336.67315092682838 27.208067647181451 128.48282856680453 62.491862293332815 20.314930332824588 11.35202811937779 10.970332910306754 3205.2901306534186 123.06084252987057 61.100919486954808 99.018494305200875 15.730651086196302 82.844774856232107 434.95040475297719 1281.6213452778757 13.572771810926495 17.506063840351999 112.62351116165519 16.030530678108335 9988.6104416418821 42.327940015122294 288.84086499549448 2446.714196305722 10.138900103978811 839.07922472245991 103.94768157973886 41.35361735150218 28.463426202535629 1422.3004191573709 22.724204543977976 42.514489442110062 195.49180946405977
leaf_count=1144 4170 189 960 329 57 1185 815 232 1101 10192 7522 2684 116 4749 139 1157 224 407 1395 3996 15360 267 2047 2491 115 1611 15826 7043 66 1372 2668 500 657 697 615 79 483 11963 1754 2398 2551 264 543 2277 1353 236 207 349 228 27125 184 605 15688 286 2663 806 35 31 3479 210 72 6930
internal_value=0.133573 0.135165 0.112726 0.0818124 0.137265 0.0638221 0.131422 0.0381858 0.135721 0.139736 0.0601849 0.0410652 0.0764877 0.00408886 0.11709 0.161784 0.124213 0.162488 0.216449 0.135472 0.129946 0.11998 0.137449 0.100869 0.111414 0.031888 0.141507 0.119536 0.141544 0.0307889 0.144408 0.160396 0.059233 0.105079 0.156414 0.292738 0.210179 0.147272 0.108124 0.0702918 0.0900414 0.171495 0.135029 0.132292 0.164611 0.19708 0.144542 0.198328 0.157342 0.143565 0.204519 0.181041 0.114037 0.182913 0.143853 0.143 0.265644 0.317283 0.1391 0.193128 0.216316 -0.0201437
internal_weight=31157.5 30495.2 2615.05 987.611 27880.1 824.052 1627.44 579.663 1585.88 1548.79 662.333 528.827 354.231 127.7 226.53 162.079 244.389 172.816 126.029 26170.5 13712.3 5896.7 7815.6 783.022 4301.92 137.798 7032.58 1466.54 12458.2 71.5725 1495.16 1035.43 338.067 114.377 82.8068 47.702 36.3499 5566.04 459.734 373.775 312.674 163.559 133.505 444.954 1709.61 427.984 11038.4 193.177 128.654 10845.2 414.559 302.414 4164.12 92.9837 10827.7 1594.78 112.145 69.817 1526.25 147.828 125.104 205.888
internal_count=176897 156683 39729 21739 116954 20864 17990 16281 17175 16215 20214 18241 10719 4865 5854 3170 4583 2987 1802 114321 79687 37326 42361 5482 32774 1726 36879 9090 34634 1596 15114 10692 3148 2469 1312 701 622 27789 4422 9119 6721 875 1973 2334 2633 1280 30638 643 577 29995 1091 841 31048 829 29788 4552 250 66 4285 611 401 7162
is_linear=0
shrinkage=0.03


Tree=6
num_leaves=63
num_cat=0
split_feature=25 45 24 18 32 45 47 36 6 22 15 17 6 14 9 9 45 49 21 22 15 32 48 42 18 38 37 31 35 6 0 21 2 26 6 35 32 33 47 45 14 38 25 24 6 14 35 48 38 18 32 47 25 4 47 8 28 33 45 0 2 38
split_gain=3108.37 1486.45 1195.67 1397.18 1268.46 1122.72 1119.78 1106.75 1128.37 1084.64 1002.94 851.455 1334.46 1159.07 1375.5 920.638 851.3 828.659 803.841 1550.16 900.216 833.046 862.365 835.98 824.152 769.71 768.699 759.279 647.732 639.11 629.832 629.46 601.899 597.209 589.217 586.717 680.33 653.872 630.268 614.509 1123.35 607.63 596.799 1031.21 780.487 738.876 562.284 543.346 508.346 508.073 679.614 491.423 606.863 574.636 483.859 475.95 457.064 435.046 430.05 422.021 430.844 416.401
threshold=2.4454352283989382 0.17887370955821 0.31137876172358508 -2.4391056105914504 0.95002655104368861 0.75030864197530878 0.089769040991447849 -3.6022577538980052 0.015495300816351903 18.027638723909735 -0.30274205748354671 -0.10650068850539712 0.36988959252324538 2021.7258064516132 -178033.49999999997 2803.5000000000005 0.20646199593505582 0.53991926030127202 0.40072770566344834 -13.605056225554105 -0.74383353714843292 0.82841137496515072 0.56783182309028601 0.018441295546558708 -6.9065583359629121 -0.51749286273544548 0.2053486199833732 1.4462809917355386 9.5876722090477831 0.15238095238094809 -0.562193092321014 -0.34465788759163446 1.984842946866189 0.91063664848553494 0.53125000000000033 18.754623083497215 0.73767959291341911 159143.30000000002 0.65247720882678728 0.89970924089898674 6018.6774193548399 0.33155154624113031 3.3290428755111736 0.27250949762144488 0.31250000000000139 6542.9838709677433 189.17592376665158 0.39780510936817864 0.030194600330620328 -1.5025649665225298 0.60637934885782185 0.26760093956323011 3.3690461548914477 35.97779899002343 0.32967494932812857 1.9464204681125648 1.5712894966640967 1705982.9000000001 0.15924340329944428 1.0246103529031785 2.7272727272727226 -0.090577817625407245
decision_type=2 2 2 2 2 2 2 2 2 2 2 2 2 2 2 2 2 2 2 2 2 2 2 2 2 2 2 2 2 2 2 2 2 2 2 2 2 2 2 2 2 2 2 2 2 2 2 2 2 2 2 2 2 2 2 2 2 2 2 2 2 2
left_child=1 9 3 5 26 46 -2 -5 48 11 32 12 -1 15 -15 47 -12 28 19 49 29 22 23 30 -25 -23 55 -24 -7 -20 -21 34 -10 -28 -27 36 39 38 -38 40 -22 -39 43 45 -45 -37 -3 -14 -9 61 58 53 -53 -44 -35 -4 -30 -29 -51 60 -52 -8
right_child=6 2 4 7 -6 17 18 8 10 -11 16 -13 13 14 -16 -17 -18 -19 20 21 35 25 27 24 -26 31 33 57 56 -31 -32 -33 -34 54 -36 42 37 41 -40 -41 -42 -43 51 44 -46 -47 -48 -49 -50 50 59 52 -54 -55 -56 -57 -58 -59 -60 -61 -62 -63
leaf_value=0.0018837725501753531 0.14252033398762282 -0.031146556220178222 -0.031887019554107283 -0.031262745466081543 0.33328790133211422 -0.031120864907342543 0.120269379757657 0.33930213019392147 -0.0066561323044187744 0.31812041585520223 0.2018747663329935 0.0014817020188259023 0.16340012908348148 0.3044395022949985 -0.030531974537827817 0.30062188674104545 0.11644676237716406 -0.031986735071524469 -0.032861127577024328 0.14224173853725164 0.092051328326779799 -0.0078292740386147371 -0.031377735661088681 0.13018353930293106 0.08946026148237439 0.1131779630160905 0.20702585532212703 0.12908685084412233 0.15650398255867137 0.091378725509408218 0.37937931922552509 -0.033100234601162813 0.10560587094198408 0.13671160599228369 0.053665956097926744 0.16862907370456914 0.16569342835853265 0.10280160822352775 -0.031555289383159123 0.11741933864363528 -0.032752813199193306 0.14540698018126522 0.069305011884970527 0.068337152170378904 0.1275339074443835 0.13415705553985366 0.10854550573683244 -0.029122242776971181 0.1130091491586722 0.1742425405273656 0.038644606573471935 0.030982831248853388 0.1207157884883364 0.14223120146423088 -0.031183870147173262 0.17068858675253781 0.37125354822870837 0.10824771178017138 -0.033535549789939598 0.15330641538026332 0.12082475666999086 0.14700978212091434
leaf_weight=135.63708706106991 1936.5343366125599 138.74282541964203 146.33829740062356 44.722877497784793 11.42517906334251 13.905276034027336 863.20771488919854 29.443364847451448 91.613367889076471 11.954905327409504 114.28041086439043 274.43952363636345 56.162157626822591 12.50458929967135 59.482658991590142 39.757786854170263 1516.6280118441209 26.799026462249458 40.642874212935567 227.07006845250726 859.31811520364136 86.10257956571877 29.507269052788615 529.21759580820799 3114.1277623875067 455.58031206764281 27.160644614137709 2226.3256033714861 69.736997291445732 390.95663701090962 10.023806128650902 36.784112247638404 79.714000729843974 25.563807427883148 227.6445254124701 1013.2892516348511 415.13196675665677 992.5303969187662 14.778390602208672 935.40341776795685 69.68051468487829 447.64653156138957 106.62517373822629 264.12479583360255 890.60846369434148 1348.3430468756706 30.8420291217044 16.765438110567629 14.659452305175362 10.027726124972103 92.511624770238996 69.289818938821554 8425.5747937485576 1631.6491343583912 36.181544232182205 10.239936865866182 10.246125966310499 1615.2870514709502 46.933351947925985 166.16207271628082 156.72789773717523 1524.2650760952383
leaf_count=5099 2756 4257 3660 1196 84 219 2080 250 3171 72 1331 10087 500 181 2289 391 17734 441 552 550 7058 951 585 1560 23314 2297 162 9758 218 2126 25 437 606 163 1527 5696 1196 4117 186 1777 983 1114 486 2487 4878 6142 359 662 226 68 826 682 23243 3085 885 112 12 6695 523 292 278 2200
internal_value=0.117448 0.0884399 0.0989013 0.106113 0.0374806 0.0446095 0.12027 0.115524 0.119096 0.0462989 0.115296 0.0403052 0.0734515 0.125707 0.0309873 0.185385 0.122555 0.114143 0.118796 0.112508 0.122797 0.106077 0.109107 0.0990195 0.0954105 0.0768291 0.0224049 0.119191 0.155782 0.0796235 0.153831 0.086954 0.0458687 0.092342 0.0934609 0.123857 0.113148 0.126038 0.158848 0.100156 0.0826619 0.116138 0.126758 0.137574 0.114067 0.149014 -0.0052361 0.119305 0.268324 0.131707 0.102708 0.123027 0.119988 0.137802 0.0393514 -0.0176208 0.188296 0.120356 0.00536615 0.116004 0.0906098 0.137397
internal_weight=34314.6 3044.95 2438.24 2181.33 256.909 290.272 31269.6 1891.06 1846.34 606.704 1802.24 594.749 320.31 184.673 71.9872 112.685 1630.91 120.687 29333.1 11417.5 17915.6 8557.67 7751.56 3880.44 3643.35 806.112 245.484 3871.12 93.8884 431.6 237.094 720.009 171.327 88.906 683.225 17484 3734.49 1870.09 429.91 1864.4 928.999 1440.18 13749.5 3516.37 1154.73 2361.63 169.585 72.9276 44.1028 2859.84 472.363 10233.1 8494.86 1738.27 61.7454 156.578 79.9831 3841.61 56.9611 415.402 249.24 2387.47
internal_count=176897 54367 35086 30020 5066 5506 122530 24514 23318 19281 22842 19209 9122 4023 2470 1553 19065 890 119774 53966 65808 47699 42487 25449 24874 5212 4982 17038 449 2678 575 4261 3777 1210 3824 63130 16431 6613 1382 9818 8041 5231 46699 19203 7365 11838 4616 1162 476 6267 1987 27496 23925 3571 1048 3772 230 16453 591 1396 1104 4280
is_linear=0
shrinkage=0.03


Tree=7
num_leaves=63
num_cat=0
split_feature=27 45 32 42 10 27 15 7 20 20 27 35 9 43 23 15 41 36 49 1 7 4 1 15 15 49 5 17 16 24 22 32 14 43 0 43 21 32 15 45 15 18 40 39 21 31 14 38 31 15 35 40 20 20 38 2 27 5 14 32 18 38
split_gain=1700.91 1816.89 1298.44 1201.18 1077.28 1028.57 1269.07 1036.2 975.069 933.894 1028.49 921.917 1009.55 881.611 877.618 841.714 834.164 822.75 774.744 773.533 817.882 758.119 978.303 756.971 704.6 713.723 699.148 722.947 694.55 684.901 683.283 671.749 1176.65 669.765 663.351 658.662 798.579 644.092 626.526 652.639 625.959 623.293 623.153 616.161 730.462 1013.51 1124.8 603.707 677.013 602.692 601.377 590.363 582.158 1434.88 656.965 624.809 598.399 623.1 641.74 580.208 577.429 569.994
threshold=1.8226047853732006 0.47862105215046397 0.70397681368537834 0.79443034404963353 4.5000000000000009 2.21373776554262 0.25176427926457284 0.90255418258576847 -0.018835468561754949 -0.071904234541005432 1.1202543686158857 20.927010199963366 -46284.999999999993 0.42555969112827069 0.32813906927104203 -0.6904833598177188 -0.29280103639943433 3.99163028129772 0.032980978412450505 0.95550038778773616 0.60327947599064524 60.227272727272812 0.48480899906876246 -1.450697320537488 -0.069406182883940473 0.35528200874679544 -0.10499999999990449 0.38631538576325469 2.5587234061799702 0.12017494838573721 -15.273671836523311 0.74768945187257241 8594.2580645161306 0.90489521989725608 0.49285083049779188 0.73281433014257458 6.4307396232928893 0.91055311667864114 0.63320981952974942 0.48256593303821943 -0.86348804797150114 -2.2605153263526212 0.18023973585989092 847.72055889836918 13.028981734153264 3.2465119648730525 2572.1478494623657 0.26257436779569487 3.3211713864129044 -0.36349990511610114 118.35202667933127 0.39346316611200133 -0.68326965997073563 -0.47188652166980083 -0.55380947982949813 1.343063531341796 1.8624437910238967 -2.220000000000018 1324.2096774193551 0.5048714873563207 -4.0593229128809254 -0.089006561425947359
decision_type=2 2 2 2 2 2 2 2 2 2 2 2 2 2 2 2 2 2 2 2 2 2 2 2 2 2 2 2 2 2 2 2 2 2 2 2 2 2 2 2 2 2 2 2 2 2 2 2 2 2 2 2 2 2 2 2 2 2 2 2 2 2
left_child=1 2 3 17 23 6 7 18 30 19 16 40 14 15 33 -14 51 29 -6 20 -4 35 -23 -2 -22 -26 59 -28 -7 47 -5 32 41 -13 -19 36 -15 -30 39 -17 -3 -12 -34 -42 45 46 -45 48 -1 -37 -35 -11 -25 54 -54 -56 -55 58 -58 -10 -59 -33
right_child=4 11 9 8 5 28 -8 -9 26 10 31 12 13 21 -16 38 -18 34 -20 -21 24 22 -24 52 25 -27 27 -29 37 -31 -32 61 42 50 -36 49 -38 -39 -40 -41 43 -43 -44 44 -46 -47 -48 -49 -50 -51 -52 -53 53 56 55 -57 57 60 -60 -61 -62 -63
leaf_value=0.043813985731117243 0.03672586314738794 -0.032877580486047588 0.013106304661813926 0.18879576286143276 0.16563854236584391 0.10594622315608454 0.10856798296848569 0.08316402368511841 0.15996884902959368 0.064649429195478156 0.047703676532018569 0.055903341519906911 0.18987464476414928 0.17682810606100832 -0.032904516534295825 0.2005988304381526 -0.030915674699113542 0.12180450235753937 -0.016550868232937783 0.16034351690919665 0.00022617904970939013 -0.033363852454244822 0.11616210250104653 0.12136178222067528 0.0098390182386050087 0.13454900611458512 0.21868950763719533 -0.029923628729095125 0.024418139262399049 -0.012338830954936899 -0.0052354447155494284 0.13678106562618708 0.16498227579485172 0.079706772739968554 -0.031349378541689517 -0.031894191652814187 0.028476791408155636 0.12465981037819709 0.13971359599407235 0.018527898557500887 0.1109314724136629 0.2012800917845109 -0.031350626942399547 -0.019588906410195412 0.14494566878663015 0.10382557497167363 0.068944535095342652 -0.005202236277657913 0.11890253625901347 0.12790642789546058 0.22213598962084938 0.28930253195228911 0.0051151314282257346 0.14350134109488971 -0.0023359842381076683 0.089945467205139504 0.11416317142198835 0.12312345944886142 0.080173660474749608 0.012034906237086192 0.10907594151839818 0.074538017337131474
leaf_weight=590.96273823268712 124.49296187795699 36.421507828868926 247.80787111632526 19.300042785704136 21.779151238501072 3141.601244638674 359.67438322119415 225.86571146734059 45.436589882709086 45.639885382726789 27.266872300766408 199.15953170601279 49.436861067079008 553.94504410307854 63.377115954644978 18.354194138199091 75.600062339566648 173.20484176184982 268.90448708180338 68.742237978614867 68.372030164115131 40.346707405522466 1140.7696043020114 4342.7251680269837 52.28357916045934 199.63100949954242 106.31738918833435 11.39965157676488 187.54355418868363 228.92223964165896 83.218791683204472 250.80146088544279 21.702315391041338 57.671332366764545 29.350871938280761 21.732432564720511 35.200408756732941 82.826318673789501 63.377997765317559 214.46072413399816 908.6528204837814 239.09111744072288 39.777514298446476 166.7044798117131 135.93758547306061 515.32936608605087 565.8958678599447 169.23475529812276 132.17609050776809 524.47815574612468 51.84152608551085 13.082434169016777 111.19181052874774 505.39599064923823 71.689523660577834 819.47268308047205 872.49184785503894 3422.0512902708724 1213.8680399376899 49.541767310351133 12794.187072552741 291.59257475007325
leaf_count=13403 883 553 5648 25 103 10420 1774 905 180 1051 433 2155 146 1929 956 46 2601 1902 3814 376 1540 473 3772 8653 999 1662 430 206 1326 5992 1780 2307 58 337 635 316 295 106 180 2425 4552 1571 929 2958 227 2160 5546 4348 1111 1954 98 23 862 2316 854 2754 3527 6638 4568 983 42369 3754
internal_value=0.104917 0.0932104 0.0755662 0.0566109 0.108456 0.0945033 0.0653581 0.0351136 0.109196 0.0944468 0.1125 0.103986 0.114937 0.121422 0.0683255 0.0763195 0.0348884 0.0440148 -0.00236917 0.0658324 0.0541292 0.128114 0.111028 0.110916 0.0857199 0.108819 0.145711 0.194539 0.101966 0.0338998 0.0327345 0.124423 0.158571 0.089159 0.0995524 0.145774 0.168033 0.0554839 0.0567811 0.033691 0.0896751 0.185807 0.039438 0.0916369 0.0788949 0.0715872 0.0487953 0.0457654 0.0576881 0.121496 0.148557 0.118755 0.111297 0.109085 0.0739538 0.0825242 0.110953 0.110046 0.094437 0.0837655 0.112048 0.103523
internal_weight=37209.3 8643.55 3280.46 1639.07 28565.8 4288.19 876.224 516.549 315.214 1641.39 1004.55 5363.09 3034.15 2662.1 372.05 345.63 134.322 1323.85 290.684 636.837 568.094 2316.47 1181.12 24277.6 320.287 251.915 212.695 117.717 3411.97 1121.3 102.519 870.232 327.838 308.672 202.556 1135.36 589.145 270.37 296.193 232.815 2328.94 266.358 61.4798 2292.52 1383.87 1247.93 732.6 892.374 723.139 546.211 109.513 58.7223 24153.1 19810.3 1002.35 891.162 18808 18302.6 2086.36 94.9784 16216.2 542.394
internal_count=176897 85025 53947 30995 91872 18448 6596 4822 3604 22952 12727 31078 15082 11536 3546 2797 3675 27391 3917 10225 9849 8739 4245 73424 4201 2661 1799 636 11852 24854 1805 9052 2991 2590 2537 4494 2224 1432 2651 2471 15996 2004 987 15443 10891 10664 8504 18862 14514 2270 435 1074 72541 63888 4470 3608 59418 57102 8095 1163 49007 6061
is_linear=0
shrinkage=0.03


Tree=8
num_leaves=63
num_cat=0
split_feature=25 2 20 16 31 35 16 32 15 31 9 1 41 27 24 45 32 28 46 25 41 25 16 9 20 33 10 31 27 49 16 24 29 15 35 25 24 29 5 14 33 9 22 2 32 29 9 1 31 48 3 25 5 9 39 27 33 15 25 20 0 38
split_gain=2230.27 1111.02 1293.05 1451.34 981.542 1368.25 884.424 1017.34 889.669 828.93 806.305 768.662 877.702 763.357 745.296 1121.83 914.606 1246.84 825.065 752.2 743.286 730.124 701.888 745.136 684.548 652.732 687.394 700.341 640.049 701.377 705.682 638.161 634.788 621.778 756.223 696.295 633.91 611.017 593.327 582.095 578.091 788.865 559.406 897.73 552.423 551.822 549.5 548.182 540.244 538.048 620.257 531.964 615.109 572.272 525.902 505.717 805.623 805.037 580.237 490.55 471.169 453.843
threshold=1.8998556605967554 1.6447368421052635 -0.018835468561754949 -0.88538304456189199 3.0546039169833437 19.038125566374237 2.3217723501606953 0.69354780114116188 -0.43630323906502028 4.4754049321616494 97272.000000000015 1.0000000180025095e-35 0.081399725192537159 0.86844722048863676 -0.32110786272818298 0.1868276460381724 0.86870351361118769 0.39164549954807076 0.15220244208604364 2.1547997923939328 -0.18671760307291865 2.9273406308277963 -0.42482949120794516 -31817.999999999996 -0.058169149374354474 811770.20000000007 4.5000000000000009 0.9264540022249802 2.1665541374447437 0.94151232305461907 -3.0797535783292562 -0.46462456472762342 -0.50487081653360144 0.25176427926457284 118.35202667933127 3.0915958497425255 -0.70153720668626196 0.98684210526316074 5.85749999999996 108.48387096774195 8728366.5000000019 50825.500000000007 -8.5113879534122052 0.90235870933163753 0.82380733425386654 -1.1053389330582257 -8577.4999999999982 0.39465923146649184 5.6962025316455716 0.99729363509851321 -0.25212638355107136 3.1478841371803283 0.40499999999998132 -46284.999999999993 17879.904032258066 3.2579924765078672 1641354.5000000002 -0.74383353714843292 1.9266495140939162 0.90735970226150064 0.81929904415111776 -0.33193072683505292
decision_type=2 2 2 2 2 2 2 2 2 2 2 2 2 2 2 2 2 2 2 2 2 2 2 2 2 2 2 2 2 2 2 2 2 2 2 2 2 2 2 2 2 2 2 2 2 2 2 2 2 2 2 2 2 2 2 2 2 2 2 2 2 2
left_child=25 2 4 40 5 28 8 11 9 44 13 12 -8 -6 15 37 17 -16 -17 -18 21 -15 23 -10 -22 32 -27 -28 42 30 -30 -24 60 34 39 36 -36 -7 46 -3 41 51 43 -2 -5 -29 -34 -43 54 50 -12 52 -4 -53 -38 56 58 -58 -41 -9 -1 -48
right_child=1 33 3 6 10 14 7 59 22 -11 49 -13 -14 20 16 18 19 -19 -20 -21 24 -23 31 -25 -26 26 27 45 29 -31 -32 -33 38 -35 35 -37 48 -39 -40 55 -42 47 -44 -45 -46 -47 61 -49 -50 -51 -52 53 -54 -55 -56 -57 57 -59 -60 -61 -62 -63
leaf_value=-0.031087644879654628 0.28666938765626704 -0.032719890658073306 -0.031820690541330778 -0.032074251235153707 0.27072500270938382 -0.012506946058111713 0.026567677120383566 0.106408279912481 -0.031542285954479297 0.13040758926176563 0.091452088065758066 -0.033161483415123358 0.16614775106915672 -0.009393512801613187 0.09176745343856868 0.021942452539016409 0.30171051660358911 0.019635990050237934 0.12507651171286649 0.098945455084107681 0.11024853617083687 0.080137856897142853 0.081136049122401965 0.15969677835864193 -0.032681248098661464 -0.012936352774978089 0.20688519342656853 0.14075027610552696 0.19138471177012215 0.19901293093400763 -0.0062399954475478182 0.11296100429345023 -0.029951258346193266 0.10528452499706924 0.019716397202170523 0.10132294134993092 0.18846057680941392 0.15324219164445121 -0.031266660209079838 0.2396740618757596 -0.032809759306279176 0.15829348889699718 -0.023697667277305195 -0.029926289321667583 0.11192957705166517 -0.030629866360167242 -0.029357023069709224 -0.031136484083937835 -0.032559064385807288 0.16486266051115128 -0.034320592095887767 0.13573524650478286 0.073169420177757363 0.046488876284323015 0.12670143822046781 0.10236887600974863 -0.011254965564471647 0.077826761070126135 0.093406699961321338 -0.032033885112807421 0.10421208658419812 0.12581874273343616
leaf_weight=80.89072628878057 13.222360230982305 33.070878128521144 123.08870747685432 101.58142836764455 21.349056281149387 112.64182444103062 147.63926855195314 479.10168553236872 18.975270186550915 67.242330729961395 52.320493780076504 109.33186087012291 55.203250395134091 95.50219504442066 338.9593790601939 80.567109430208802 19.314690554514527 592.40562437940389 550.1077374657616 100.19648062158376 1224.9057283718139 567.07368836924434 719.54565597046167 359.38237819634378 30.471671646460891 247.05051090661436 27.235046714544296 25.132983671501279 19.128755487501621 28.105718050152063 84.214916081167758 2945.0835607144982 25.104548458941281 9376.4009496551007 40.870467587374151 4883.6640633288771 190.9681603340432 23.305888941511512 32.302974455989897 23.926264655776322 59.657826044596732 103.91664465516806 277.51312017161399 18.184334423393011 30.28749892115593 47.102145644836128 17.775673430413008 15.450577972456811 15.126138266175984 21.637778773903847 103.36396910622716 91.245594039559364 83.381941084749997 223.49644099362195 401.44337510783225 3481.7066055927426 94.379510703496635 2554.4594678161666 7854.4915958233178 23.734541688114405 31.302862449549139 253.76861672103405
leaf_count=2711 85 432 2903 2165 29 2246 1659 2985 313 215 195 1595 176 1519 2554 992 64 8306 3399 613 5771 3098 5531 1703 369 9144 191 361 45 54 1161 18114 938 18739 378 9459 495 156 763 128 918 276 6940 473 301 1825 677 237 144 15 1055 244 947 1989 1273 5646 924 9850 27453 352 215 3389
internal_value=0.0948653 0.0958731 0.0872792 0.0966442 0.0749339 0.061113 0.102256 0.0734338 0.107774 0.0455301 0.0896398 0.0307441 0.0651976 0.0952398 0.072604 0.0951337 0.0560906 0.0459609 0.111962 0.133972 0.0931448 0.0672338 0.110826 0.15004 0.106754 0.0447963 0.0139111 0.0800862 0.0136233 0.0688037 0.0317949 0.106737 0.0689635 0.0988775 0.0958031 0.105259 0.134695 0.0167975 0.0899263 0.0920704 0.0560272 0.0643436 -0.00999327 0.108002 0.00157128 0.0300657 0.103194 0.133694 0.14238 0.0281881 0.00824228 0.0482297 0.0107128 0.0727194 0.146899 0.0923676 0.0890501 0.0746486 0.0938816 0.0998171 0.00722266 0.115579
internal_weight=39870 39082.3 10131.8 5757.35 4374.49 2257.87 5057.11 815.011 4242.1 199.111 2116.62 312.174 202.843 1939.3 1817.5 766.623 1050.88 931.365 630.675 119.511 1917.95 662.576 4042.99 378.358 1255.38 787.666 346.521 99.4702 440.369 131.449 103.344 3664.63 441.145 28950.5 19574.1 5532.07 648.408 135.948 328.952 14042 700.238 640.58 308.92 31.4067 131.869 72.2351 296.649 119.367 607.538 177.322 155.684 521.213 206.471 314.742 592.412 14009 10527.3 2648.84 7878.42 502.836 112.194 271.544
internal_count=176897 156683 81762 42623 39139 27088 35109 6767 28342 2681 12051 3430 1835 10786 18330 6793 11537 10860 4391 677 10757 4617 25661 2016 6140 20214 11521 2377 8758 1260 1206 23645 8693 74921 56182 11749 2290 2402 5767 44433 7514 6596 7498 558 2466 2186 5004 513 1912 1265 1250 6083 3850 2233 1768 44001 38355 10774 27581 3337 2926 4066
is_linear=0
shrinkage=0.03


Tree=9
num_leaves=63
num_cat=0
split_feature=25 36 15 18 47 7 25 20 24 18 24 38 9 2 31 35 14 4 29 35 26 45 11 33 3 38 49 8 38 32 20 15 6 7 27 35 45 45 22 18 41 9 20 0 32 5 45 36 32 49 2 29 9 20 32 6 48 33 35 7 6 29
split_gain=2021.32 957.966 1091.1 910.43 817.484 835.21 869.105 830.913 734.569 1007.69 852.08 767.053 987.268 671.072 637.203 625.093 847.208 1007.85 699.414 698.098 671.83 644.35 622.289 647.612 617.395 577.161 715.674 637.397 574.424 768.843 632.523 489.499 479.363 458.264 452.858 446.21 440.715 523.45 438.461 435.986 431.198 392.172 377.165 376.381 359.119 349.639 341.876 341.803 335.045 324.283 905.471 376.341 501.264 440.545 319.019 538.852 409.989 400.995 458.885 388.726 646.728 361.501
threshold=2.5292248781776308 -0.64088288401434446 -0.37079117795499322 1.7114180468446318 0.086957252318860076 0.71982259754826494 4.6265922676169877 1.6476544716551262 0.31137876172358508 -2.8778958315693108 -0.61963417627336959 0.3393882811553996 15693.000000000002 1.0351347229222643 1.6603227437213957 43.082950881981503 2621.0161290322585 50.55231671355461 -4.602938481311238 37.287360227423115 2.3513035351718758 0.73026256491322961 2.6016867617406247 1581438.8 1.1972168135906012 -0.34702846467317311 0.68932207579526328 0.80291787385707203 -0.12879604286296698 0.59663066382038776 0.037044997896333941 -0.34594268955702351 0.85935782967032781 0.63517281246588964 0.71927202490488862 444.03571029703579 0.19076033792796801 0.28187096411023466 17.18317681250652 -4.1426803968382568 -0.93261336890414981 -3307158.9999999995 -0.68326965997073563 4.1448024095191469 0.69880364315693899 0.18000000000000152 0.61601104972375709 6.4496514462750545 0.76112601159279902 0.95753338192529369 1.891877365917995 0.094562650102996651 23052.000000000004 -0.70049805322309211 0.56668274727988099 0.63115405666032587 0.77593332414933192 395079.40000000008 5.5797635399277494 0.93424338847516364 0.16666666666665916 1.4794679536758066
decision_type=2 2 2 2 2 2 2 2 2 2 2 2 2 2 2 2 2 2 2 2 2 2 2 2 2 2 2 2 2 2 2 2 2 2 2 2 2 2 2 2 2 2 2 2 2 2 2 2 2 2 2 2 2 2 2 2 2 2 2 2 2 2
left_child=1 3 -3 13 36 6 7 15 9 10 33 28 34 41 -15 19 17 -17 -18 20 -6 -21 23 44 -12 32 31 45 29 -11 -30 -27 -10 -4 -13 -25 -2 39 -29 -38 54 -1 -8 -5 -16 -28 -14 -44 -35 -42 -51 53 -53 -52 55 56 -7 58 61 60 -59 -56
right_child=4 2 8 43 5 40 42 -9 25 11 24 12 46 14 22 16 18 -19 -20 21 -22 -23 -24 35 -26 26 27 38 30 -31 -32 -33 -34 48 -36 -37 37 -39 -40 -41 49 -43 47 -45 -46 -47 -48 -49 -50 50 51 52 -54 -55 57 -57 -58 59 -60 -61 -62 -63
leaf_value=0.1482617551051422 -0.03222855337982785 -0.01414286621553232 -0.030516212122723589 -0.032340128185663473 0.08201560586418187 -0.036439283290970806 0.10507502774561099 -0.033497285919034558 0.04519405205612894 -0.0079937348203841067 -0.031793143720157971 0.16466591877062539 0.016460383282448809 -0.030848931625464652 0.055590612009882509 0.12289712580472514 -0.036422446763599264 0.07936362860589477 0.079533517642966858 -0.0026183305348216807 0.056980915273888551 0.077123826325992531 0.27357956759739666 -0.031618244289170434 0.11918678442087441 0.17419284695063492 0.14714573052732391 -0.032532454241529306 0.085575863287441739 0.084157642340620786 0.12429491292065674 -0.03208712625687167 0.18098688030130536 0.1278035267570945 -0.031634162532719917 0.17364807277022243 0.27518103489048051 0.10517861233721014 0.17371279759066222 0.1345075142762934 0.096044500464590177 -0.030750532046856682 0.08858203573281187 0.13200599230286703 0.11745807466881536 -0.029806435595583446 0.11015257178651228 -0.034972540622677552 -0.030244852526641282 -0.033915944295392818 -0.036120340612586767 -0.036103957660499661 0.072999311467399922 0.10241863028362232 -0.035132089016745964 0.13257444096363388 0.086658217372187235 0.074745195732828465 0.10987469701106578 0.084280909658799419 -0.0036515146738116387 0.086401290967806396
leaf_weight=11.36262798309326 19.656428582966328 122.11649473477155 24.390043460763991 173.64159572124481 3047.157281097956 73.919441545382142 1568.6029472947121 58.685774727724493 55.182975474745035 91.973488299176097 161.07165490370244 10.526937205344437 46.070100583136082 50.151931293308735 148.34681107942015 995.76646423526108 46.666241362690926 941.38937967270613 5267.7106950758025 215.15764517523348 1430.8280170876533 157.12610595673323 13.813308682292698 68.30457160808146 27.693320520222187 10.032587524503468 72.860813495703042 57.725332614034414 768.77257328480482 698.60149738006294 779.35765664931387 168.81943861581385 40.941877060569823 108.91906481795013 127.9201429169625 10.050687635317443 28.314057771116495 1879.5293161720037 10.017400035634635 78.250592792406678 13189.011256365106 100.13848886732012 5293.0127364471555 12.524787308648227 206.14819230698049 11.249160611070691 152.08736244216561 19.705756179988384 13.143972076475618 60.089264921844006 20.816505815833807 42.680218197405338 301.27012964710593 669.47694057412446 36.357837909832597 38.834226541221142 35.075795136392117 319.31665249168873 700.98478738777339 1243.2707424797118 134.22796986065805 53.139211259782314
leaf_count=1 236 3364 598 4202 20856 584 2071 754 708 2045 4148 90 1063 1678 1755 3697 340 4991 24506 2357 7640 504 42 1771 15 99 265 1124 8607 7273 6576 4079 115 411 3518 77 30 1706 53 123 25798 3961 12205 10 1448 232 364 141 251 630 141 305 640 907 317 18 53 927 1155 2407 823 92
internal_value=0.0866027 0.0671996 0.0738524 0.0373346 0.0888259 0.0877777 0.0834421 0.0785935 0.0769826 0.0822102 0.0330338 0.0883562 0.0457949 0.0550808 0.0699833 0.07914 0.0847424 0.101795 0.0785081 0.0707476 0.0740316 0.0311461 0.0813552 0.0745975 -0.00911603 0.0399982 0.0210318 0.068717 0.0944585 0.0734366 0.105137 -0.0195951 0.10433 0.0870748 -0.015613 -0.00339433 0.107565 0.108965 5.58875e-06 0.174123 0.0926519 -0.0113257 0.0919975 -0.0206211 0.0918058 0.123372 0.0885769 0.0881167 0.110653 0.0947277 0.0787814 0.0853584 0.0593868 0.0981903 0.0813677 0.038146 0.00357519 0.0839189 0.101702 0.0755775 0.0515799 0.037153
internal_weight=42320 4353.96 3559.47 794.483 37966 35960.3 19041.8 12160.5 3437.36 3010.53 335.218 2675.31 336.605 608.317 496.816 12101.8 7251.53 1937.16 5314.38 4850.27 4477.99 372.284 446.664 432.85 188.765 426.83 330.705 151.853 2338.71 790.575 1548.13 178.852 96.1249 146.453 138.447 78.3553 2005.75 1986.09 67.7427 106.565 16918.5 111.501 6881.32 186.166 354.495 84.11 198.157 5312.72 122.063 14283.3 1094.33 1034.24 343.95 690.293 2635.13 147.829 108.995 2487.3 790.482 1696.82 453.545 89.497
internal_count=176897 59943 44998 14945 116954 114859 80062 65645 41634 34959 5423 29536 5035 10733 6771 64891 33534 8688 24846 31357 28496 2861 5093 5051 4163 6675 5852 1674 24501 9318 15183 4178 823 1260 3608 1848 2095 1859 1177 153 34797 3962 14417 4212 3203 497 1427 12346 662 28421 2623 1993 945 1048 6376 655 637 5721 1564 4157 1750 409
is_linear=0
shrinkage=0.03


Tree=10
num_leaves=63
num_cat=0
split_feature=45 31 14 23 27 37 37 36 3 5 46 27 43 38 11 21 45 39 35 33 31 44 30 44 26 11 16 39 32 49 21 33 39 46 26 15 33 4 22 21 47 44 49 4 15 26 4 36 35 30 8 43 16 42 15 35 22 33 22 47 41 33
split_gain=1383.36 1447.26 832.126 1244.61 1137.62 811.369 746.4 786.869 701.734 722.548 664.32 661.797 908.454 688.898 633.068 663.305 623.734 608.991 597.372 661.358 680.468 744.942 704.27 604.901 567.405 555.338 545.561 530.274 550.332 645.004 533.871 518.077 748.894 643.922 512.917 834.734 738.925 778.006 508.266 498.692 495.435 655.892 576.382 566.107 661.917 751.824 602.528 896.071 720.615 565.216 576.019 549.493 490.32 488.251 479.278 463.369 443.723 442.689 432.627 430.739 424.131 421.865
threshold=0.47074838499377708 3.2266973968586732 1412.8548387096778 0.20255408133366745 1.5462981507285736 -0.018835468561754949 -0.51604217374714101 -3.6022577538980052 -0.057966406136382619 0.82649999999999879 0.080668401970809725 1.806877034125915 0.65437224842473496 0.40999050699691048 -10.038667681879934 9.5071587070847805 0.076282732184916657 1443.3958388803551 21.243870076394568 272555.40000000008 4.6797893412861091 0.83421756262313551 -1.127125413456594 0.85355614349077902 1.8536217935137032 1.511569808107539 -0.83831745202431263 106.91354155665434 0.68226548742025728 0.94560759513485604 -5.2844347841216033 1262219.7000000004 31708.286290322587 0.8315067259188087 2.0758373277866755 -0.77704327572041854 2542203.4000000008 39.285714285714405 -9.5144471868995684 -6.0503785744699607 0.34781323877068565 0.31463670411985023 0.068330220654354304 42.133192537838617 0.06653835169075982 2.5392139220542815 53.649889210177683 -0.095187326363526253 37.287360227423115 -0.093752929870618673 0.50588134959753395 0.61127178501274726 -4.7774249479547679 0.67737634408602154 0.043171330115912711 21.895129939539089 11.760461600831372 20345679.700000003 -1.3455757469032044 0.12782303413477616 0.81450453771095543 62354.700000000004
decision_type=2 2 2 2 2 2 2 2 2 2 2 2 2 2 2 2 2 2 2 2 2 2 2 2 2 2 2 2 2 2 2 2 2 2 2 2 2 2 2 2 2 2 2 2 2 2 2 2 2 2 2 2 2 2 2 2 2 2 2 2 2 2
left_child=1 2 5 4 8 11 25 -8 -4 26 -7 12 -1 56 -2 18 39 -5 19 27 21 22 -21 -23 -9 61 -10 -16 30 -30 -29 -19 33 -33 35 57 52 -38 -18 -12 41 51 -43 -42 46 49 47 -45 -49 -46 -51 -3 -37 -40 -14 -36 58 -20 -13 -57 -48 -6
right_child=14 40 3 17 6 10 7 24 9 -11 16 13 54 -15 15 -17 38 31 34 20 -22 23 -24 -25 -26 -27 -28 28 29 -31 -32 32 -34 -35 55 36 37 -39 53 -41 43 42 -44 44 45 -47 60 48 -50 50 -52 -53 -54 -55 -56 59 -58 -59 -60 -61 -62 -63
leaf_value=-0.013072479007217679 0.09604004988534344 -0.034359407159413269 -0.0076607056263871898 0.13143712791742099 0.1521952273461443 -0.032205138686104709 -0.032633904427289591 0.10078300855195725 -0.030956251256663708 -0.03106519310733695 0.14245660969354565 0.040073415379180327 -0.030473838013099053 -0.032780056526109415 0.010352434729688262 0.088043563404558572 -0.031664496614352174 -0.032475438110568078 -0.034454114390644788 -0.0084130071414970468 0.081107591027463857 0.14645636923353689 0.047806959110386571 0.063688481616385226 0.06557058963936381 0.084973454674688767 0.075511866300513764 0.098823804299414841 0.098720586681012398 0.014369664133047844 0.058673741326239461 0.066369796005148682 -0.021927621077749333 -0.032751351237282476 -0.036210397004545203 -0.035135044675578021 0.019595705808406708 0.081491443414603931 0.085218237186857934 -0.007865343815076753 0.10317505407491594 -0.033666700654954473 0.10971626405535538 -0.006206031035883487 -0.034022621101563573 0.077493429857367638 0.095964393110757412 0.13989211366419374 0.042741055939209995 -0.033393089588656534 0.086238207169192782 0.090318474712828584 0.098459158087688459 0.1257811086595147 0.1246359471558932 0.0961064733104528 -0.032469620763895472 0.095912062066025261 0.11645505878000091 0.075516824736660507 -0.033030332311197882 -0.033298718640410757
leaf_weight=237.86484147142619 2863.6834525698796 57.230409972369671 276.77949879970402 39.915703608654439 11.118916511535643 38.556040707975626 53.724706692621112 845.46085911337286 47.578676278702915 82.307624131441116 24.5909881927073 90.962122623808682 22.259019342251122 46.636272238567472 94.639188908971846 9265.0564227811992 25.287649915553629 176.2213203785941 75.294281731359661 252.1628833655268 1100.796669382602 86.114637294784188 971.83591374475509 1017.6792000913993 824.29387877043337 73.926727287471294 429.39452651049942 410.11038476228714 1604.2541695963591 86.436132436618209 1127.1524624861777 336.2502432949841 198.00145705230534 70.804158424027264 31.678746163845062 24.389557842165232 201.63511920720339 2047.3311469266191 621.27519040927291 88.179505612701178 549.3767052302137 25.363611334934831 1109.6916097328067 160.20623838994652 143.85367099568248 274.61420101299882 952.66754447948188 115.55618262197822 171.03630855493248 53.083675127476454 109.94372407719493 69.429693350568414 3931.2147271623835 488.28110180981457 83.856871992349625 1037.9785028249025 24.930809881538153 32.841032641939819 266.78140397276729 8845.6615503784269 23.014696346595883 122.99413792137057
leaf_count=6025 2258 589 7874 217 1 664 830 5963 1502 2505 104 973 578 614 763 14809 430 3589 903 2595 2058 351 7821 3966 5143 376 5783 910 4564 520 5591 4087 3563 1156 227 203 1866 7174 5998 1883 2019 259 3456 1702 1707 883 3633 540 1065 663 515 177 13335 2260 523 859 297 77 1270 22543 248 1840
internal_value=0.0796913 0.0694823 0.0598138 0.0510575 0.06068 0.0750388 0.0733361 0.0798142 0.031385 0.0506926 0.089659 0.0506336 0.019534 0.0754414 0.082441 0.0812302 0.0934502 0.0185898 0.0784792 0.070931 0.0616357 0.0523954 0.0362249 0.0702752 0.0834514 0.0195292 0.0648427 0.0805004 0.0825523 0.094421 0.0694442 0.0126599 0.0258424 0.049083 0.0816147 0.0883448 0.0897848 0.0759546 0.100136 0.0258519 0.0837763 0.0992549 0.106483 0.0760907 0.0686164 0.0415258 0.0796518 0.0505983 0.0822737 0.00918298 0.0473004 0.0341324 0.097626 0.103169 0.0920911 0.0773211 0.0886892 0.00562706 0.097208 0.077689 0.0928879 -0.0168852
internal_weight=44571.2 9463.3 5648.23 3588.77 2767.58 2059.46 1931.52 1723.48 836.06 559.281 1286.17 773.291 343.981 429.311 35107.9 32244.3 1247.61 821.193 22979.2 6751.18 3428.59 2327.79 1224 1103.79 1669.75 208.04 476.973 3322.59 3227.95 1690.69 1537.26 781.277 605.056 407.054 16228 6312.71 6204.57 2248.97 1134.84 112.77 3815.07 1261.72 1135.06 2553.35 2003.98 581.495 1422.48 446.799 286.592 306.881 163.027 126.66 3955.6 1109.56 106.116 9915.32 382.674 108.135 357.744 9883.64 975.682 134.113
internal_count=176897 83504 66048 44429 31817 21619 14153 11936 17664 9790 11339 10280 7126 3154 93393 91135 10675 12612 76326 29139 16791 14733 10416 4317 11106 2217 7285 12348 11585 5084 6501 12395 8806 5243 47187 23558 22578 9040 8688 1987 17456 4481 3715 12975 10956 3768 7188 3307 1605 2885 1178 766 13538 8258 1101 23629 2540 980 2243 23402 3881 1841
is_linear=0
shrinkage=0.03


Tree=11
num_leaves=63
num_cat=0
split_feature=25 7 11 36 15 18 15 43 2 26 11 27 35 7 2 33 26 29 26 2 39 36 38 38 35 36 31 2 7 46 17 36 46 16 43 25 6 35 11 38 18 26 36 26 9 18 0 9 35 0 27 15 6 26 20 22 29 0 43 14 36 35
split_gain=1613.65 748.182 809.653 704.447 867.441 773.918 643.273 599.522 717.432 716.856 981.81 584.023 575.387 846.618 757.186 644.134 878.776 613.718 570.906 534.241 585.904 527.348 566.856 561.768 555.6 691.168 516.705 504.086 455.968 554.057 425.009 420.627 700.552 690.039 518.5 423.172 404.117 401.06 365.267 358.807 341.973 348.814 507.616 372.296 334.342 329.703 323.805 321.515 321.446 306.429 304.455 490.794 462.112 337.79 409.336 392.936 336.944 412.178 298.092 296.666 281.301 366.324
threshold=2.5292248781776308 0.71982259754826494 -5.7189610445169858 -0.64088288401434446 -0.37079117795499322 1.7114180468446318 -0.99390491401852854 0.25946733905917585 0.68361717438234459 1.0168567707720528 0.9378937525568356 2.1140878199237707 18.464026935390244 0.63855273629696541 1.5019993391054987 754751.80000000016 2.4345946273151258 -1.9953377213161338 1.4602906534980373 1.0351347229222643 17879.904032258066 3.2885803029562575 -0.74357965479632104 0.3393882811553996 800.17177468038165 4.0992512264490042 1.6603227437213957 2.7272727272727226 0.25303893147963213 0.24393513372131043 -0.13582606193666549 3.6859414885175177 0.092617822181854895 3.4788339900311764 0.025366411667977411 4.6265922676169877 0.84779459448674044 43.72265700752785 2.6016867617406247 1.6476544716551262 -2.3447617739249238 1.6123288836094882 -4.4874202301205228 1.7242211788862363 -3307158.9999999995 0.2925184171008795 4.1448024095191469 -4059.4999999999995 41.829567818990434 -0.45977011494252651 2.9768024323750448 -0.74383353714843292 0.29069767441860433 2.4486442179518804 0.098519023522746163 -10.769230769230772 -1.6319959610946235 0.73111291632819098 0.16436448277177854 1061997.1129032259 0.049071212204995322 12.288280483887254
decision_type=2 2 2 2 2 2 2 2 2 2 2 2 2 2 2 2 2 2 2 2 2 2 2 2 2 2 2 2 2 2 2 2 2 2 2 2 2 2 2 2 2 2 2 2 2 2 2 2 2 2 2 2 2 2 2 2 2 2 2 2 2 2
left_child=3 2 40 5 59 19 18 9 49 10 -6 12 13 14 -8 16 -14 -17 58 44 26 22 -10 -24 25 -23 -21 -20 29 -11 -12 33 36 37 -34 -35 -33 -13 48 50 41 42 -2 -43 -1 -29 -7 -41 -28 -9 51 52 -3 54 55 -53 -54 -58 -4 -5 -45 -62
right_child=1 39 6 4 7 46 11 8 21 28 30 31 15 -15 -16 17 -18 -19 27 20 -22 24 23 -25 -26 -27 38 45 -30 -31 -32 32 34 35 -36 -37 -38 -39 -40 47 -42 43 -44 60 -46 -47 -48 -49 -50 -51 -52 53 56 -55 -56 -57 57 -59 -60 -61 61 -63
leaf_value=0.12622912064112748 -0.033718487698952436 -0.01313492463848924 0.13488416665387318 -0.031644846088070389 -0.030964323478464759 -0.032429518247461167 0.011732797481255521 0.11532638854147087 -0.031893421902617257 0.13274979933231723 0.13990630930517156 0.063328525767856719 0.084363307474142848 -0.03443241528651371 0.069086255557447004 0.013931313089963905 -0.034712669574897166 0.061939062987104707 -0.034061083670995931 -0.03077066232995241 -0.031590778712755008 -0.0024899091167607415 0.085872400139353114 0.0451824270324147 0.14697941803479508 0.062324543633555274 0.056015222915597955 0.089567316856914603 -0.031524040522661161 -0.030760505087724894 -0.02972903422770308 -0.036156816822309944 -0.034939716907672246 -0.034969726750410338 0.090428222135751482 0.051858746317783776 0.089651118912781949 0.076150876551876384 0.21153851522395425 -0.036354758977217211 0.034929064746375492 -0.034045817586699584 0.13161148454490842 0.088838935395163632 -0.030755546063329548 -0.036330592452634293 0.11215021881792654 0.062961916547725094 0.11215757972028627 -0.030786640415691711 0.085781154845403718 0.09647283314091705 0.086425902711813496 0.071457659119733452 0.089438703526929883 0.072588598771353277 -0.035618089572259148 0.077445100032445327 -0.030328361836120862 0.10901396546942052 -0.035418460767768542 0.07161920842056077
leaf_weight=12.903918266296385 17.539567925035954 94.22199496999383 51.314487105235457 111.29709240514785 54.297628710046411 174.78816398605704 301.54426556825638 14.149719198234378 40.847849578596652 39.671694758348167 113.90394678153098 3284.1619278416038 1718.4126510955393 115.5733149908483 665.21990133076906 268.71983414888382 57.101224131882191 2280.7853435203433 135.42340956442058 41.000347764231265 55.820520509965718 213.78443720191717 2150.1551780542359 360.5505843795836 48.190118129365146 479.57681016903371 294.86707203276455 68.780938634648919 162.15601484198123 33.8309923466295 14.642501148395239 65.581587692722678 29.581462875008583 84.07672518119216 2173.7464006058872 123.50003638491035 34.090853396803141 6938.0657167453319 17.489265341311693 43.148566855117679 122.84681638516486 23.495550834573805 239.84280218183994 2701.6297708731145 99.410191054455936 24.912895314395428 14.160285897552965 87.081657141447067 136.03520780801773 86.758267562836409 6324.3543801568449 742.94172057323158 195.31455767154694 4047.8466368410736 3845.6457319781184 4151.6898206304759 56.816418720409274 57.364395298063755 11.667821419425307 14.346852939575909 29.500919997692108 647.82744207046926
leaf_count=1 167 696 58 3362 1672 4202 4200 124 876 313 494 12857 7915 1219 3642 1876 525 13518 1641 1318 1494 3288 17508 4237 110 4047 3157 83 4378 917 409 522 249 788 5095 395 44 19605 29 343 598 240 477 3726 3961 165 10 219 773 3261 5882 983 319 7130 7791 11429 487 124 187 2 256 1503
internal_value=0.0738035 0.0756922 0.0719014 0.0572658 0.0626066 0.0323701 0.0692934 0.0651625 0.0693432 0.0311652 0.0755667 0.070005 0.0617001 0.0420575 0.0512308 0.0666041 0.0805147 0.0568876 0.0250022 0.0477328 0.0599884 0.0717572 0.0782455 0.0800506 0.0493526 0.0423611 0.0704832 0.00285042 -0.0034463 0.0580481 0.12048 0.0735266 0.0852107 0.0709384 0.0887286 0.0166764 0.00730643 0.0720382 0.0797963 0.0799745 0.0845873 0.0862433 0.120246 0.0836356 -0.0117381 0.0560296 -0.0210452 0.0300067 0.0739649 -0.00933803 0.0803063 0.077675 0.0449046 0.0787057 0.0820536 0.0762335 0.062569 0.021338 0.104235 -0.0148258 0.0844646 0.0669074
internal_weight=46646 41861.4 22214.9 4784.63 3938.16 846.475 18432.3 3812.52 3394.01 418.503 182.844 18140.2 5407.36 1082.34 966.764 4325.02 1775.51 2549.51 292.1 657.527 545.212 3293.1 2551.55 2510.71 741.551 693.361 489.392 229.117 235.659 73.5027 128.546 12732.8 2303 10429.8 2203.33 207.577 99.6724 10222.2 448.392 19646.4 3782.68 3659.84 257.382 3402.45 112.314 93.6938 188.948 130.23 430.902 100.908 19516.2 13191.8 403.717 12788.1 8740.28 4894.63 309.495 114.181 62.9823 125.644 3378.96 677.328
internal_count=176897 116954 81551 59943 44998 14945 74584 41634 33451 8183 2575 72450 32895 9061 7842 23834 8440 15394 2134 10733 6771 30066 22621 21745 7445 7335 5277 1889 5608 1230 903 39555 5910 33645 5344 1183 566 32462 3959 35403 6967 6369 644 5725 3962 248 4212 562 3930 3385 34841 28959 1626 27333 20203 12412 930 611 245 3364 5485 1759
is_linear=0
shrinkage=0.03


Tree=12
num_leaves=63
num_cat=0
split_feature=25 16 11 33 36 22 7 25 26 3 38 36 25 27 30 36 28 35 45 30 38 49 26 26 25 26 9 26 33 35 26 9 20 7 7 20 25 27 0 45 31 28 22 28 27 41 22 10 36 20 30 11 0 22 22 14 25 23 10 3 3 3
split_gain=1441.88 881.432 894.104 720.101 678.424 670.063 708.289 656.864 698.673 827.104 785.249 1092.47 633.421 576.194 786.559 617.248 604.699 768.761 677.407 456.314 442.659 617.636 578.402 447.892 706.978 574.751 437.823 430.317 513.898 713.751 527.636 447.905 434.174 408.055 421.108 406.808 403.008 411.445 400.942 391.403 388.392 382.976 380.491 804.903 726.484 408.377 387.884 375.435 589.135 382.783 359.014 341.905 339.449 328.939 323.103 310.089 309.582 300.914 295.856 753.686 288.631 367.013
threshold=2.6148267634119593 -0.95344238431239459 -3.2825948347062242 72226.400000000009 -2.1836191283134996 -17.706728124541588 0.71982259754826494 1.8998556605967554 1.1005187643711276 0.11564129024992843 -0.29775673721961315 2.2840368730831391 2.5828858789511067 3.2948960553283495 -0.96524580348109634 3.8173318506744063 0.40904723902812318 11.848628685131528 0.42341087605711564 -0.81300813008130646 0.53057501386927186 0.55972423073056443 1.8269005386231136 1.8717970972439122 3.1478841371803283 1.2766343284513155 -26606.499999999996 1.1257556094655607 811770.20000000007 13.4566827805505 0.86642382950139363 -178033.49999999997 -0.3440323028959491 0.28427033278327068 0.29589339877107296 0.0028082025252596766 3.5090460249896962 3.5503720589243577 0.43575057364594449 0.14733860146115998 2.4199553314744491 1.2750903556200075 1.1361919874637407 0.51386790541069616 2.1578678697374305 2.2204511895200034 -0.81087930302325184 4.5000000000000009 2.538152356263681 -0.81929281852920843 0.21244144494435471 -1.0714285714285696 0.38535645472061936 5.6006934431554187 4.4490018579865014 11803.35483870968 2.5399715398416296 -0.28772445169994337 4.5000000000000009 0.24315474035331125 0.022343597589885956 0.0071431557476903619
decision_type=2 2 2 2 2 2 2 2 2 2 2 2 2 2 2 2 2 2 2 2 2 2 2 2 2 2 2 2 2 2 2 2 2 2 2 2 2 2 2 2 2 2 2 2 2 2 2 2 2 2 2 2 2 2 2 2 2 2 2 2 2 2
left_child=1 2 38 50 -3 -2 13 27 41 10 26 -12 19 14 20 16 17 -16 -18 -11 23 22 -22 25 -25 -7 -10 28 29 54 -31 32 -30 -17 -35 -29 37 -15 40 -38 -1 51 43 44 45 -8 57 -45 49 -49 -4 -9 -23 -37 -6 -53 -42 -46 -41 -60 61 -44
right_child=5 4 3 -5 7 6 42 8 9 12 11 -13 -14 36 15 33 18 -19 -20 -21 21 52 -24 24 -26 -27 -28 35 31 30 -32 -33 -34 34 -36 53 39 -39 -40 58 56 -43 60 47 46 -47 -48 48 -50 -51 -52 55 -54 -55 -56 -57 -58 -59 59 -61 -62 -63
leaf_value=0.0043776631655048984 0.083839079288533888 -0.013380760953752764 -0.031166151116978014 -0.02075787973699748 -0.031502334567602444 0.028335314508104711 -0.03593309779093648 0.049753925812586482 0.11741976760838937 0.045032234599797688 0.049997430292180699 -0.015292162639914423 -0.035021299244302868 0.019644180053592423 0.010082194077975646 0.012997534249286862 0.030252046250977899 0.072634541068430369 0.054519510465443552 0.085520796251797426 -0.034173159200186327 -0.035997933682619242 0.075535849231992969 0.021851038729137712 0.071670218026511467 0.092439258621785828 0.052105292084692383 0.004967699586373461 0.16573168319991724 0.11559760424142979 -0.030507320634926678 -0.031267408737445816 -0.029285927334053767 0.1490381482699093 0.074549517695285492 0.11320042188774809 -0.034288906371880798 0.12482472836256986 -0.031958771837710988 0.075732797845866839 0.099058182537011402 -0.032987055089434544 0.071876393047456369 0.074751101608187723 0.077295912407114795 0.071730294560453961 -0.037563497485415175 -0.035725142379497546 -0.037359817512227646 0.06546180170014998 0.097312482673957673 0.1017196180809584 0.040176623589822144 -0.029932511190424897 0.049033537549817909 0.065638364027317958 -0.032813404494447085 0.020364530168033371 0.065148264372099488 -0.03805720364224021 0.080675604191379841 -0.037106207620008401
leaf_weight=59.00616002548486 3239.8345049358904 112.07688827160746 25.026076013222337 367.46188063174486 99.3616265039891 138.77021484822035 149.29264114610851 206.35519099794328 146.45302166137844 327.78799650259316 638.06056013517082 360.23178144264966 46.830040082335472 39.551368596032262 194.75444674119353 91.972936358302832 1405.7091344473884 1970.8848733529449 3983.7848455347121 1122.6001319075003 46.796058509498835 96.100826479494572 492.83103323914111 275.89779135398567 3869.4424350336194 1497.7894949987531 256.9946471536532 58.430686611682177 21.689152515493333 133.49691030476242 26.179990240372717 192.12512163072824 18.264339813962579 72.176371082663536 1380.7052404526621 135.61656372621655 30.221615456044674 235.60312603786588 35.479381242766976 4489.207318091765 231.94279567990452 24.40881350170821 5034.2600307520479 4416.1295665930957 344.02077728137374 39.199494816362858 36.318643782287836 35.149385176599026 61.854626201093197 558.76097291707993 82.153646684251726 829.59852772578597 114.00762425549328 15.710897892713545 80.029480844736099 300.70967658981681 16.706691114231944 111.6321923583746 580.10415522567928 70.82676687091589 7450.1586421411484 27.36111181974411
leaf_count=1311 3326 2650 586 8687 2847 985 1318 1942 957 2251 7584 5780 453 247 1632 703 11183 8225 16149 5807 513 841 1324 2300 11354 5595 2617 1421 132 1072 757 6561 718 103 4369 1146 268 366 732 7179 1222 331 9470 8359 600 52 236 291 440 1545 308 4550 487 419 1123 1360 195 435 1397 442 9463 181
internal_value=0.0687319 0.0548982 0.025913 -0.000773129 0.0594916 0.0706703 0.0695836 0.0611147 0.0657561 0.0573844 0.0407682 0.0264431 0.0729014 0.0658193 0.0628751 0.0571524 0.0536007 0.0670179 0.0481973 0.0764098 0.0708376 0.0490063 0.0659708 0.073659 0.0683612 0.0870261 0.0760538 0.0357391 0.0221647 0.0456581 0.0915834 -0.012195 0.0779698 0.074474 0.078352 0.0724057 0.0742573 0.109843 0.0627304 0.0723421 0.073728 0.0835297 0.0739237 0.0674792 0.0367497 -0.0132668 0.055907 0.0715934 0.0502421 0.0594182 0.0672747 0.0856827 0.0053157 0.0982216 0.00448213 0.0921896 0.0900898 0.0634298 0.0729761 0.0538729 0.0768807 0.0712795
internal_weight=48551.9 5970.79 817.777 474.642 5153.01 42581.1 39341.3 5040.94 4260.03 2898.96 1401.74 998.292 1497.22 21077.1 15631.6 9099.99 7555.13 2165.64 5389.49 1450.39 6531.64 749.736 539.627 5781.9 4145.34 1636.56 403.448 780.905 571.147 339.068 159.677 232.079 39.9535 1544.85 1452.88 209.758 5445.51 275.154 343.135 5170.36 307.656 1361.07 18264.1 5752.36 680.464 188.492 491.972 5071.89 655.765 593.91 107.18 1336.66 210.108 151.327 179.391 1130.31 248.649 455.653 5140.14 650.931 12511.8 5061.62
internal_count=176897 65519 13041 9581 52478 111378 108052 49828 33632 25449 16938 13364 8511 75662 65763 42364 37189 9857 27332 8058 23399 3165 1837 20234 13654 6580 3574 16196 13210 5799 1829 7411 850 5175 4472 2986 9899 613 3460 9286 2728 8183 32390 13276 2641 1370 1271 10635 2276 1836 894 7852 1328 1565 3970 5910 1417 1035 9018 1839 19114 9651
is_linear=0
shrinkage=0.03


Tree=13
num_leaves=63
num_cat=0
split_feature=2 25 20 16 47 38 2 15 22 16 38 15 5 16 35 27 16 16 42 43 28 41 38 41 35 4 27 10 7 11 35 35 43 22 31 16 1 36 9 36 1 46 43 5 35 27 25 28 31 10 15 8 6 46 11 46 28 3 42 43 24 2
split_gain=1363.84 881.294 713.79 770.736 591.146 549.399 545.099 514.728 503.81 494.3 852.503 581.348 797.404 607.424 498.175 483.108 478.522 573.23 583.472 473.723 597.595 708.374 612.386 806.587 572.967 531.234 467.573 450.063 448.559 516.214 706.06 485.633 438.555 411.327 574.745 388.654 442.448 403.398 383.922 380.245 364.518 360.821 353.925 553.558 370.287 347.836 538.447 347.688 614.979 367.509 346.184 321.211 320.747 312.353 296.57 285.494 390.981 397.693 280.824 269.879 248.856 417.025
threshold=1.6447368421052635 2.3143545550505271 -0.018835468561754949 -3.2126410246099044 0.089769040991447849 0.33500867543722568 1.6189658860636857 -0.94438456544848159 16.444898422426515 -2.8244384302320595 0.27889789913726754 -0.50276457447331813 6.5324999999998914 3.9926712923572016 19.038125566374237 3.803101740376118 2.3217723501606953 3.7763595849292364 0.63034582088642332 0.029451190663933136 0.6500355402121164 -0.19373760472650994 0.033412856992113243 -0.65383771436863569 0.41110131065830241 44.70016655778609 2.5757193093285862 2.5000000000000004 0.58539406130471316 -7.4007871647076007 1015.9571537546982 5.05972440624386 0.21598816568047338 3.3563271989442964 2.0372496248182821 -0.88538304456189199 0.61064617999262516 -2.8050725607099576 804972.00000000012 -2.1244938462408065 1.1661807580175039 0.97852345123814477 0.86596556203532249 1.7324999999998909 4.8904203287295074 1.0807935617319628 1.9266495140939162 0.51386790541069616 2.3339415676075039 4.5000000000000009 -0.15239051571296042 0.60443630484155342 0.81173639096782557 0.99438989078777584 -2.8185518624827446 0.23597162838487293 0.71336843312623055 -1.5608787438968064 0.70476130504356083 0.04920156289815681 -0.23484951718084965 1.6704193879969493
decision_type=2 2 2 2 2 2 2 2 2 2 2 2 2 2 2 2 2 2 2 2 2 2 2 2 2 2 2 2 2 2 2 2 2 2 2 2 2 2 2 2 2 2 2 2 2 2 2 2 2 2 2 2 2 2 2 2 2 2 2 2 2 2
left_child=1 5 6 40 -2 8 9 53 19 10 50 12 -11 14 -13 28 35 18 -18 -1 22 24 23 -21 -22 -23 -19 -24 29 52 31 39 -15 34 42 36 -9 -37 -33 -31 -4 -12 43 -30 -44 46 -7 48 -36 -49 -3 -48 59 -5 -52 56 58 -58 -35 -6 -57 -62
right_child=4 2 3 7 15 45 -8 16 -10 11 41 13 -14 32 -16 -17 17 26 -20 20 21 25 27 -25 -26 -27 -28 -29 33 30 -32 38 -34 55 47 37 -38 -39 -40 -41 -42 -43 44 -45 -46 -47 51 49 -50 -51 54 -53 -54 -55 -56 60 57 -59 -60 -61 61 -63
leaf_value=0.12715242700178248 0.081388254944481417 0.12194248440538616 -0.033870519492490411 -0.03305106151034834 -0.036869599958718267 -0.030355399546797054 -0.015545262205115798 0.056882714756494264 0.1348880143820281 -0.033380328844110206 -0.033860588913972117 0.022062727931892952 0.15380630348030516 -0.03367790338366683 0.052689587019752057 0.074237116553340712 -0.0025720610843887322 0.087171066779172066 0.057656748361533526 0.081259506137128401 0.106121385325989 0.12559339845851392 0.0034241097645419899 -0.025416944331827163 -0.010299446333122006 0.057116459981415478 -0.035835419015144081 0.076357463166591852 -0.034227659740196953 0.057080553822110268 -0.038391696784816728 0.058061069882337946 0.10401835386825403 0.039653775622018488 -0.036098176679465174 0.012418242481850689 -0.034273085907933556 0.075550651484791898 -0.03807166971269501 -0.034846244498087708 0.13179232486935125 0.13887608616343092 -0.03410247366070901 0.053145583932114077 0.064631362714846791 -0.031458138204420248 -0.028557569522685861 0.069137409901814842 0.054134456438697111 0.05006247995480867 -0.0330810429590346 0.15909518060938305 -0.03766253302049484 0.12036268969112794 0.089457214364657645 0.080874161122556965 0.081692844665666384 -0.038272434983676579 0.085742701121608048 0.084052620017163793 -0.035223804969934852 0.069832124144339897
leaf_weight=54.752947676926851 2535.5763931237161 253.13679357152432 95.568519959226251 69.437695511616766 16.370028275996447 44.920670783147216 108.29738604836166 626.74025131668895 52.2012480776757 139.71608108282089 65.371762165799737 555.20946852955967 22.971110726706684 22.064551899209619 3546.0315921204165 5788.9581659696996 271.09861623309553 343.14021607115865 309.208954683505 77.180195776745677 45.54868738912046 125.19063322432339 122.20830901432782 345.57782607991248 207.41147162299603 562.07588749006391 29.688033221289515 201.86260727886111 136.8035523891449 70.345905086956918 71.396292470395565 5891.1458831559867 268.62351526319981 251.59850824810565 72.09303961135447 93.397478586062789 51.192326888442039 4831.8580736955628 36.95164305716753 92.655392014421523 12.647449411451815 12.017948545515535 37.830680252052844 122.97247290145606 304.16179128177464 154.26324375439435 10.3343073958531 6374.3912389641628 1024.1585994269699 1077.220593159087 25.996376113966107 34.001381989568472 20.115081943571568 13.383726440370081 52.239114547148347 2173.7240616548806 35.443772785365582 77.312423896044493 231.08696081116796 881.60765628144145 33.53643543459475 9091.5804282659665
leaf_count=370 1880 417 1218 1032 102 1786 856 3851 262 2061 794 5779 42 225 18723 5940 2490 1118 1494 1051 51 1160 2697 10118 5295 7006 230 2651 1903 318 437 20008 549 861 636 792 547 19598 225 996 26 7 471 593 1206 4487 298 13689 2814 3575 307 157 124 2 160 2852 23 563 354 1111 308 16201
internal_value=0.064306 0.0562788 0.0594232 0.0658287 0.0673559 0.0380175 0.0508895 0.0671232 0.0437541 0.0523425 0.0840003 0.0494829 -0.00615345 0.0515454 0.0485506 0.0663043 0.068062 0.0482973 0.0295589 0.0409454 0.0380721 0.0539784 0.0179973 -0.00578883 0.0109871 0.0697587 0.0772985 0.0489584 0.0646688 0.0580985 0.0549498 0.0560505 0.0934767 0.0668765 0.06206 0.0714144 0.0499546 0.0743568 0.057455 0.00491414 -0.0134522 -0.0055684 0.0336243 0.00716667 0.0536332 -0.00423836 0.0426001 0.0640573 0.0481702 0.0663874 0.104881 0.115623 0.0791474 -0.00708383 0.0487983 0.0705758 0.0501294 -0.000149545 0.0618568 0.0818063 0.0716485 0.0694419
internal_weight=50305.6 13856.6 11819 6747.36 36449 2037.53 5071.68 6639.15 1794.01 4963.38 408.762 4554.62 162.687 4391.93 4101.24 33913.5 6556.32 953.136 580.308 1741.81 1687.06 940.227 746.829 422.758 252.96 687.267 372.828 324.071 28124.5 7080.59 6162.5 6091.1 290.688 21043.9 9149.63 5603.19 677.933 4925.26 5928.1 163.001 108.216 77.3897 601.768 259.776 341.992 243.52 89.2564 8547.86 1096.25 7451.61 331.372 44.3357 918.093 82.8214 78.2355 11894.3 595.442 112.756 482.685 897.978 11298.8 9125.12
internal_count=176897 99707 62318 32398 77190 37389 29920 31154 30661 29064 1685 27379 2103 25276 24502 75310 30120 5332 3984 30399 30029 13512 16517 11169 5346 8166 1348 5348 69370 23321 21984 21547 774 46049 24887 24788 4398 20390 20233 1314 1244 801 4173 2496 1677 6728 2241 20714 3450 17264 884 455 1337 1034 467 21162 1801 586 1215 1213 19361 16509
is_linear=0
shrinkage=0.03


Tree=14
num_leaves=63
num_cat=0
split_feature=2 27 6 39 21 16 29 22 33 47 2 42 2 5 36 11 2 25 8 25 45 36 3 27 31 20 43 16 16 11 44 36 2 47 15 33 1 7 28 17 22 3 44 16 25 7 5 17 14 8 46 4 11 36 23 32 8 36 16 15 11 43
split_gain=1309.08 806.845 631.203 634.173 568.672 811.646 602.01 566.573 777.5 546.167 513.709 511.248 509.124 539.326 923.337 628.653 520.435 695.188 496.824 636.328 584.589 469.955 465.313 456.67 454.081 444.98 414.463 429.441 411.314 490.077 608.439 445.211 418.975 418.551 406.687 403.309 395.602 382.63 358.353 358.01 338.828 454.078 335.321 320.021 384.314 304.186 300.346 298.333 294.739 273.478 242.397 235.013 226.214 209.859 267.412 216.672 194.497 187.524 182.709 333.999 211.496 180.314
threshold=1.6447368421052635 1.769039376940124 0.037313432835820858 475767.89838709676 -1.4547985270463315 -1.0392949614767255 1.1393191993743774 -7.1894728252649047 1413618.6000000003 0.089769040991447849 1.0867611517269646 0.022315245638878951 1.6189658860636857 -1.8749999999999913 3.7108173574096797 1.6704907310254964 0.72775435935015753 4.2948555343581214 0.79652270218240429 2.2839298801086136 0.10405357824007513 -4.0811486074770267 -0.46363356009765649 3.7298849092715702 1.7226900550886548 -0.068802208090216768 0.57571662571662585 0.26998109087241035 1.2372834816460114 -10.038667681879934 0.88501336898395733 2.2136982833288306 1.7644723755162579 0.11897656335560182 0.072415002043550211 33951.80000000001 1.2201246982813925 0.26294207251767671 0.66131123733840569 0.44642879265849167 -6.4811166105035642 -0.52585265613440246 0.17227209808186675 1.1062591814856537 4.4036314648913075 0.31668535361875588 -20.962500000000066 -0.82844344198331865 244.90161290322584 4.9845180471096766 0.092617822181854895 59.15119363395231 -0.41858880470141774 -6.2621898316506641 -1.9820928657458128 0.9159217744060465 0.69224708731617868 2.8867824452919328 1.064014068348573 0.89105992600891504 1.8699186991869918 0.5796902372989331
decision_type=2 2 2 2 2 2 2 2 2 2 2 2 2 2 2 2 2 2 2 2 2 2 2 2 2 2 2 2 2 2 2 2 2 2 2 2 2 2 2 2 2 2 2 2 2 2 2 2 2 2 2 2 2 2 2 2 2 2 2 2 2 2
