tree
version=v4
num_class=1
num_tree_per_iteration=1
label_index=0
max_feature_idx=49
objective=binary sigmoid:1
feature_names=gap_up_pct ret_30m range_30m vwap_dev rsi_14 macd_hist bb_pctb rvol vol_surge obv_delta dow mom_5d prev_day_ret consec_days avg_vol_30m nifty_ret_30m nifty_mom_5d rel_strength_30m rel_strength_5d beats_nifty_30m nifty_daily_ret_prev mom_10d mom_20d avg_ret_5d avg_ret_10d avg_range_10d vol_10d vol_20d daily_vol_ratio ret_1d_ago ret_2d_ago range_1d_ago vol_trend avg_vol_5d prev_day_direction atr_ratio nifty_mom_10d nifty_ret_1d_ago nifty_ret_5d_ago avg_vol_20d rank_ret_30m zscore_ret_30m rank_gap_up rank_rvol rank_rel_strength rank_range rank_mom_5d pct_beats_nifty rank_obv rank_vol_surge
feature_infos=[-80.115638181835735:400.22103303862258] [-79.486301369863014:402.19565217391306] [0:414.1414141414142] [-77.754643913351714:160.00295580121261] [0:99.635036496350281] [-817.94999999999993:1241.7] [0:1] [0.0029441340781092367:4.6151205168412597] [0:317.07283702213277] [-258828042:136935044] [1:5] [-96.962500000000006:432.42787342950209] none [-1:1] [0.66666666666666663:14837779.129032258] [-2.3282528615237359:2.7873684388049864] [-8.5558895998124029:6.2342547039080012] [-76.617636789122244:326.11857737868559] [-79.760173139008018:347.78209909699973] [0:1] [-4.2182539682539684:7.2373672949327865] [-96.842767295597483:482.26915520628683] [-96.875:489.75347661188368] [-20.024607812980619:256.48431634884599] [-20.024607812980619:160.1876951729551] [0.70429604661886958:191.91390934086454] [0:168.90160625384266] [0:156.57034723231828] [0.00099950033308353315:4.6151205168412597] [-21.224165341812405:401.52173913043481] [-21.224165341812405:404.84790874524714] [0:415.48821548821547] [0.032144227096989345:1.096155112395923] [1217.4000000000001:1287320742.4000001] [-1:1] [0:58038.456972401233] [-10.079968182270136:8.7482622619526946] [-4.2182539682539684:7.2373672949327865] [-4.2182539682539684:7.2373672949327865] [0:36090762] [0.0026109660574412533:1] [-17.695541712320825:19.202802049453521] [0.0026109660574412533:1] [0.0026109660574412533:1] [0:1] [0.0026109660574412533:1] [0:1] [0:0.96132596685082872] [0.0026109660574412533:1] [0.0026109660574412533:1]
tree_sizes=6747 6761 6792 6779 6801 6806 6818 6829 6840 6859 6885 6872 6892 6878 6881 6869 6902 6911 6878 6907 6894 6904 6911 6921 6896 6898 6880 6895 6917 6920 6890 6886 6883 6894 6909 6912 6863 6905 6910 6900 6907 6896 6936 6912 6916 6916 6905 6912 6901 6882 6894 6901 6906 6890 6870 6876 6898 6884 6922 6894 6923 6882 6945 6893 6925 6921 6927 6924 6900 6912 6917 6887 6910 6917 6905 6926 6922 6894 6935 6898 6947 6951 6932 6922 6927 6927 6951 6961 6886

Tree=0
num_leaves=63
num_cat=0
split_feature=25 2 2 25 2 25 35 25 7 2 7 15 46 7 11 31 9 31 9 43 35 33 2 30 15 3 20 38 42 4 7 2 30 11 42 35 25 25 17 26 38 28 44 31 41 25 22 23 26 25 0 28 10 21 23 23 9 43 20 28 7 11
split_gain=464075 94874.1 77040.2 38427.6 34185.6 22961.5 21784.5 18987 19579.3 18042.6 13990.9 13813.7 8595.54 8359.79 7836.58 7722.85 7158.6 6666.79 6459.71 6028 5860.68 11129 5513.81 5774.02 5451.65 5421.85 5421.38 5304.6 5130.7 4958.26 5934.39 5949.27 6282.21 4702.61 4635.87 4591.26 4385.94 4329.23 5163.95 4439.82 4286.85 6022.98 4487.91 4190.48 4008.91 4575.47 3975.69 7016.7 4053.52 3880.55 3811.67 4168.46 3804.25 3909.32 4693.73 3800.58 3857.63 3568.4 4928.66 3690.28 3545.81 3397.36
threshold=3.7275205200414314 1.6776126842261816 2.2565934398670113 2.3988052118989915 4.1315567586757744 2.6788319056674905 71.195748249244659 4.6273124853725873 0.43338399574520953 3.4581166299874702 0.87161809466082774 -0.27392679338667841 0.58806394165535958 0.59999024902994169 -0.45591198966143714 2.5494105199972315 -20889.499999999996 4.3986089399845687 -16771.499999999996 0.95564998606762941 36.353060049461327 2423426.8000000003 0.83452525857165227 1.0000000180025095e-35 -0.14624368978704183 -0.43505308357749106 -0.27938504206667841 -0.44754249350939651 0.55243853390690034 55.000000000000021 0.53756217069401846 0.86307723123810109 -0.44263175011168504 -9.9855328466953601 0.88051101392938136 93.979517874769243 2.7550101480048261 2.9957250794187451 -0.46871980474742914 2.2852844469311893 -0.23838641527448654 0.99041338581884097 0.33533838667076726 3.9358917277439152 -0.33043267002239113 3.0695246262132794 5.9731473695081236 -1.0798545524123278 3.3501895428901212 4.1202786600009835 0.24593730499352007 0.90172954186952214 2.5000000000000004 2.4429885894015464 -1.3581925223420259 -1.8681427571108613 20787.500000000004 0.029451190663933136 -0.20375788675744419 0.31773104800312552 1.3087127936363872 1.4972506722257488
decision_type=2 2 2 2 2 2 2 2 2 2 2 2 2 2 2 2 2 2 2 2 2 2 2 2 2 2 2 2 2 2 2 2 2 2 2 2 2 2 2 2 2 2 2 2 2 2 2 2 2 2 2 2 2 2 2 2 2 2 2 2 2 2
left_child=1 3 7 29 5 14 12 8 34 17 15 -8 22 37 19 20 60 -4 -16 43 -7 -22 23 -5 -14 36 -26 28 -10 -1 -31 -32 -33 -11 57 -34 -24 38 -13 -39 42 -42 -17 -3 45 -15 47 48 -9 -36 51 -18 -29 54 -54 -19 -57 -2 -59 -60 -12 -28
right_child=2 4 9 6 -6 10 11 46 27 33 16 13 24 44 18 40 50 55 -20 -21 21 -23 25 -25 26 -27 61 52 -30 30 31 32 35 -35 49 -37 -38 39 -40 -41 41 -43 -44 -45 -46 -47 -48 -49 -50 -51 -52 -53 53 -55 -56 56 -58 58 59 -61 -62 -63
leaf_value=-3.9080819005556457 -3.1763437214989025 -3.9860971223827493 -3.0148156096509933 -3.2636783676330139 -2.819826081742685 -3.7583356696410464 -3.8186126712719504 -2.7383690981415647 -3.7949536633530365 -2.5213791024156786 -3.2898242501576265 -3.9639551039505143 -3.7545613079796576 -3.9104039720913137 -3.899110348992489 -3.4229754100512828 -3.4576723383897581 -2.6400500201052548 -3.3549956643782775 -3.2040612548793543 -3.0068871959656507 -3.884018734126359 -4.0306984824682033 -4.0309316479557538 -3.7287348258615123 -3.8193789249387242 -3.6916635111916798 -2.9414449469024984 -3.1815901391894421 -3.9303658684322205 -3.9804928216726259 -3.849769709602135 -3.5220333320596611 -2.7358238767142344 -2.8734600599500211 -3.0044136069029608 -3.3378543675847787 -3.2286533940220021 -3.4530658792791975 -3.638728321115849 -3.4286305638046977 -3.06465699930571 -2.9923644749585794 -3.4639593963503654 -3.0399127057595643 -3.1630230770488978 -2.899847859464403 -3.2202989869733956 -3.2031919367550623 -3.6154872667363382 -2.9306566701796752 -2.9930611144375874 -3.0018988541499376 -3.0263477356043809 -3.4685886594348272 -2.9565834812989609 -2.7492530446932877 -3.8408626611317134 -3.8651147653385705 -3.4025515887349154 -3.8955000977957233 -3.2777059825588584
leaf_weight=287.0137341208756 27.779569767415524 68.633159972727299 328.00993389263749 39.579228417947888 142.50533345527947 64.740217801183462 52.605981387197971 68.788051966577768 19.763142351061106 156.55794646404684 47.632149048149586 22.958545384928584 57.964670553803444 12.551416005939247 23.623646110296249 36.711568046361208 38.983174966648221 106.30849153362215 129.77330649644136 12.896883672103284 34.23142915405333 21.14072691835463 10.231035819277166 11.181941041722892 42.194797206670046 275.14108904264867 23.100810382515192 173.52768937312067 35.66995139233768 78.781593963503838 30.407302960753441 34.885524328798056 56.858061427250504 720.64087252132595 21.682677799835801 22.97221558727324 39.182322833687067 131.70095154829323 81.114369850605726 32.351167218759656 208.14733626879752 54.983475739136338 82.654724719002843 16.352372244000435 123.03181910701096 17.903385719284415 323.63215500488877 152.55865426920354 32.66686112433672 10.852808229625223 180.75841522403061 40.079125486314297 30.876151766628027 111.57484782300889 65.924215100705624 287.34031555429101 178.11446282453835 41.74911835603416 18.657807726413012 118.79989742673934 11.08983946032822 133.79101995751262
leaf_count=15116 771 3790 7658 1226 2393 3085 2611 949 961 1094 1522 1250 2754 659 1234 1332 1461 1144 4466 356 761 1093 581 635 1966 13689 1043 3617 1004 4205 1673 1766 2261 10275 371 498 1311 3984 3047 1407 7680 1348 1844 606 2954 479 6334 4577 941 455 3705 878 678 2626 2507 6155 2587 2102 952 4273 576 4264
internal_value=-3.18201 -3.45842 -2.924 -3.60932 -3.25802 -3.3173 -3.50999 -3.10579 -3.21677 -2.79625 -3.24024 -3.35595 -3.62635 -3.2988 -3.57115 -3.34195 -3.08233 -2.89542 -3.43756 -3.78416 -3.55862 -3.33366 -3.71924 -3.43002 -3.49236 -3.76611 -3.41766 -3.0965 -3.39265 -3.825 -3.71942 -3.6062 -3.50807 -2.6959 -3.43924 -3.36253 -3.47907 -3.40474 -3.56429 -3.3068 -3.27526 -3.3493 -3.11886 -3.88049 -3.11883 -3.45821 -2.97733 -3.07999 -2.87874 -3.10195 -3.01303 -3.21243 -3.05523 -3.15462 -3.31098 -2.82878 -2.87472 -3.49635 -3.55029 -3.46387 -3.40044 -3.33628
internal_weight=5863.92 2832.44 3031.48 1617.5 1214.94 1072.43 1106.58 1254.5 676.858 1776.97 821.152 474.218 632.367 421.612 251.279 502.609 318.543 899.773 153.397 97.8824 120.112 55.3722 375.316 50.7612 257.051 324.554 199.087 437.336 55.4331 510.918 223.905 145.123 114.716 877.199 239.522 79.8303 49.4134 268.125 104.073 164.052 382.497 263.131 119.366 84.9855 153.487 30.4548 577.646 254.014 101.455 32.5355 259.821 79.0623 381.903 208.375 96.8004 571.763 465.455 206.986 179.207 137.458 58.722 156.892
internal_count=169540 107509 62031 69379 38130 35737 43860 33118 20317 28913 25285 16391 27469 13780 10452 17143 8142 17544 5700 4752 4939 1854 17442 1861 10027 15581 7273 11393 1965 25519 10403 6198 4525 11369 8924 2759 1892 9688 4297 5391 12204 9028 3176 4396 4092 1138 12801 6467 1890 826 6044 2339 9428 5811 3185 9886 8742 8098 7327 5225 2098 5307
is_linear=0
shrinkage=1


Tree=1
num_leaves=63
num_cat=0
split_feature=31 2 16 2 4 24 16 35 2 39 4 11 9 9 11 46 47 10 46 33 35 46 0 22 8 2 20 40 35 4 20 35 11 28 5 28 35 18 36 21 39 18 22 39 22 5 36 35 39 41 0 46 2 31 11 38 18 28 29 39 24 23
split_gain=25990 7113.17 6909.31 10359.4 5380.07 4919.38 4123.99 3963.03 3609.49 4067.31 3432.7 3298.43 2778.32 2714.03 2702.66 3711.86 2666.4 2625.55 2457.85 2439.54 2915.36 2909.35 2434.47 2411.1 2361.19 2499.64 2347.61 2245.73 2240.15 2225.15 2212.59 2171.19 2023.73 2021.58 2003.26 1992.89 1983.24 1977.92 2405.85 1969.92 1884.74 1837.64 1819.79 1759.82 1751.5 1712.19 1700.76 1689.93 1574.09 1730.49 1590.3 1769.85 1616.51 1564.87 1574.54 2728.19 1714.06 1538.08 1493.22 1708.69 1465.5 1442.15
threshold=2.4176492759594868 1.6108270183765356 -0.96316315582766221 1.9607843137254914 1.0000000180025095e-35 -0.38139450534190678 -1.0773305648602396 146.8773723295532 1.5366461904130857 5044.1673655913974 61.433438829182457 -0.13742367783867529 110803.50000000001 71.500000000000014 -4.9833610188261277 0.49324319388746457 0.59764438022680511 2.5000000000000004 0.18057427373465113 235382.10000000001 16.012019759664685 0.85097568740730389 -3.4883720930232491 -14.383366950399902 0.22157212321795874 1.4099108899223225 0.90735970226150064 0.66574200895673996 157.19940233583819 53.846153846153776 -1.6221503570655649 107.98544850756396 -1.2002180590617757 1.0193201760895587 2.5050000000000243 0.50969574626569081 16.843814411279187 0.73005454395763569 3.002578500670801 9.6247762100556873 52552.454032258072 -1.0000000180025095e-35 -14.383366950399902 4135.8374823878394 5.0841266403057848 1.3199999999999956 1.0058736175845329 35.790636625520129 23468.174193548395 -0.16695715903264249 0.62893081761006198 0.045057733790128167 1.6444805676742058 3.4829665998167925 2.9776674937965226 0.6275703082887466 -3.5304335151441455 0.36929400373000398 -0.46267366130631732 1979.030761648746 1.3023988252021665 0.016011393693311241
decision_type=2 2 2 2 2 2 2 2 2 2 2 2 2 2 2 2 2 2 2 2 2 2 2 2 2 2 2 2 2 2 2 2 2 2 2 2 2 2 2 2 2 2 2 2 2 2 2 2 2 2 2 2 2 2 2 2 2 2 2 2 2 2
left_child=1 4 3 13 -1 11 33 8 9 26 28 27 16 22 18 23 57 31 -10 -8 21 -21 -2 -16 -15 -26 37 29 58 42 -5 45 -30 -3 40 -34 43 38 -4 -39 44 46 -6 -17 -13 -11 -9 -19 49 -22 51 -50 -52 54 55 56 -32 -12 -7 -60 -25 -49
right_child=2 6 7 30 5 10 19 41 14 17 12 34 -14 24 15 36 -18 47 -20 20 48 -23 -24 60 25 -27 -28 -29 32 -31 53 -33 35 -35 -36 -37 -38 39 -40 -41 -42 -43 -44 -45 -46 -47 -48 61 50 -51 52 -53 -54 -55 -56 -57 -58 -59 59 -61 -62 -63
leaf_value=0.7268959491214797 0.54281349274672996 0.10163279823458378 0.2715276404925519 0.49001371127310289 0.49859659136858236 0.0026276476204964735 0.41640091409463881 0.40854778918137713 0.38890449805085636 0.36653823247725409 0.53213064518652164 0.35208823096121211 0.044688705196642184 0.55446578670811641 0.43960320393721591 0.35326836389777017 -0.028972555276016807 0.00027359770021000135 0.51774365306766224 0.10777179582701996 0.23643262046036181 0.38865307451207703 0.093734258196540368 0.27370664767747582 0.089706506494595703 0.29345897729306736 -0.028815570670000942 0.0050739827902598058 -0.029648470233718242 0.35131266693040081 0.4105745622568428 -0.02912434157334862 0.36291263142928021 0.51130069888850027 -0.028042925069937399 0.10907380339484782 0.38862209725661695 0.47275352079018468 0.44057947968194155 0.21109794523850753 0.11174996570290659 0.41269723286285487 0.11391756888719354 0.23538050686150425 0.57731885051361509 -0.027965374710869136 0.30793266554819515 0.0933962769910682 0.43028805029606682 0.41585499519274544 0.70312274496519023 0.09132085944683814 0.29107094305368758 0.34769585911834405 0.40898729852421567 -0.030297883298139958 0.20415203570171345 0.29573785317783013 0.21683302178908662 0.070430555537056821 0.4226212943924631 0.28698048709360724
leaf_weight=16.375776512548327 10.49564181640744 110.55268525518477 297.63971010409296 93.531927580013871 11.462393656373022 147.30525282211602 230.23361432738602 294.01271311379969 721.35956708341837 147.79674392938614 36.981026202440262 136.33819820918143 42.780106533318758 21.491218706592917 107.1353830806911 583.98737404309213 17.257282584905624 52.613126065582037 178.50190946273506 117.48581930436194 66.614336993545294 46.000649163499475 222.94108987599611 785.17415757663548 80.864242792129517 171.11390098184347 14.270176494494079 45.485000288113952 24.655531886965036 89.325307155027986 54.818256249651313 15.535463361069558 74.123255610466003 11.162843601778148 11.345027131959794 46.12884403206408 2079.1038964502513 181.67458163388073 107.05268284678459 33.005129896104336 22.209860133007169 2295.4392103664577 112.70161946304142 152.97646098211408 44.95117025822401 10.445988886058329 366.87101305648685 65.210663590580225 16.843802193179727 241.5092242397368 10.22703782841563 66.29341827891767 55.120292756706476 1704.8626575656235 55.021610371768475 31.610004216432571 117.69827615097165 94.64559013210237 105.23723490908742 226.52264337800443 67.771620746701956 76.559002077206969
leaf_count=48 40 3114 6422 294 185 6212 2691 2641 3552 2669 566 3334 1417 225 569 5628 720 2013 668 3322 1326 477 6337 11398 2465 2956 488 1794 910 2100 508 470 1338 83 488 1512 16084 2767 1938 604 641 15982 4138 2125 430 397 4404 1855 91 2447 43 1834 728 11877 497 858 2107 2498 3326 9056 303 1530
internal_value=0.33911 0.246502 0.357923 0.314212 0.200446 0.1932 0.308101 0.370868 0.355875 0.30315 0.148208 0.270168 0.259142 0.192094 0.367103 0.355578 0.320034 0.22266 0.415011 0.331521 0.299382 0.188705 0.116168 0.303604 0.256235 0.228696 0.349487 0.196726 0.113768 0.23733 0.344188 0.30743 0.21687 0.143089 0.35736 0.267267 0.373183 0.35824 0.31723 0.433705 0.378893 0.399532 0.153154 0.329154 0.410812 0.340465 0.353248 0.145675 0.338504 0.377965 0.254617 0.16433 0.365229 0.336996 0.26553 0.225042 0.27175 0.365687 0.0821888 0.117392 0.286023 0.199235
internal_weight=13476.5 2277.87 11198.6 2564.45 1305.83 1289.46 972.044 8634.14 5677.81 1001.8 815.637 473.819 191.664 506.906 4676.01 3776.15 148.884 368.161 899.861 850.328 620.095 163.486 233.437 960.081 273.469 251.978 633.642 258.974 623.973 213.489 2057.54 173.778 144.908 121.716 214.844 120.252 2816.07 619.372 404.692 214.68 203.499 2956.32 124.164 736.964 181.289 158.243 660.884 194.383 456.608 308.124 148.485 83.1372 65.3473 1964.01 259.148 204.127 172.517 131.627 479.065 331.76 852.946 141.77
internal_count=169540 56869 112671 28164 40713 40665 16156 84507 61480 21153 27555 13110 5201 12023 40327 36107 3784 8934 4220 12959 10268 3799 6377 12270 5646 5421 12219 8217 22354 6423 16141 3536 3760 3197 4893 2850 23837 11731 8360 3371 4405 23027 4323 7753 3764 3066 7045 5398 6469 3773 2696 1925 771 15847 3970 3473 2615 3064 18594 12382 11701 3385
is_linear=0
shrinkage=0.03


Tree=2
num_leaves=63
num_cat=0
split_feature=31 27 15 27 42 15 4 8 48 35 31 14 18 4 0 36 45 8 5 31 11 21 22 35 33 7 20 47 15 23 27 29 23 11 36 40 6 45 8 33 26 38 0 41 21 48 18 4 35 11 36 32 7 48 8 41 38 10 22 22 31 41
split_gain=10680 5215.65 4117.83 3725.38 2935.85 2934.74 2759.59 2371.57 2171.25 2352.98 2015.64 2116.14 1752.92 2847.66 1726.9 1815.71 2708.09 1880.92 1768.48 1701.17 1659.06 1592.92 1573.36 1418.31 1593.48 1384.39 1379.54 1350.5 1325.68 1902.17 1287.96 1279.63 1276.05 1894.26 1281.82 1265.57 1253.17 1243.74 1230.89 1225.69 1232.33 1162.92 1244.59 1158.65 1114.75 1113.82 1111.16 1380.87 1172.34 1107.83 1081.04 985.623 1041.64 930.609 916.081 897.687 893.424 957.523 919.662 1075.23 914.088 1061.51
threshold=2.4176492759594868 1.3364658212859439 -0.37568724427979577 3.1454123754029868 0.60352441906602039 -0.28642542462547665 26.598465473145925 2.5834920364735354 0.36621961065757608 9.6707978007577307 2.1966338859399488 1040.2258064516132 -3.9903124512848773 57.22642900692798 1.2287010208699456 -0.1729097469258081 0.48196108533858434 0.18852985333490532 -1.1849999999999878 4.1963093225488697 0.3787878787878815 -9.3483328337802902 2.0600575988391228 684.66784842601362 499072.90000000008 0.61227499525276741 0.23680373653679879 0.44606230609035663 0.21791991087884705 0.59964893659529184 1.4314433458814422 -0.42897425321636634 -0.017878876662881658 3.7685116131576786 1.3323395682550634 0.82645843461351498 0.4999999999999995 0.09595273237814099 0.83988268107576569 1338415.2000000002 2.7144933704267595 1.6476544716551262 -0.63964241719151127 0.59413194553444226 2.8525953133542563 0.82251020918409878 -1.3035003093875763 48.384287281866129 22.559556093871773 -5.2022950548471574 1.3323395682550634 0.57721817448558543 0.70772346572206357 0.51256993047915556 0.64155844708877885 0.27343967041350231 -0.51679601995992042 4.5000000000000009 -3.0299898437114732 -19.321896197501044 4.1409976677690166 -0.46400925274280314
decision_type=2 2 2 2 2 2 2 2 2 2 2 2 2 2 2 2 2 2 2 2 2 2 2 2 2 2 2 2 2 2 2 2 2 2 2 2 2 2 2 2 2 2 2 2 2 2 2 2 2 2 2 2 2 2 2 2 2 2 2 2 2 2
left_child=1 7 22 5 6 12 -4 10 21 35 28 36 50 19 15 16 18 -17 -7 51 45 -8 -3 24 -19 -24 -11 49 -1 -30 -15 -23 39 34 -34 -10 -12 -16 -13 40 -22 42 -18 -20 -29 46 48 -48 -6 -21 -2 -14 -53 -39 -25 -27 60 -58 59 -59 61 -5
right_child=3 2 4 56 20 14 8 -9 9 26 11 38 13 30 37 17 41 23 43 27 32 31 25 54 -26 55 -28 44 29 -31 -32 -33 33 -35 -36 -37 -38 53 -40 -41 -42 -43 -44 -45 -46 -47 47 -49 -50 -51 -52 52 -54 -55 -56 -57 57 58 -60 -61 -62 -63
leaf_value=0.021219474697718267 0.27237682524554546 -0.0013854340078529414 0.35288004337229206 0.2639770777371499 0.011379704186295895 -0.0033944492025661595 0.30234429583475342 0.39463900515795097 -0.0067941934928425398 0.2414247599830186 0.11321752161452101 -0.029847886276794567 0.18110520824459003 -0.029261480518479936 -0.028796886371646076 0.08984149455414428 0.28413388502703762 0.27173646474003915 0.14680675875709451 -0.02922929527055013 0.38101536109654704 0.00066266504170197184 0.019367025035186659 0.26107631045313878 0.23494398524547633 0.36046160153639517 0.12553255749733117 0.1847509529253821 0.097598590430083107 0.49436276412275465 0.2482639235061255 0.13175460397599975 0.2009519857001085 0.29140959341823913 -0.030185329053737345 0.18026063920391008 0.51883940066342005 0.24590450540764378 0.30468454163259018 0.2329801923311566 0.0813500641243525 -0.029670363230780053 0.2175672494494344 0.28099172175898302 0.024976750724428568 0.02344354836172096 0.12186719288061679 0.32722606172294838 0.20837331555483418 0.28535887909975155 0.098345597992637951 0.012402766180321064 0.1389278630365548 0.29984692888931658 0.35746936379859123 0.073815262786530181 0.28199073707430283 0.24516400089148538 0.25799920312963587 0.060771435758949298 0.25334545731123231 0.070848300648164581
leaf_weight=283.11329627409577 360.18056873977184 110.39987695962191 84.407251730561256 43.491639142856002 38.156872218474746 59.041666910052299 33.483336981385946 22.204307664185762 68.102020435035229 582.81847305782139 10.578210426494477 29.613350408151746 84.080284656956792 15.343248285353182 11.546897733584045 66.668226273730397 398.71487936377525 1670.5021525826305 312.28212614171207 10.715552035719154 225.89340098947287 103.12037548236549 32.052643956616521 206.39078633487225 3265.8698042985052 32.581634618341923 114.21734956838191 127.95184050686657 88.649613043293357 11.561856020241974 450.18858726881444 190.70569672435522 69.73511197604239 207.44047335721552 30.712092915549874 61.18857155367732 22.944471545517445 483.48462185449898 13.744409704580901 98.342227421700954 13.746407732367514 14.334922024980186 795.07537411153316 72.642038615420461 57.097267860546708 29.440087536349893 41.999498935416341 113.53860363550484 94.928196353837848 128.37708290480077 36.94934450648725 149.71032186597586 95.480465838685632 904.22559013403952 188.82654849998653 14.810780383646486 4109.1026488598436 64.050518719479442 666.10878437198699 52.216050719842315 395.59897265024483 63.007935581728816
leaf_count=10602 1951 3494 498 338 1129 1624 264 251 2301 9089 296 1136 1340 436 285 1011 1982 14763 5624 184 1514 3296 1019 1464 30412 303 2326 1429 2902 175 3745 4818 1073 1867 942 1066 193 3687 188 1118 196 278 7003 818 933 744 887 1390 1528 681 509 3912 1699 4300 780 264 15115 175 2830 660 1875 828
internal_value=0.241746 0.188502 0.206664 0.251697 0.218226 0.240706 0.187289 0.098206 0.174875 0.200834 0.0830723 0.222339 0.201833 0.182224 0.247656 0.241463 0.213419 0.250003 0.149407 0.141417 0.257723 0.108918 0.0721044 0.251988 0.247448 0.173014 0.222646 0.190239 0.054627 0.147837 0.239068 0.0859154 0.285686 0.239565 0.13065 0.0824132 0.397918 0.278667 0.0806093 0.326862 0.364248 0.236797 0.240022 0.1728 0.135868 0.200212 0.218089 0.272926 0.152422 0.261066 0.25648 0.0929162 0.0620496 0.281246 0.307924 0.274319 0.271955 0.275998 0.244202 0.163602 0.232086 0.151467
internal_weight=18233.5 2874.23 2391.82 15359.3 2201.98 9965.68 1238.04 482.41 1153.64 826.326 460.205 76.8804 1516.07 1118.94 8449.61 7050.35 1652.09 5398.26 443.966 653.413 963.933 327.309 189.845 5331.59 4936.37 79.4451 697.036 324.142 383.325 100.211 465.532 293.826 645.87 307.888 100.447 129.291 33.5227 1399.26 43.3578 337.982 239.64 1208.13 1193.79 384.924 185.049 318.063 288.623 155.538 133.085 139.093 397.13 329.271 245.191 1387.71 395.217 47.3924 5393.58 4891.48 782.375 116.267 502.099 106.5
internal_count=169540 56869 41126 112671 36046 90850 23658 15743 23160 14782 15492 1813 16819 14359 74031 65759 17329 48430 8066 10178 12388 8378 5080 47419 45175 1586 11415 3227 13679 3077 4181 8114 6710 3882 2015 3367 489 8272 1324 2828 1710 9263 8985 6442 2362 5678 4934 2277 2657 865 2460 6951 5611 7987 2244 567 21821 18780 3665 835 3041 1166
is_linear=0
shrinkage=0.03


Tree=3
num_leaves=63
num_cat=0
split_feature=31 15 45 47 21 10 31 45 24 7 20 28 5 4 6 31 15 31 14 45 32 42 1 1 5 6 15 45 26 10 5 0 5 42 9 3 21 4 1 23 22 32 8 22 42 36 31 2 38 15 31 36 22 38 5 30 0 45 7 30 42 10
split_gain=5973.81 3054.62 2430.67 1952.72 2725.46 3200.05 2251.75 2196.01 1811.3 2367.41 1751.68 1652.73 1357.02 1363.34 1312.86 1277.66 1246.58 1239.93 1209.23 1150.22 1138.11 1087.41 1605.85 1268.4 1065.78 1048.87 991.954 1052.56 965.767 961.58 937.132 2043.8 1824.47 1171.7 939.601 927.743 1087.45 981.265 907.777 944.323 898.074 877.068 973.68 871.137 892.96 819.911 819.529 815.029 801.195 797.84 786.161 895.176 764.744 761.789 1041.1 926.522 925.55 845.805 777.917 1057.34 1054.26 1029.61
threshold=2.4176492759594868 -0.37568724427979577 0.44255288322225445 0.087986483428152254 0.88447305098559259 4.5000000000000009 3.4829665998167925 0.46230062047233866 -0.71991406968916993 0.99922961132126564 -0.36247634017270886 0.74828523301605498 0.27000000000000601 52.165375445134295 0.33057851239669522 4.0125282851051445 -0.50408726718057117 0.85735050773184074 34901.48387096775 0.94289596273291931 0.7165849805962955 0.30486067681189638 -0.41932423882942477 -0.80854823120046804 -4.4400000000000359 1.0000000180025095e-35 0.79063865165792291 0.19053835633470101 1.0778460015913061 1.5000000000000002 -0.31499999999999057 -0.43127368448585235 -1.6425000000000407 0.64639282568660439 -52005.999999999993 0.81096594733808292 -6.9654940636163341 41.111111111111221 -0.37810664510404984 -0.9749319970505248 14.642849472592617 0.87016276736044806 0.20996182582779649 2.8347776792375439 0.0093896943573667738 3.500005536296467 3.1506849315068588 1.1973933091632305 -0.96138818353583633 -1.450697320537488 3.7515451552031061 4.0472303402975047 5.4000544365813816 -0.071737779026285406 -1.4925000000000408 1.6866450904971038 1.0630672712880118 0.50948938286851242 0.5531504398112711 0.87372758944564199 0.40291986359761306 4.5000000000000009
decision_type=2 2 2 2 2 2 2 2 2 2 2 2 2 2 2 2 2 2 2 2 2 2 2 2 2 2 2 2 2 2 2 2 2 2 2 2 2 2 2 2 2 2 2 2 2 2 2 2 2 2 2 2 2 2 2 2 2 2 2 2 2 2
left_child=1 19 8 26 5 6 7 10 12 17 -5 -12 13 38 16 35 24 -10 53 40 -11 23 -23 -19 -6 -17 29 -28 -9 -2 31 -31 34 -34 -33 36 37 -7 -3 -40 -1 -16 -43 44 -20 -45 -30 -27 50 -50 -8 -52 -14 54 56 57 -4 -56 59 61 -60 -55
right_child=3 2 18 4 14 15 48 28 9 20 11 -13 52 -15 41 25 -18 21 43 -21 -22 22 -24 -25 -26 47 27 -29 46 30 -32 32 33 -35 -36 -37 -38 -39 39 -41 -42 42 -44 45 -46 -47 -48 -49 49 -51 51 -53 -54 58 55 -57 -58 -59 60 -61 -62 -63
leaf_value=0.0094262300340941779 0.22654952291655239 0.015045725871207049 -0.030565979412326139 -0.031087514774496755 0.20250957473250542 0.23716736301088698 0.24728446524571129 -0.029938105594779454 0.24884123625603191 0.090137160996882987 0.15121818063631026 -0.030755443462747851 -0.030249347996561173 0.28681755529295411 0.20363435934879184 0.33186615967936134 0.18793116251588718 0.2738226590647827 0.22658825329822824 0.21908898789279532 0.32695065356433195 0.040359502433340771 0.14248986944622899 0.035446031682051814 0.026018729969463899 0.28608006446690631 -0.029020969601532918 0.25393085279300737 0.20083276355458457 0.23247067083163536 0.20785625886389947 0.060719805491467861 0.0014138160507874667 0.1292566967272237 0.19758878004313971 0.19912143732215329 0.0050356325288315514 0.037213608677761432 -0.028520850479043881 0.29193948165767364 0.22299877431718113 -0.030089387726754506 0.23646095836427661 0.18571669469546864 -0.0065757818516820905 -0.030033245545797765 0.12900102470513317 0.12410919750460475 0.029632591033427254 0.19840316854316781 0.016002395601858274 0.26087521490268484 0.25449219316884591 0.21889622389479718 0.03074605835322558 0.021679967202664525 0.2169026854926451 0.21056106425307292 0.27185892530186995 0.03753372393891298 0.19550529064179614 0.02512496931182993
leaf_weight=202.27461334690452 1643.4728805627674 35.040903992950916 42.338259525597095 83.982410918921232 48.029860204085708 41.788266381248832 28.455022022128105 19.556589432060719 51.633725043386221 26.245537078008056 277.46943651139736 53.164412200450897 31.28480526432395 148.51963307335973 3826.8374348189682 26.112532429397106 1830.3671373967081 20.612189769744873 18.059017179533839 31.699494840577245 67.692313050851226 182.92838455736637 584.59251867607236 295.13020973652601 83.874672520905733 30.072339780628681 11.856718802824615 588.58214515075088 562.56279716268182 375.4231889154762 2903.967994870618 51.887775706127286 97.12688378430903 191.61559272557497 419.39122957922518 41.63866213336587 177.9525251109153 46.66687386110425 10.539624247699974 34.634475702419877 18.437492039054632 12.226673759520052 1199.5770485699177 157.24046561308205 65.547589300200343 17.306375704705715 202.60769150219858 375.4427666887641 25.813791224732995 3610.3710985090584 67.056802311912179 15.860821176320313 10.557874483987687 201.97528776712716 25.916472602635622 29.891162846237421 18.892667086794972 310.26486912369728 312.27231765910983 46.582787396386266 380.75855192169547 28.453330485150218
leaf_count=6647 5927 963 1238 2174 338 331 166 477 480 597 4382 1475 910 1234 22571 63 12604 353 45 135 497 5335 12219 8737 1296 220 278 1832 4664 645 13750 552 1510 1515 2316 249 3602 695 276 422 194 172 4023 1430 1457 374 2052 2957 323 18569 906 37 65 2125 687 493 181 2902 2322 870 3052 629
internal_value=0.190367 0.153663 0.1617 0.19695 0.19009 0.174531 0.183253 0.14715 0.133817 0.118153 0.0909394 0.121944 0.204247 0.232895 0.2027 0.116027 0.18149 0.105985 0.186855 0.0529603 0.262465 0.09895 0.118237 0.0518325 0.0913464 0.14935 0.21077 0.2483 0.176692 0.206761 0.198655 0.174959 0.146278 0.0864167 0.182686 0.0689937 0.0479753 0.133305 0.130718 0.218109 0.0282062 0.210922 0.233746 0.126242 0.045835 0.164259 0.18201 0.136802 0.194764 0.197214 0.113706 0.065429 0.0457907 0.197953 0.163514 0.182644 0.0480002 0.19684 0.212936 0.168923 0.230256 0.195194
internal_weight=22378.1 3407.32 3154.91 18970.8 12687.5 5686.57 4946.9 1199.34 1499.41 1228.83 414.616 330.634 270.577 228.735 7000.91 739.674 1962.27 1134.9 1655.5 252.412 93.9379 1083.26 767.521 315.742 131.905 431.628 6283.32 600.439 784.727 5682.89 4039.41 1135.44 760.021 288.742 471.279 308.046 266.408 88.4551 80.215 45.1741 220.712 5038.64 1211.8 258.153 83.6066 174.547 765.17 405.515 3747.56 3636.18 111.373 82.9176 41.8427 1397.35 427.303 366.073 61.2309 336.181 970.042 277.011 693.031 230.429
internal_count=169540 56869 49893 112671 84346 43342 35225 15224 32088 28218 8031 5857 3870 2895 41004 8117 14238 27124 17805 6976 1094 26644 17554 9090 1634 3240 28325 2110 7193 26215 20288 6538 5893 3025 2868 4877 4628 1026 1661 698 6841 26766 4195 3306 1502 1804 6716 3177 20001 18892 1109 943 975 14499 5501 4082 1419 3589 8998 3624 5374 2754
is_linear=0
shrinkage=0.03


Tree=4
num_leaves=63
num_cat=0
split_feature=25 25 43 43 15 15 42 16 49 22 16 45 3 35 2 5 18 46 30 43 16 25 11 31 26 46 37 27 26 39 15 36 5 32 46 42 29 29 26 15 16 30 26 25 40 27 5 38 27 36 31 35 43 3 25 30 18 35 14 30 46 16
split_gain=7701.67 2488.06 2432.9 2230.99 1522.79 1462.3 1245.39 1462.81 1194.41 1157.24 1115.3 1114.33 1278.09 1096.37 1323.61 1064.44 1062.89 2277.21 1502.27 965.437 1217.15 1217.7 1051.66 1078.57 1048.65 1298.59 965.633 957.266 1129.14 1018.69 948.23 900.67 893.725 864.591 830.752 828.546 799.934 925.391 775.186 771.374 764.495 1063.78 1049.13 1287.46 761.841 735.293 732.966 764.304 709.06 1166.48 827.48 751.246 860.622 693.126 646.463 581.901 999.515 580.411 578.278 553.303 515.939 498.506
threshold=2.435062138544803 3.2274729226465975 0.83851811447574487 0.59938363059623534 -0.3952418618724684 -0.26563890899010306 0.74791079866849797 -0.58306796024401819 0.02900462697411189 9.0579029863058889 -0.57129564421372181 0.47807348901098906 0.3133175935448459 150.26107086287035 0.88131733231538534 -0.20999999999999761 -2.4844100696915414 0.1845941936851028 -1.0000000180025095e-35 0.59938363059623534 -1.3684012033809096 4.7631171108983379 -4.6875000000000044 1.4295951336340442 1.4687132307636379 0.065122282380944405 -0.21196782244940707 1.4478562065027833 1.0058355191100012 969.14100667408252 -1.0523201298061362 -1.7523536712164158 -0.10500000000000027 0.76358150400384772 0.51313871413226952 0.095137429397083959 -1.6020737209243177 -1.9958743452042198 1.1324582658695104 -0.66607942061650027 0.76152532301462628 -1.268108695072421 1.1003840683649473 1.8747122802599507 0.1686568760248093 2.8378642643556096 -5.3850000000000042 -0.71579935799116567 1.4561564016417237 -2.588271885334017 1.3881507513706548 492.15126377683094 0.97869503546099301 0.056895683332329521 3.4377919477687695 0.431630790984742 5.5637362433350583 49.853681808188846 9247.5161290322594 -0.21105746588759161 0.46177856989812821 -1.5880080130058583
decision_type=2 2 2 2 2 2 2 2 2 2 2 2 2 2 2 2 2 2 2 2 2 2 2 2 2 2 2 2 2 2 2 2 2 2 2 2 2 2 2 2 2 2 2 2 2 2 2 2 2 2 2 2 2 2 2 2 2 2 2 2 2 2
left_child=2 3 5 4 46 -1 9 -8 -5 11 -9 12 -6 16 -15 -16 -7 18 33 20 21 24 54 -24 -3 -26 -27 29 -29 -19 -25 -4 -12 -18 -32 -13 37 -11 -17 53 41 -33 43 -42 -21 -46 47 -2 49 -41 -51 52 -50 -10 58 57 -57 59 -22 -43 -53 -23
right_child=1 19 31 8 6 13 7 10 39 36 32 35 -14 14 15 38 17 27 -20 44 22 61 23 30 25 26 -28 28 -30 -31 34 40 -34 -35 -36 -37 -38 -39 -40 48 42 55 -44 -45 45 -47 -48 -49 51 50 -52 60 -54 -55 -56 56 -58 -59 -60 -61 -62 -63
leaf_value=-0.019588551716641697 0.30188507995665115 0.2184147923012425 0.011363158012261012 0.0047223922082849472 0.11034726271958828 -0.030659624682735691 0.0059194422052533495 0.39509904858747441 -0.031042231822527373 -0.029563206320101391 0.12757838631383001 0.016959066139459026 -0.031180885732163981 0.004675037765902809 0.44283445901643725 0.21686762639160551 -0.029063563040288155 0.11769648854289673 0.43938019173474041 0.1561589074573087 0.28910804679979285 0.16498543282136896 -0.030727298598980841 0.010048549902280124 0.19855440032334246 0.12534205291392239 0.049151373085964636 0.21109833979462489 0.068323131505957035 -4.5726573399860927e-06 0.14665603133458083 -0.029786268140551925 0.2279543120085509 0.2784554775444999 0.16915755641682725 0.1748702532160851 0.0039318818222702796 0.29502554642130968 0.065886909188140635 0.020198698970651633 -0.030079884768127993 0.13238707123592194 0.018529394988227633 0.23461045427829672 0.16766704446378916 0.18621296748297328 -0.016033924323494087 -0.028500645238774783 0.14179164877689485 0.41352509189039682 0.20235293494626402 0.091501136950623466 0.19991659698126676 0.15726704383122303 0.17966894515401083 0.017806150323246485 0.2851216947147357 0.33119471070305567 0.076342522701773344 0.26064526591823078 0.24324319337362044 0.065016109698644728
leaf_weight=146.04511242732406 13.844917714595796 70.987230736762285 37.767333341762424 44.047296350821853 692.48732079938054 89.988610247150064 43.459759412333369 22.138554900884628 35.042651819065213 12.690993180498483 174.03632002137601 32.933803731575608 62.15453739836812 45.669705146923661 12.920263120904563 84.721529642120004 16.61671584285796 87.279137233272195 23.494497770443559 2011.5328241754323 85.863855913281441 882.18290612101555 26.675729896873236 38.273729270324111 98.248947622254491 258.4834029302001 359.7608185261488 66.715602066367865 196.46578064747155 264.15553790517151 2549.1216884348541 16.942933961749077 156.8266406301409 14.946189943701027 3819.0643351748586 355.88246077857912 137.25960193388164 19.185889143496752 49.534497529268265 30.88450857065618 21.01347191631794 58.846283618360758 64.600392492488027 72.869312010705471 3914.9157012440264 4164.492828194052 108.14923850260675 10.646949630230663 1477.0124599765986 17.515777360647917 418.0572039950639 25.656907178461552 280.25344650447369 33.737670056521893 1879.3959962762892 32.395197376608849 19.769555637612939 48.822503680363297 14.298398580402134 71.900851752609015 135.80890535004437 49.245263714343309
leaf_count=5325 83 355 878 708 11412 3067 940 31 744 227 2263 526 1363 1390 123 749 584 1836 288 7653 294 2983 540 585 384 2403 4367 946 4299 8451 18548 403 1047 134 19467 3554 2695 131 828 530 499 666 1175 439 16625 9147 3008 285 13515 99 2587 255 757 288 4844 555 57 290 147 418 380 370
internal_value=0.157863 0.16195 0.0927558 0.14121 0.116004 0.0686734 0.123601 0.170387 0.159739 0.109348 0.190553 0.120181 0.0986608 0.0822158 0.146051 0.189573 0.0658362 0.0788338 0.262065 0.166394 0.159737 0.136449 0.164478 0.158488 0.108683 0.0975178 0.081162 0.062016 0.10519 0.0294691 0.159281 0.151923 0.175708 0.120545 0.160175 0.16158 0.0358196 0.168739 0.162084 0.162517 0.164893 0.19792 0.112137 0.175641 0.173061 0.177249 0.0179093 0.16266 0.165381 0.199172 0.211779 0.157065 0.151172 0.062213 0.183855 0.214638 0.122628 0.240523 0.25982 0.204385 0.219861 0.159779
internal_weight=26105.7 24562.3 1543.48 4339.71 1841.7 1098.55 1709.06 396.461 2498.02 1312.59 353.002 1143.46 754.642 952.508 192.846 147.176 759.662 669.673 55.0574 20222.5 10131.6 1718.91 8412.69 6433.14 787.48 716.493 618.244 614.616 263.181 351.435 6406.46 444.928 330.863 31.5629 6368.19 388.816 169.136 31.8769 134.256 2453.97 407.161 248.677 158.483 93.8828 10090.9 8079.41 132.641 24.4919 2385.19 466.457 435.573 1918.73 1757.27 68.7803 1979.56 231.734 52.1648 179.57 100.162 130.747 161.466 931.428
internal_count=169540 136140 33400 47428 27565 28020 24189 4281 19863 19908 3341 16855 12775 22695 3090 1700 19605 16538 1006 88712 55287 10862 44425 39140 7509 7154 6770 15532 5245 10287 38600 5380 3310 718 38015 4080 3053 358 1577 19155 4502 2389 2113 938 33425 25772 3376 368 18123 3216 2686 14907 14272 1032 5285 1986 612 1374 441 1084 635 3353
is_linear=0
shrinkage=0.03


Tree=5
num_leaves=63
num_cat=0
split_feature=25 43 25 7 15 35 49 2 46 18 14 15 17 28 26 30 26 35 25 26 7 3 18 18 46 45 40 39 41 27 25 3 5 28 14 21 21 18 23 23 7 3 46 28 46 9 37 49 49 33 31 35 37 8 17 17 15 21 35 33 46 40
split_gain=5440.34 1802.46 1697.79 2061.39 1513.35 1323.8 1865.33 1155.41 999.046 1514.21 1239.92 950.358 934.479 1066.45 900.869 1068.06 900.459 818.532 790.829 763.446 808.624 819.943 756.829 759.34 1059.97 861.689 739.321 718.275 753.726 710.658 706.463 706.345 852.472 670.469 891.887 653.974 653.588 1182.86 607.258 609.851 596.419 596.025 593.208 592.635 586.348 581.931 577.861 577.12 575.444 562.958 968.057 817.834 557.043 547.129 542.578 541.535 528.391 526.135 523.044 632.562 496.869 508.953
threshold=2.4810074298286477 0.83851811447574487 3.1461848966399568 0.7322670427471617 -0.26563890899010306 34.721560047842154 0.81145199063231865 3.203448906883517 0.1845941936851028 -3.0781688738981798 4530.2741935483873 -0.3952418618724684 0.90555274910411054 0.68724227019130735 0.85160921207155615 3.1654211514509316 1.7794665823951838 782.03943404239192 5.4880424890184889 2.1203651513752315 0.54266524849570585 -0.9405963050482784 -9.6855052232697343 1.5910170980870952 0.83931044717055803 0.14726550204595532 0.43732184477451946 1067.46202587633 -0.53166034963770004 1.3055346285684368 3.3537708285279453 -0.25708736920128017 -0.2249999999999989 1.0193201760895587 9832.0806451612934 4.237350697059866 0.57142857142857684 3.4533171296704359 0.43994456150687394 0.086589774735329639 0.15759907658629876 -0.15793457644502815 0.71008277728817837 1.3257786325189176 0.15298998436508307 211432.00000000003 -0.016180629532119215 0.69734889895361551 0.032950582351779965 17560491.300000004 2.9790058709620086 65.976608316254072 0.40006102915842257 1.3382832943173397 -1.042878259275495 -2.074959953655839 0.92308855563725944 -9.3483328337802902 573.87539238188504 913492.10000000021 0.09696130277847731 0.85369097042034259
decision_type=2 2 2 2 2 2 2 2 2 2 2 2 2 2 2 2 2 2 2 2 2 2 2 2 2 2 2 2 2 2 2 2 2 2 2 2 2 2 2 2 2 2 2 2 2 2 2 2 2 2 2 2 2 2 2 2 2 2 2 2 2 2
left_child=1 4 3 5 -1 7 11 22 9 17 31 -7 13 40 26 -16 29 -6 19 36 21 -21 -2 25 -25 -24 -15 -5 57 -13 33 -11 -33 55 -35 46 37 38 39 -4 -10 44 -8 52 -38 -12 -14 -18 -30 51 -51 -23 -3 -46 -54 -22 -42 -29 59 -59 -50 -62
right_child=2 43 18 27 8 6 42 -9 12 10 45 16 35 14 15 -17 47 -19 -20 20 30 49 23 24 -26 -27 -28 28 48 -31 -32 32 -34 34 -36 -37 41 -39 -40 -41 56 -43 -44 -45 53 -47 -48 -49 60 50 -52 -53 54 -55 -56 -57 -58 58 -60 -61 61 -63
leaf_value=-0.020449960212637924 0.26304488424324884 0.14908049657432038 0.1380410346350435 0.17258958759887427 -0.03047232552564947 0.0025704369600542845 -0.031782603721459843 0.20474849558185462 0.2317553236082924 0.43446358631585313 -0.029755738030990422 0.040472951050289481 0.2329223515131171 0.25077297641435842 0.052538676480617663 0.27165023079872846 0.10865595563484826 0.24609414265205695 0.15086969269940839 0.16613855669773525 0.18719721347831725 0.10792628151942532 0.1093958948573785 0.14354834057656612 -0.0042765767369128925 0.021339329142463712 0.066286800746357191 0.18814319728108936 -0.030466681686127706 0.16519327769163503 0.14152752759301698 -0.028096443434794064 0.27549799041864026 -0.031743685288763944 0.18913529157969441 -0.02989479433724869 -0.030783591465231672 -0.0023644390459365947 0.034134033330300816 0.19952132376483936 0.012539526139223937 0.17002239498590571 0.11676057424582961 0.012428932975795585 0.14520317398855054 0.18571970967847001 0.070919255566405326 -0.031034742193957097 0.021463622474720497 -0.032008187541695557 0.1058955282925324 0.13703699898435145 0.14968931313800041 -0.031302235776863412 -0.03105718268883307 0.027686318986603203 0.12358226551103658 0.097017255334540614 0.17998417452857607 -0.01339457415872608 0.16153603957776125 0.11964545155371845
leaf_weight=157.88342125341296 15.723547952249644 477.40798303671181 2081.8883862886578 532.84084237925708 49.876317039132118 48.224538614973426 88.607868585735559 54.262858917936683 11.548612881451843 20.219097893685102 22.046881349757314 44.675093952566385 61.003882700577378 51.271875673905015 271.88421678729355 20.732340333983302 278.52307594753802 10.887200374156235 6392.7517323903739 375.54107949882746 21.45500753633678 1776.2668614648283 126.9475477039814 167.19011171348393 58.829724214971066 462.27286903932691 32.800728162750602 36.263669462874532 17.002429276704788 671.58252432569861 7850.5557802524418 10.096334323287008 41.790665119886398 19.858606413006783 87.547220563516021 15.304147636517881 17.816543255001307 53.458221934735775 48.295662388205528 161.58110566996038 448.6570408642292 1659.337576193735 32.147851230576634 36.169341541826725 761.34752917848527 21.558670362457633 30.928054668009281 28.952903592959046 29.727243892848492 57.097949799150229 222.35185811296105 1770.2711030263454 26.026870733126998 15.782645121216772 32.777719574049115 134.72836493328214 41.245676323771477 99.801431696861982 29.800817949697375 86.531163144856691 757.75361710041761 427.27954404056072
leaf_count=5752 22 4461 11579 2485 1636 1301 1683 191 104 163 677 735 419 526 5573 164 3226 56 13340 934 79 13411 1972 1895 1007 8846 719 217 289 5738 25706 312 346 232 265 291 277 685 543 904 12442 7013 297 521 4064 95 396 528 378 913 1299 10350 171 195 662 1599 586 806 74 1370 4546 2474
internal_value=0.135245 0.0859474 0.138621 0.120675 0.066571 0.0995932 0.120257 0.0716447 0.0784062 0.144103 0.207346 0.132838 0.066503 0.0561628 0.0942534 0.0689456 0.138963 0.0222146 0.141742 0.138324 0.134303 0.123473 0.0627136 0.0585286 0.105209 0.0404694 0.180457 0.142333 0.131359 0.157486 0.139894 0.283094 0.216953 0.0908941 0.148352 0.149848 0.14861 0.137037 0.14029 0.142557 0.0274126 0.159608 0.00837243 0.130424 0.137678 0.0784838 0.179803 0.0954346 0.141083 0.119242 0.0776943 0.122492 0.13834 0.141579 0.0500562 0.0506691 0.0221272 0.0835235 0.0651705 0.0459292 0.14351 0.146548
internal_weight=29495 1892.12 27602.9 4094.94 1319.74 2077.94 1192.71 885.227 1161.85 176.475 115.712 1071.96 985.377 878.14 376.689 292.617 1023.73 60.7635 23507.9 17115.2 12315.7 4201.53 830.964 815.24 226.02 589.22 84.0726 2017 1484.16 716.258 8114.14 72.1061 51.887 263.589 107.406 107.236 4799.51 2345.22 2291.77 2243.47 501.451 2454.28 120.756 572.382 794.947 43.6056 91.9319 307.476 1231.76 3825.99 279.45 3546.54 536.213 777.13 58.8046 156.183 489.903 252.397 216.133 186.333 1214.76 1185.03
internal_count=169540 36072 133468 40080 30257 27441 13508 13933 24505 3285 1593 11528 21220 20114 6982 5737 10227 1692 93388 80048 54788 26907 13742 13720 2902 10818 1245 12639 10154 6473 27881 821 658 2175 497 1106 25260 13711 13026 12483 13132 11549 1980 5815 4536 772 815 3754 7687 25973 2212 23761 5294 4259 833 1678 13028 2467 2250 2176 7398 7020
is_linear=0
shrinkage=0.03


Tree=6
num_leaves=63
num_cat=0
split_feature=25 42 25 41 48 33 15 36 36 35 18 26 31 14 30 30 35 39 21 21 36 47 36 22 39 24 22 28 26 38 26 40 2 21 22 35 45 15 28 0 45 3 41 18 24 0 35 28 30 13 35 14 30 36 36 18 49 38 41 4 25 28
split_gain=4127.91 2267.93 1317.54 1131.71 1010.6 1130.59 1264.28 975.269 1056.58 1005.76 950.025 1417.14 1657.47 890.196 880.186 848.288 892.752 766.148 765.966 978.554 897.463 1020.44 883.901 742.837 877.974 1048.66 753.159 856.169 746.051 736.256 831.707 716.779 701.952 699.957 696.765 673.214 670.582 668.19 652.487 642.775 629.667 846.22 826.24 610.387 607.561 991.573 600.077 587.288 582.242 578.312 573.238 572.051 555.601 540.369 545.123 539.979 534.071 549.12 516.444 513.067 476.964 468.131
threshold=3.1461848966399568 0.72466061273160898 2.435062138544803 -0.54194427844644288 0.64635913750441865 194310.90000000005 1.3073422390707499 -0.88955759008880897 0.44377578341300744 9.6707978007577307 0.39539809203918924 1.0187300949371678 1.8788177803591626 221.59032258064519 -1.4454664914586111 2.6497435931664786 41.813863709582755 70827.103942652335 -12.536864607606928 6.7392819721259203 4.0333365232953087 0.087986483428152254 3.6715435313729459 1.3989589531308335 9644.4524193548405 -0.44261647646736324 2.1574139466626021 0.86959498448986472 1.7546845092627321 -0.87987807894570713 1.9436843652034808 0.69352341955457919 2.03176402129353 -17.215978380581102 4.6608580364925514 4.2306387881042635 0.16288924558587484 0.43684175005168147 0.30880055306776288 0.27225945452805156 0.56049076527065378 -0.67939272596753997 -0.44493144845796312 -2.2645531813599131 -0.4780868239236819 1.7645026994178894 6.3380072433870955 1.0920046217983443 -0.92289198708519582 -1.0000000180025095e-35 1.03805851996097 6961.3870967741941 -1.8530199525651083 4.8778825798884382 -2.2717603947911864 4.0004535931912253 0.55182499829199994 -0.048585083592880246 0.94803648601792501 62.162162162162268 2.6103753109303747 0.28893981243160038
decision_type=2 2 2 2 2 2 2 2 2 2 2 2 2 2 2 2 2 2 2 2 2 2 2 2 2 2 2 2 2 2 2 2 2 2 2 2 2 2 2 2 2 2 2 2 2 2 2 2 2 2 2 2 2 2 2 2 2 2 2 2 2 2
left_child=1 2 7 14 5 13 15 -1 9 33 56 12 -12 35 -3 16 -7 36 -2 20 21 40 29 24 46 31 39 28 -28 30 -23 -26 -31 -9 52 50 -11 43 -5 -25 41 -20 -43 -16 -45 -46 -6 -35 -13 -24 -4 -8 -15 54 60 -17 -10 -58 -55 -21 -40 -22
right_child=18 3 4 38 23 6 51 8 10 17 11 48 -14 34 37 55 -18 -19 19 59 61 22 49 26 25 -27 27 -29 -30 32 -32 -33 -34 47 -36 -37 -38 -39 53 -41 -42 42 -44 44 45 -47 -48 -49 -50 -51 -52 -53 -54 58 -56 -57 57 -59 -60 -61 -62 -63
leaf_value=-0.010508055975437677 0.13940556264638368 -0.031749723058330903 -0.03048979217999746 -0.030799069025443698 -0.031079204704257606 0.024364033118690287 0.058953633382197418 0.24212031956011115 -0.022551947630576216 0.071532964297350038 -0.030476229369105202 0.12322829477942704 0.22086124051631334 0.028837067445264274 0.16600671110623158 0.16219337221552044 0.077447520525754723 -0.030251618658869186 0.18577066324492381 0.12440545736509523 0.023553643845060309 0.13406531111914063 -0.014360868540654013 0.27018686655005675 0.13810557836733364 -0.032208870751230759 0.12476157789037663 0.16293022608871705 0.042273633920039223 0.10025485505326845 0.045055490625796828 0 0.11915772985438602 -0.031166877911843898 0.049333834480722275 -0.031371001187314909 0.16705515030842585 -0.031253393886384408 -0.030386796986254148 0.057903104480035106 0.11672096159396694 0.070799554429168562 0.1383136633117612 0.15540893969696729 0.0050413913942050281 0.13615033349719222 0.1355736117204896 0.16078977965626948 -0.0055853860568859121 0.091125349394236971 0.16363424066381715 0.27319997998431278 0.1765427373382977 -0.031650253511202688 0.14557532096765338 -0.030467004902576519 -0.010476404031565618 0.094298442954440481 0.14248944545918374 0.13939196974320103 0.11054398578028271 0.14891166445050522
leaf_weight=157.7086089104414 2618.1748985126615 53.482788816094398 18.400171212852001 20.76935401186347 20.606272153556347 549.21828799322248 16.982828350737691 11.017506271600721 189.63433342240751 94.852509621530771 30.887101335451007 41.199831586331129 96.044724941253662 25.606972569599748 114.31685389019549 100.06073305755854 595.47908594086766 25.205933045595884 304.76841441914439 6093.3638408631086 28.087391445413232 135.98830785229802 84.177647095173597 58.757973216474056 104.73100288957357 95.225334115326405 290.12442756816745 299.04706231504679 151.63280578330159 2833.8211536556482 311.01321428455412 49.745698602870107 4969.4022093694657 86.857864916324615 58.784898599609733 52.132579164579511 237.57996383681893 33.551754863932729 27.785021249204874 17.216482877731323 2694.3533874545246 187.38341104984283 1474.9101283419877 77.473123742267489 130.40480932220817 85.400045143440366 261.82049638219178 16.143563665449619 125.03223534300923 103.48449936695397 49.242762923240662 36.609232075512409 265.12372479215264 33.094766020774841 1427.2574799899012 14.682152541354297 78.729757035151124 103.42835788615048 27.059115180745721 3283.5519752968103 90.367833802476525 931.54381399787962
leaf_count=4721 4315 1001 341 387 344 9007 177 6 5609 2235 858 501 540 286 706 708 7151 672 569 19503 263 703 851 225 830 1593 2286 994 1757 21409 2650 682 16739 2329 599 1044 2625 650 754 153 7876 1366 6530 578 2203 276 2065 147 2733 492 383 97 1479 558 8480 226 2156 2171 106 6504 723 3618
internal_value=0.118487 0.0971469 0.084878 0.122693 0.0954164 0.0804829 0.0661011 0.0593273 0.0690205 0.103354 0.0445448 0.0848333 0.159918 0.120489 0.0826383 0.059914 0.0520245 0.128039 0.123846 0.122101 0.117045 0.114966 0.108687 0.115072 0.0871467 0.0458729 0.133132 0.123572 0.0966139 0.110153 0.0723799 0.0939223 0.112307 0.0254561 0.144658 0.0493238 0.140105 0.0965535 0.134816 0.223498 0.126306 0.139368 0.130752 0.107132 0.0836871 0.0573274 0.123337 0.000146676 0.0268685 0.0439673 0.11111 0.207686 0.163687 0.136978 0.140418 0.137465 0.0126263 0.0491878 0.0476833 0.129668 0.0774004 0.145274
internal_weight=32600.5 6546.52 4425.55 2120.96 3131.23 1782.32 1313.03 1294.32 1136.61 471.657 664.956 293.164 126.932 469.291 494.629 1259.44 1144.7 357.638 26054 23435.8 14058.9 13099.3 8437.89 1348.91 532.129 249.702 816.779 740.804 441.757 8250.22 447.002 154.477 7803.22 114.019 349.516 119.776 332.432 441.147 1626.33 75.9745 4661.42 1967.06 1662.29 407.595 293.278 215.805 282.427 103.001 166.232 187.662 67.6429 53.5921 290.731 1605.56 1545.41 114.743 371.792 182.158 60.1539 9376.92 118.153 959.631
internal_count=169540 76152 59730 16422 32427 21498 17366 27303 22582 8014 14568 4632 1398 4132 5414 17092 16158 5532 93388 89073 63066 59185 42844 10929 5514 3105 5415 5037 4043 41501 3353 1512 38148 2482 2364 1768 4860 4413 11008 378 16341 8465 7896 3763 3057 2479 2409 2476 3234 1343 724 274 1765 10621 9957 934 9936 4327 664 26007 1477 3881
is_linear=0
shrinkage=0.03


Tree=7
num_leaves=63
num_cat=0
split_feature=27 42 31 35 39 35 34 31 10 7 2 41 0 42 31 22 31 43 0 0 36 14 18 10 32 35 20 20 38 45 22 41 42 15 43 24 0 32 36 26 26 31 6 6 7 10 27 42 43 18 16 0 46 45 46 6 9 21 39 36 16 24
split_gain=2294.3 1582.35 1831.26 1644.61 1356.93 1138.2 1104.27 1014.35 945.247 837.67 800.371 785.412 716.11 660.281 682.481 609.965 608.161 574.002 560.74 531.309 1005.92 875.984 687.782 556.3 533.809 687.395 633.894 524.113 515.181 602.001 508.992 583.486 764.731 501.933 489.785 487.97 486.911 485.333 484.293 474.709 479.428 468.756 475.657 465.346 459.6 505.204 696.12 505.579 477.899 447.335 769.9 551.546 539.932 495.957 966.614 444.521 443.609 430.883 407.279 403.466 403.242 395.402
threshold=2.8378642643556096 0.72063077624435345 3.2172886575671069 16.012019759664685 12034.739516129035 177.58775244959085 -1.0000000180025095e-35 1.9835050845151885 4.5000000000000009 1.128123091415647 0.7162267722253598 0.41213526402750861 0.78492135503931293 0.014224779849779852 2.0242265658870968 -4.8697271354923233 3.0091079059260855 0.32287057769816396 -0.14196143579726053 -0.77288200611220215 -1.8567197715158088 239.08064516129033 -1.1975003334697953 3.5000000000000004 0.87378020200783457 684.66784842601362 -0.052624772875681673 0.69011429766713495 -0.44754249350939651 0.41501368675395156 -13.066588189130862 -1.6293459866699822 0.96200681027463186 -0.26563890899010306 0.93625998635031527 0.55723957352645004 -0.012018574515164724 0.31149589704190733 -0.1729097469258081 2.698147477765211 3.0099943966611953 4.3986089399845687 0.56788413528949122 0.98260869565217746 0.41064622073684959 4.5000000000000009 3.7411382411125889 0.25285723615465 0.14042529216702621 -1.1594540846974188 -1.3684012033809096 -0.12290813591799675 0.4540144616119241 0.10794552669552672 0.39105311431668477 0.62414379544921028 -665763.99999999988 15.034757937028415 16961.55322580646 -1.2732009099915791 3.3056327394867062 -1.3555189061699287
decision_type=2 2 2 2 2 2 2 2 2 2 2 2 2 2 2 2 2 2 2 2 2 2 2 2 2 2 2 2 2 2 2 2 2 2 2 2 2 2 2 2 2 2 2 2 2 2 2 2 2 2 2 2 2 2 2 2 2 2 2 2 2 2
left_child=1 2 3 9 6 7 10 34 30 13 -5 -9 17 -1 18 -12 -16 -8 -15 43 21 -21 36 -24 25 26 -22 35 29 37 -3 32 57 -11 -6 -7 -23 -2 39 61 -41 58 -43 -4 45 -30 47 55 -48 50 51 -33 -52 54 -51 -47 -55 -32 -26 -31 -39 -10
right_child=28 8 19 4 5 27 12 11 38 33 15 -13 -14 14 16 -17 -18 -19 -20 20 24 22 23 -25 41 -27 -28 -29 44 59 31 49 -34 -35 -36 -37 -38 60 -40 40 -42 42 -44 -45 -46 46 48 -49 -50 53 52 -53 -54 56 -56 -57 -58 -59 -60 -61 -62 -63
leaf_value=0.15987594762259083 0.19806331139356709 0.14205539261546174 0.11888489258362621 -0.031286811080617524 -0.011589976926164317 0.10734393758778167 0.091738747072118002 0.043363627091617674 0.10597872827211205 -0.031864043070905408 0.047655464340521696 0.10379890812278232 0.0049013285723140268 0.06135114945662954 0.064458701841353119 0.10160949788258178 -0.015921883798984113 0.14329378868248793 -0.014723309546528226 0.1688019382778079 0.073721451293321888 0.12142866260822301 0.055280975211199568 -0.020457002458270729 0.16694103010192396 0.1399334316005226 0.10272999691639124 -0.031321546496977881 0.11129256394877744 0.12368903653682972 -0.034128284331122749 0.13510585224010113 0.10857982544571254 0.10676079867323218 0.15050606016823004 0.0040292390015186285 0.055965784263682664 -0.033057936582564298 0.094968154987577311 0.14307793285976214 -0.032648722783015734 0.067435410612468188 0.13192067246270675 -0.032899846822482752 0.11978061826138299 -0.032379072838898827 0.12048595389019977 -0.017199409971375829 0.0066334419686943187 0.15822114477687657 0.11196393960745389 -0.01523619239574283 0.018987603278495083 0.012116436996762545 -0.010523684709655709 0.13947151018069417 0.12040324601605361 0.11788023183724332 0.056639813199216425 0.091789021786499933 0.086159902287305537 -0.007700956806344768
leaf_weight=41.349510971456766 13.273338660597799 571.81568925082684 1739.8872873410583 50.481460696086287 245.36882179230452 767.55213904194534 263.14119321666658 493.60454186983407 34.052042799070477 24.943846646696329 242.39414674416184 320.59678907319903 42.128392726182938 122.99512105248868 723.22901061549783 898.49176540412009 95.472839590162039 841.96703492663801 292.90467262081802 72.181592121720314 923.85018334537745 198.53252527862787 292.56955766677856 123.52119001187384 284.55088829062879 346.11338736116886 2707.7574978489429 27.055427800863981 2666.7518050502986 584.73459721729159 74.66519926674664 28.202330844476819 146.88779600523412 312.33757487870753 17.002314010635018 43.619775179773569 216.92743660882115 67.225601091980934 859.62211766093969 63.703637879341841 17.371158612892032 175.37256181612611 263.50840352848172 17.949243808165193 9992.6573995947838 18.506229422986507 240.35999233275652 96.513410575687885 38.674956260249019 50.535098493099213 751.20131345465779 87.826802050694823 61.328568674623966 34.614381346851587 74.677835181355476 46.19618502445519 4392.0748927146196 20.566242203116417 35.2584198564291 989.04456814005971 39.818741109222174 127.73766283877194
leaf_count=133 13 1309 5238 1149 6003 6043 3148 6533 135 373 2978 2128 487 2801 9051 8163 1274 4970 7582 357 5931 777 2255 1413 849 937 12813 477 7937 1225 745 123 420 1690 87 511 1564 831 4753 167 167 906 543 171 19647 197 550 929 263 299 4597 1017 631 290 1279 116 16962 42 216 3444 199 1702
internal_value=0.105526 0.0990473 0.0928202 0.080262 0.0900531 0.0712443 0.105415 0.0507495 0.1102 0.0544054 0.0850286 0.0672622 0.126491 0.043226 0.0391905 0.0902008 0.0550735 0.131115 0.00786039 0.102766 0.0982112 0.0690438 0.0601884 0.032795 0.10376 0.0992859 0.0953736 0.0974712 0.114567 0.0987665 0.114707 0.11195 0.0658835 0.096436 -0.000542776 0.101804 0.0874717 0.0337013 0.0843807 0.046658 0.105451 0.127053 0.106372 0.117315 0.116603 0.106345 0.0761867 0.0263091 0.104796 0.113972 0.0946663 0.0221229 0.104982 0.117888 0.0582708 0.0905283 0.11956 -0.000385423 0.155004 0.103714 0.0116484 0.0167109
internal_weight=35455.3 20661.5 13264.6 5866.64 4253.4 1914.8 2338.6 1076.57 7396.88 1613.23 1191.37 814.201 1147.24 1275.95 1234.6 1140.89 818.702 1105.11 415.9 7397.98 5640.14 903.732 831.551 416.091 4736.41 3977.72 3631.61 838.227 14793.8 1694.1 6294.4 5722.58 242.119 337.281 262.371 811.172 415.46 120.318 1102.49 242.865 81.0748 758.69 438.881 1757.84 13099.7 3107 440.251 161.216 279.035 5480.46 928.559 116.029 812.53 4551.9 125.213 64.7024 4426.69 95.2314 319.809 1573.78 107.044 161.79
internal_count=169540 134189 99551 65581 42677 21782 20895 14751 34638 22904 12290 8661 8605 20841 20708 11141 10325 8118 10383 33970 28561 6366 6009 3668 22195 19681 18744 7031 35351 5712 27714 26405 1207 2063 6090 6554 2341 1043 6924 2171 334 2514 1449 5409 29639 9992 2055 1242 813 25198 6368 1140 5228 18830 1578 313 17252 787 1065 4669 1030 1837
is_linear=0
shrinkage=0.03


Tree=8
num_leaves=63
num_cat=0
split_feature=25 43 35 16 33 5 41 25 30 29 28 42 3 26 2 8 45 25 16 30 39 31 49 39 38 38 20 41 0 9 5 14 7 16 27 33 42 14 38 26 27 32 15 16 9 48 48 31 43 27 2 28 43 41 5 45 15 8 38 29 3 28
split_gain=2910.73 1742.93 1575.31 1341.6 857.578 1001.6 823.592 807.321 768.99 756.932 733.645 726.916 718.467 689.396 709.386 684.919 681.074 631.682 630.946 757.642 863.881 690.106 569.102 572.74 709.963 651.342 749.413 655.08 980.508 562.271 547.023 539.63 533.262 519.578 506.934 497.955 997.99 687.373 532.756 515.353 667.76 559.22 489.583 488.622 485.746 484.236 668.236 484.8 484.169 495.45 470.339 470.498 461.878 449.025 967.394 433.815 414.855 409.85 408.273 391.553 390.379 388.802
threshold=3.1461848966399568 0.71705990088343041 28.930666681532802 -0.89779964601822504 701784.60000000009 -0.29700000000000054 -0.28881683825267612 1.961020449760235 -1.9151639892703998 1.920000000000001 0.36615450265399713 0.60764952215604484 0.044563744748793682 0.73528284079556949 3.203448906883517 0.72623342080560904 0.01371744693662502 5.4880424890184889 -1.8409413249573878 -3.3263440639203234 5044.1673655913974 2.9174363000239691 0.02900462697411189 675.57473118279574 0.55230978376547413 0.37297484750060056 -1.0000000180025095e-35 -0.52242450029729659 0.59322033898305215 60759.000000000007 4.5449999999999262 205398.14516129036 0.50707834695531917 -1.667932228000079 0.91681313714255819 19519357.700000003 0.61145537564269825 205398.14516129036 2.4439395239093575 2.1203651513752315 2.3373432581457694 0.36157299764109346 -0.26948778910447196 2.5491995351245635 110803.50000000001 0.66962968815844925 0.64635913750441865 4.2813455657492341 0.66971087016958586 3.170490357730936 1.4684287812041135 0.89462119780146021 0.073103232406516741 -0.2731768192868394 -0.14999999999999888 0.72630152617315658 0.10962683768162175 0.54851747721593169 -0.36834031054927246 3.0964622184880439 -0.97081370283567414 1.0783753589198768
decision_type=2 2 2 2 2 2 2 2 2 2 2 2 2 2 2 2 2 2 2 2 2 2 2 2 2 2 2 2 2 2 2 2 2 2 2 2 2 2 2 2 2 2 2 2 2 2 2 2 2 2 2 2 2 2 2 2 2 2 2 2 2 2
left_child=1 2 7 9 8 10 12 -1 -5 34 -6 -8 -7 -9 16 61 -15 18 19 -2 52 -22 60 43 25 27 -27 28 -25 -18 -29 -12 -17 -20 -4 38 37 -37 39 41 -41 -35 -11 -24 -28 46 47 -26 49 -23 51 -38 -21 55 -55 -54 -39 -16 -50 -40 -3 -10
right_child=17 22 3 4 5 6 11 13 15 42 31 -13 -14 14 57 32 29 -19 33 20 21 48 23 24 45 26 44 30 -30 -31 -32 -33 -34 35 -36 36 50 56 59 40 -42 -43 -44 -45 -46 -47 -48 -49 58 -51 -52 -53 53 54 -56 -57 -58 -59 -60 -61 -62 -63
leaf_value=-0.020958918479971819 0.1095337363512903 0.11958722861541594 0.15667096804502667 -0.031572024372230771 0.14338466935970443 0.15068839898647651 0.055262096934223404 0.19405387876113195 0.15012685908201098 0.21340958623551737 -0.015154533076552849 0.10886892554022987 0.010145510239310936 0.14402150154824772 -0.031162722699078611 -0.031416655028480921 0.030163922398722422 0.10646849346538564 0.13378850928860803 -0.00011430435512048815 -0.032748269235817258 0.010583447325415354 0.12557893772787493 -0.010209991504455109 -0.031856104119555445 0.16468919085234127 -0.032055827614566185 0.10074343685298938 0.09167401501355521 0.1009660651752684 0.05234966239128757 0.1616694921094774 0.10737407756006327 -0.032743349828049072 -0.011010797431198649 0.0093298957901923954 -0.0089275644835575263 0.086448279710683501 -0.033085150377980897 0.08296204364029848 0.10000194987816492 0.10822517275245903 -0.029122740212249854 0.0112973440148374 0.12049444238015737 -0.03303512630491464 0.19308728330054589 0.11493902119350498 -0.034411755914951374 0.080829604878277492 0.10721735199582794 0.13625799279278467 0.13924949357904787 -0.033537527501708499 0.089696194606343649 0.083378917465655511 -0.004290248559881373 0.15248985820078037 0.091250858656817674 0.12264394962163386 -0.032048614734863499 0.027803389811038779
leaf_weight=163.51908402144909 717.99083653092384 20.311771612614393 16.43203141912818 28.45364080928266 36.359693106263876 248.58090771920979 648.55478538572788 28.09689817763865 427.64569551125169 25.770373180508614 192.61534561403096 354.448312709108 37.904909420758486 54.207211026921868 12.311172831803558 38.05251924879849 1181.5088053867221 8252.5024423971772 376.52999814786017 48.400847122073174 80.410665292292833 253.71245176531374 673.25232372619212 143.77524166181684 51.173946686089039 213.18649569712579 33.067213241010904 1708.0460948962718 206.18070978485048 109.73452706821263 244.01031656749547 15.887697575613855 69.029482631012797 25.003881165757775 233.59159212373197 220.3871604166925 64.914410116150975 359.1144368480891 46.809617532417178 2704.5670195184648 9455.146238906309 5276.2858129981905 10.067597670480607 35.721416346728802 41.411712884902954 65.956762054935098 28.003343675285578 32.150193899869919 24.340433862060308 139.77350541576743 898.65877433493733 27.998738877475262 291.60730660893023 64.032039685174823 509.14891845360398 231.34341161698103 51.704081173986197 77.889046410098672 359.20215550065041 19.885944630950689 53.018176423385739 25.338473610579967
leaf_count=5276 1795 57 167 444 292 1771 7924 242 2531 137 3671 2110 556 277 147 698 20145 13340 911 485 1132 2138 2741 2237 937 612 517 10141 1189 1265 1750 39 532 274 4716 1725 603 1136 563 12990 28099 19505 175 347 160 872 45 145 197 532 1831 82 1050 733 2070 691 362 193 1103 41 895 199
internal_value=0.0951776 0.0785151 0.0649919 0.0804029 0.0886168 0.0767001 0.0872582 0.0421428 0.119497 0.0192978 0.0209584 0.0742986 0.132204 0.0492036 0.0462336 0.12722 0.0407045 0.0993187 0.0966617 0.0830054 0.0734398 0.0505628 0.0938694 0.0956141 0.0893622 0.0933404 0.136118 0.0879367 0.0498978 0.0362567 0.0947256 -0.000959054 0.0581915 0.0985595 0.000577845 0.0978597 0.0817819 0.0521518 0.0993433 0.0996666 0.0962193 0.107554 0.146255 0.119849 0.0531979 0.0310372 0.0689802 0.0254398 0.0592191 0.0356854 0.100569 0.0357762 0.0905166 0.0945177 0.0758897 0.114745 0.0750383 0.127324 0.0831995 0.0144285 0.0109567 0.143367
internal_weight=38084.7 7585.27 4036 2408.73 2122.87 1534.35 1289.49 1627.27 588.52 285.862 244.863 1003 286.486 1463.75 1435.65 560.066 1345.45 30499.5 22247 2719.96 2001.97 857.439 3549.27 3475.94 2766.96 2589.68 287.665 2302.01 349.956 1291.24 1952.06 208.503 107.082 19527 250.024 19150.5 1622.78 631.206 17527.7 17461 12159.7 5301.29 35.838 708.974 74.4789 177.284 111.327 83.3241 777.029 393.486 991.572 92.9131 1144.53 1096.13 573.181 522.951 410.819 90.2002 383.543 66.6956 73.3299 452.984
internal_count=169540 76152 53507 25962 20767 16363 12361 27545 4404 5195 4002 10034 2327 22269 22027 3960 21687 93388 80048 11926 10131 5102 22645 21693 18605 16606 1289 15317 3426 21410 11891 3710 1230 68122 4883 67211 5739 3223 61472 60868 41089 19779 312 3088 677 1999 1127 1082 3970 2670 2516 685 5029 4544 2803 1741 1498 340 1300 604 952 2730
is_linear=0
shrinkage=0.03


Tree=9
num_leaves=63
num_cat=0
split_feature=25 15 32 35 7 0 35 33 5 22 48 7 27 7 18 48 48 15 11 46 8 11 38 15 47 35 14 25 20 33 27 4 18 32 6 45 29 47 8 29 45 3 47 11 29 8 45 41 8 20 14 27 15 22 7 27 33 36 11 25 27 20
split_gain=2481.68 1160.61 913.882 978.298 1080.25 1036.55 807.341 1053.41 868.532 813.874 767.711 630.38 720.619 600.897 582.528 877.277 523.416 728.329 509.154 843.969 701.956 698.121 583.637 558.525 701.878 554.493 1149.38 717.051 708.884 516.456 499.444 452.897 451.634 451.63 444.246 442.134 438.458 631.784 502.643 429.092 519.583 420.822 416.884 402.473 402.321 410.979 577.182 532.527 385.065 382.831 378.442 377.746 363.894 403.083 362.967 360.463 359.518 412.009 382.324 356.743 430.272 334.072
threshold=3.2274729226465975 -0.40596224148168181 0.74859260782466308 429.5406896905294 1.0584686760181878 -0.11334298892620298 26.392887282517773 546451.00000000012 -0.29700000000000054 -13.066588189130862 0.29510545352059753 0.66349786160156266 4.0101018837290194 0.92472753990625989 -1.4183177961249367 0.06102723459379434 0.033287165281625127 -0.063443740086636044 -3.6673723160901162 0.51313871413226952 0.40519186480829306 -3.1174501378624551 0.50187896508224827 -0.26084672205806952 0.46337999111280398 64.844149756541881 1363.3387096774195 3.8901755432796281 0.84521855318874883 314605.20000000001 2.241836701347558 43.23577804146877 -2.3501109570678191 0.7061964726540535 0.10482899339292356 0.60419415127528586 0.7651594897144588 0.29468384074941456 0.39862362672396573 0.35811730495160327 0.1117918597887073 0.96201643119548408 0.74817339850784681 -3.2498334725903533 -2.7037884454555803 0.32166562876297594 0.34414554439662048 0.38066607976024786 0.27291453138564092 -0.33896768260775528 565.06451612903231 2.9830685253741938 -1.0989299174926936 -17.446560124888254 0.64964442084242291 1.1192441457748541 194310.90000000005 3.4220334997770627 4.5861941512789928 3.4501393930665936 1.8243118114089429 0.61741190104400256
decision_type=2 2 2 2 2 2 2 2 2 2 2 2 2 2 2 2 2 2 2 2 2 2 2 2 2 2 2 2 2 2 2 2 2 2 2 2 2 2 2 2 2 2 2 2 2 2 2 2 2 2 2 2 2 2 2 2 2 2 2 2 2 2
left_child=1 13 3 4 6 -5 9 34 -9 43 -11 12 18 36 16 -16 -4 32 31 20 23 30 -23 -20 -25 26 28 -28 -21 -27 -22 59 49 35 -8 -15 37 50 -38 41 -41 -19 -17 -3 48 47 -47 -46 -33 -18 -1 52 53 -13 -31 -7 57 -6 -58 60 -2 -57
right_child=11 2 14 5 56 55 7 8 -10 10 -12 51 -14 33 15 42 17 39 19 25 21 22 -24 24 -26 29 27 -29 -30 54 -32 44 -34 -35 -36 -37 38 -39 -40 40 -42 -43 -44 -45 45 46 -48 -49 -50 -51 -52 -53 -54 -55 -56 61 58 -59 -60 -61 -62 -63
leaf_value=0.17346987899690056 -0.030611279639514176 0.17419692284988619 0.1476449936083922 -0.032292044190243889 0.12325075784933821 -0.029549370443202484 0.15386910230517539 0.0042845533039660858 0.064329476088602164 -0.017178123337886483 0.043188276445398605 0.12805033642179914 0.098818784408872887 0.15718032078855909 -0.032386220465614284 0.09802007964193496 -0.030930450010618213 -0.032451980007526089 -0.033478209743827279 0.097752168383621371 0.070280296419201554 0.084378822909578696 0.028041000294676002 0.028093002830289072 0.087344061391510519 0.021473069197408951 0.018376393354508105 0.068849874738457134 -0.033646880033297931 0.097645658331312807 -0.034593627110617101 -0.034542525839326328 -0.031107546445479601 0.010400738581040103 0.08761792013636184 0.05076240359638149 0.12646593517183968 -0.031649920896743095 -0.0031893408621203379 0.19718539879009525 0.023155869091260443 0.10380546300022556 -0.032061771345985819 -0.028950527523630438 0.12218293834198303 0.0087452663703967651 0.072796853198556 -0.033843674661413567 0.10026582767691934 0.11818739973424477 -0.029454208276637101 0.10040386883904985 0.091296234436215082 -0.034310985306112284 0.0055438762161017559 0.12832677045712562 0.059162908977748778 0.012640659861301501 0.10294720992969307 0.099933822166310846 0.16097934830286698 -0.030534396981547401
leaf_weight=22.804101014509797 11.001262769103048 54.090962540358305 53.00418808311224 43.666482888162136 339.16947056911886 13.753720227628945 112.69758800044656 267.23198994062841 1153.9285445697606 224.2852688562125 1206.4514619894326 19.204742804169655 3430.9993023537099 67.774921419098973 47.689057782292366 2479.2863101679832 16.592952273786068 145.94023706391454 76.847690593451262 1439.6664693057537 76.562659192830324 2016.3234822154045 181.84290237165987 467.62892963550985 293.26591956801713 85.547697275876999 342.8484718054533 980.95137587934732 37.433239161968231 3124.582276571542 85.443812351673841 18.962592303752899 24.397722873836756 73.450553633272648 524.7756852414459 75.001613467931747 50.669557876884937 224.00869055651128 55.967888606712222 20.467867074534297 56.352609755471349 22.695619750767946 21.902484806254506 10.101524908095596 207.18101106025279 151.60098462179303 779.97627772204578 21.289704587310553 973.03648465126753 170.81219729408622 12.246167005971072 6773.7623773626983 8394.5783579200506 42.230457063764334 39.185944732278585 451.08051953464746 452.10702009126544 33.606395861133933 305.45706727541983 1444.1307320129126 149.81896679848433 11.849259085953234
leaf_count=47 134 138 170 660 894 303 508 4561 11481 5056 17119 34 5923 401 733 14205 274 2555 917 5490 413 9713 1379 3315 1294 531 3053 3677 372 9563 809 145 450 834 3930 457 539 5766 1103 121 613 62 304 199 629 1421 3091 186 1795 951 292 9326 21320 383 244 1720 3121 243 849 3219 336 169
internal_value=0.0867006 0.0726251 0.0755101 0.0678234 0.0634593 0.106904 0.0553005 0.0674956 0.0530518 0.0384711 0.0337176 0.0906299 0.0865212 0.0315922 0.0885594 0.0944362 0.0590707 0.0484971 0.0832693 0.0794487 0.066921 0.0753059 0.0797345 0.043233 0.0510183 0.0860577 0.0761855 0.0558038 0.0943997 0.0945406 0.0150774 0.0926495 0.0891239 0.0711165 0.0995577 0.102041 0.00808402 -0.0130062 0.058992 0.013209 0.0715005 -0.0135924 0.0968674 0.142229 0.0835304 0.0713769 0.0623971 0.107547 0.0976537 0.104874 0.103637 0.0950578 0.0907636 0.0176334 0.096508 0.119702 0.0890348 0.113348 0.0769336 0.104816 0.147746 0.124197
internal_weight=40511.2 8845.32 8263.39 5204.25 4683.9 520.35 3553.56 2058.63 1421.16 1494.93 1430.74 31665.9 16436.1 581.923 3059.14 2548.88 510.263 457.259 13005.1 9248.13 3197.92 2360.17 2198.17 837.743 760.895 6050.22 2800.9 1323.8 1477.1 3249.32 162.006 3757 211.803 216.227 637.473 142.777 365.696 259.059 106.637 245.456 76.8205 168.636 2501.19 64.1925 2152.05 1160.05 931.577 228.471 991.999 187.405 35.0503 15229.8 8456.01 61.4352 3163.77 476.683 1130.34 372.776 757.564 1604.95 160.82 462.93
internal_count=169540 80828 71389 50951 48099 2852 42992 20480 16042 22512 22175 88712 57649 9439 20438 15242 5196 5026 51726 40770 17840 12314 11092 5526 4609 22930 12592 6730 5862 10338 1222 10956 1675 1692 4438 858 7747 6105 1642 3351 734 2617 14509 337 7267 5327 4512 815 1940 1225 339 31063 21737 417 9807 2192 5107 1137 3970 3689 470 1889
is_linear=0
shrinkage=0.03


Tree=10
num_leaves=63
num_cat=0
split_feature=27 42 31 47 45 14 39 35 10 30 47 17 41 23 23 33 35 33 22 11 15 46 32 46 42 26 38 45 32 22 30 35 46 18 26 48 4 35 15 16 36 4 47 49 22 5 22 30 35 15 42 42 45 36 35 10 38 45 42 46 49 6
split_gain=1588.31 994.517 1210.01 1196.04 1341.84 980.804 820.623 762.054 628.476 624.62 624.609 600.353 587.542 544.519 511.579 465.973 651.609 599.228 425.614 413.71 468.139 433.747 528.346 559.707 439.446 391.926 378.532 434.539 377.176 353.233 450.597 909.757 487.522 542.167 415.306 391.878 353.532 349.391 344.535 334.527 332.367 355.853 357.683 332.269 320.908 499.063 392.207 320.575 319.234 307.978 300.209 297.156 565.532 285.102 290.986 351.992 416.754 283.987 280.8 276.186 272.137 268.292
threshold=2.8378642643556096 0.72063077624435345 3.2172886575671069 0.087986483428152254 0.50145350065492045 255725.56451612906 73706.378225806475 17.137870654873961 4.5000000000000009 0.31500883805297436 0.32148124736620315 -1.3732723723429396 -0.4080686661534027 0.10431373745077745 0.87715381654794389 10005568.800000003 157.19940233583819 1842313.0000000002 -0.10089713886374076 -7.6732442224633131 -1.0989299174926936 0.56824954680107898 0.54684941648666074 0.54858038513210938 0.650442863239303 1.3452710587068422 -0.44754249350939651 0.46629970622974654 0.34027291436540436 -13.066588189130862 -0.67742256843350002 8.2580682948235236 0.74517891701134609 0.14407706939502354 1.0890255062689491 0.10482728685004114 33.038021047950068 8.4562765999859053 -0.27577196788670183 -2.9288027352772783 -0.1729097469258081 48.659517426273446 0.59764438022680511 0.12322923438716463 -1.2097391690954897 -0.46499999999995217 5.7303755184568699 -1.2889005479771476 5.0412641545446304 -1.3292059412352366 0.47430297798877868 0.022567040662051407 0.068314496147710707 -1.2732009099915791 69.818446325826486 2.5000000000000004 -1.3386594785207968 0.1117918597887073 0.64639282568660439 0.27590917655926139 0.2140803766882822 0.053579145573532841
decision_type=2 2 2 2 2 2 2 2 2 2 2 2 2 2 2 2 2 2 2 2 2 2 2 2 2 2 2 2 2 2 2 2 2 2 2 2 2 2 2 2 2 2 2 2 2 2 2 2 2 2 2 2 2 2 2 2 2 2 2 2 2 2
left_child=1 2 3 11 5 9 7 10 29 12 -6 25 -5 -11 -9 16 17 -13 -17 39 -21 22 24 -24 -22 -1 27 28 -2 -3 31 34 33 -33 -31 -34 -32 57 -39 50 41 -10 60 -18 45 -23 -46 58 -29 -28 -4 -51 -53 61 55 -55 -57 -38 -30 -27 -43 -50
right_child=26 8 19 4 6 -7 -8 14 40 13 -12 15 -14 -15 -16 18 43 -19 -20 20 21 44 23 -25 -26 59 49 48 47 30 36 32 35 -35 -36 -37 37 38 -40 -41 -42 42 -44 -45 46 -47 -48 -49 53 51 -52 52 -54 54 -56 56 -58 -59 -60 -61 -62 -63
leaf_value=-0.029619924486702271 0.12963207134268168 0.10650513098920136 0.078123140617829337 0.079962455848221092 -0.018517835848988504 0.15649178846298653 -0.0074291345417428932 0.08869820502804536 -0.033101906169923596 -0.017508414728864274 0.058752987983871782 0.080387959112981897 0.035186282603210682 0.033965846530135631 0.016549145799795224 0.071967264796030828 -0.032016054015081279 0.029109846927089192 -0.016246693569827303 -0.03331875875301521 0.09917684374245099 0.095402629571443742 0.062930268469441858 -0.034177988277441881 -0.033487935233674881 0.066206117188479546 -0.034703845500589532 -0.035534608579257186 -0.033192458968382632 0.099118939965621725 0.017645697178540479 0.075029164557530809 -0.034031162055665337 0.019106171191589184 -0.0136659169716328 0.10107918466027684 -0.029937310737723124 0.055397289198418014 0.089017125922777066 0.10148846023648453 0.071323237401282463 -0.033025810931444383 -0.033690092751874096 0.11870503345214653 0.09801672161672495 0.046801364286603107 0.077457954887601099 -0.033775546746459828 -0.034761306288323253 0.10372199337936576 -0.0029429103609981025 -0.0076420901511771722 0.087436307509089831 0.075151296913443105 0.082824522204348036 0.09715241849599425 -0.0040023461126089399 0.1095705700118202 0.081408194501334699 0.16933003686867598 0.080359069307210179 0.098102649356657315
leaf_weight=11.631784399971364 28.81458805128932 703.75986178591847 252.92287703417242 331.66569142788649 107.4150438606739 59.365008998662233 122.698650887236 1478.5579485539347 55.682761605829 330.72114429622889 735.30642068572342 994.10413549095392 1298.4379850868136 417.1686622146517 94.730443617329001 106.10234176367521 13.196310356259344 260.5473375748843 90.442338082939386 35.302361251786351 522.46562985889614 298.72026886418462 2504.1204365640879 53.95197525061667 22.987072482705116 31.349553963169456 17.849839454516768 21.209564190357924 25.956215625628829 35.668433090671897 61.589405234903097 1209.741942986846 19.34123052470386 180.21606364659965 146.95886955596507 757.97446575202048 12.910386556759475 306.05157967470586 3363.310726037249 1014.7641683742404 1035.9409010596573 20.883320014923811 36.821726011112332 392.42996303364635 1368.8824339974672 533.73376327380538 2263.4867426790297 71.978642389178276 13.465591747313736 1065.7490788139403 48.88762260787189 56.307417472824454 14665.919215593487 246.28262472897768 691.35405629128218 47.730424504727125 147.44875591620803 872.7523379586637 68.297392373904586 119.83767149597406 167.97901389189065 672.14540153555572
leaf_count=236 37 1309 659 4081 1297 232 1408 7091 809 6282 5901 6507 19305 6065 721 640 130 3002 986 402 1971 1119 12866 543 222 167 136 149 269 198 577 5606 169 1422 1271 1651 246 1990 10966 1342 4753 226 412 1178 4516 2831 7165 779 93 1036 334 418 28049 657 1564 102 844 2309 201 352 724 1017
internal_value=0.0796334 0.0747252 0.070202 0.0608346 0.0529079 0.0369803 0.0681779 0.0720204 0.0827264 0.033931 0.0488901 0.0803274 0.0443419 0.0112066 0.0843692 0.0754005 0.0805757 0.0697733 0.0314826 0.0775403 0.0748191 0.0753282 0.0666379 0.0608684 0.0935294 0.135693 0.08648 0.0741567 0.0313377 0.0860264 0.0839422 0.0731392 0.0785559 0.0677995 0.00876527 0.0976741 0.0894234 0.0903891 0.0862297 0.0931854 0.0634584 0.034341 0.051067 0.113728 0.0813519 0.0643387 0.0852313 0.0136083 0.0786755 0.0880614 0.0650157 0.0882026 0.087072 0.080028 0.0706205 0.0513575 0.0210886 0.107502 0.0498 0.148542 0.0676979 0.095442
internal_weight=42744 24903.5 15915.9 6995.71 4976.07 2437.36 2538.71 2416.01 8987.58 2377.99 842.721 2019.64 1630.1 747.89 1573.29 1856.82 1660.28 1254.65 196.545 8920.23 7603.65 7568.35 3103.53 2558.07 545.453 162.819 17840.5 2034.68 195.047 7670.28 6966.52 2349.9 2167.27 1389.96 182.627 777.316 4616.61 4555.03 3669.36 1316.57 1317.31 281.367 225.684 405.626 4464.82 832.454 3632.37 166.232 1839.64 15805.8 301.81 15788 14722.2 1818.43 1132.82 441.462 195.179 885.663 94.2536 151.187 188.862 685.611
internal_count=169540 134189 99551 65581 52383 35965 16418 15010 34638 35733 7198 13198 23386 12347 7812 12443 10817 9509 1626 33970 31635 31233 15602 13409 2193 755 35351 5712 1286 27714 26405 10317 8848 7028 1469 1820 16088 15511 12956 2335 6924 2171 1362 1308 15631 3950 11681 1249 4426 29639 993 29503 28467 4277 3167 1603 946 2555 470 519 950 1110
is_linear=0
shrinkage=0.03


Tree=11
num_leaves=63
num_cat=0
split_feature=25 16 48 3 35 9 43 0 35 33 7 47 7 10 20 15 25 44 14 5 36 33 33 28 31 38 18 7 3 49 32 27 38 11 47 38 46 32 15 27 2 0 38 35 25 25 0 14 48 22 24 39 7 41 11 46 38 44 7 46 41 38
split_gain=2026.67 1056.82 779.039 731.129 726.309 933.914 795.683 792.515 749.024 685.215 649.045 571.286 564.301 647.896 662.54 548.711 545.963 530.488 620.261 529.806 685.16 560.871 483.022 467.956 460.599 710.02 548.935 460.035 483.028 459.219 450.011 444.339 442.889 562.754 442.03 435.349 453.201 435.138 421.983 419.361 418.827 409.784 406.968 404.452 442.813 422.853 391.42 387.865 383.278 382.455 370.576 403.94 368.609 368.495 367.375 653.357 366.623 421.158 408.84 354.528 347.02 325.355
threshold=3.2274729226465975 -0.58306796024401819 0.66199150208513668 -0.77400159584810357 429.5406896905294 -78237.999999999985 0.72883826654148354 -0.17298397757359854 25.978274708473119 5153949.0000000009 0.93343335057872312 0.083781358511177892 0.70772346572206357 2.5000000000000004 0.63287912388825429 -0.6904833598177188 1.9994125427224383 0.36313606152821309 1014.4193548387099 5.0100000000000486 -0.53862204952939907 359456.50000000006 1418264.3 0.55571299107190686 1.9711538461538449 -1.4598190748544237 -2.5325837682899861 0.70028993372472359 0.32848524621905273 0.02900462697411189 0.90873008395877408 2.1017796474161119 0.67935048841308088 3.7685116131576786 0.32555066414818429 -1.0166039776671736 0.94019416573764414 0.4210295873529703 -1.450697320537488 1.4881486611092518 1.288545293820669 -2.1053562781688826 0.22493867559155833 90.108103865452364 3.2719600174057581 4.9129161268057615 -1.798088517317068 363.67741935483872 0.068866399432539901 8.9095976919996769 -0.86638176623496965 7575.7824884792635 0.37093934593357097 -0.82709572857729496 -5.2022950548471574 0.19655649424435553 0.24623069691643201 0.37516756032171589 0.95946552073077196 0.032985166648532994 -1.0791197237552406 -0.67501451250187106
decision_type=2 2 2 2 2 2 2 2 2 2 2 2 2 2 2 2 2 2 2 2 2 2 2 2 2 2 2 2 2 2 2 2 2 2 2 2 2 2 2 2 2 2 2 2 2 2 2 2 2 2 2 2 2 2 2 2 2 2 2 2 2 2
left_child=1 2 10 -3 5 11 8 -6 16 -10 19 40 13 32 15 46 -7 60 -19 30 -21 -22 23 49 25 -17 -27 -24 39 -8 37 -20 35 34 -34 36 59 -1 -37 -29 48 -31 -33 45 -45 -26 -15 -39 -5 -4 -9 -52 53 -13 -40 -56 58 -58 -12 -2 -16 -53
right_child=12 3 22 4 7 6 29 50 9 -11 56 52 -14 14 17 24 -18 18 31 20 21 -23 27 -25 43 26 -28 28 -30 41 -32 42 33 -35 -36 38 -38 47 54 -41 -42 -43 -44 44 -46 -47 -48 -49 -50 -51 51 61 -54 -55 55 -57 57 -59 -60 -61 -62 -63
leaf_value=0.12707271438325812 0.094453512351721475 0.099124245854101914 -0.010233169142884687 -0.029997091070514618 -0.032792121089188948 -0.019530254706783736 -0.032184891500355743 0.14331128700425216 0.072244756115464784 0.023852484302212887 0.11837107195408118 0.1955845772901311 0.081347874817296745 0.10634295615537524 0.046715659787573416 0.20141111186938404 0.042681272078210396 -0.034272151273540642 -0.033267279318950654 -0.03167856021163136 0.079772015739888028 0.31577473516704513 -0.0079811435020449659 0.10081066135177347 0.057738036201414281 0.085024275505738378 -0.008001057274783948 -0.031299731283006338 -0.0077929705857526796 0.14272873448854179 0.1009833952871779 0.092744412921795555 -0.035113096617919434 0.090285635699856773 0.047007854036725319 -0.033499221427016231 0.10968974249644585 0.048439009094519293 0.092035581363742222 0.1108546101990395 0.019095156378961541 0.074367924457943768 0.011278996386422298 -0.033702521646644563 0.079046434447743383 0.076757774477494933 -0.034282625620342837 -0.022486875755154873 0.15460118054607536 0.11257878334043993 -0.032651381641742305 -0.031712291595447611 -0.0252738695035459 -0.029184259127389915 0.049887135978138333 0.081564668151483555 0.11206236256907563 -0.032484549003312192 -0.0036161844515355543 -0.034741806448463239 -0.034838556723953217 0.096826037222539144
leaf_weight=19.796890845522285 23.967899210751057 566.13689235784113 72.997673822566867 12.154599366709588 43.477770168334246 140.91137273609638 34.935601508244872 136.40202426537871 1750.160421166569 311.67875473201275 31.178096806630492 13.417420316487553 15284.087082207203 22.369931306689978 76.999034333974123 20.051831685006618 1229.9977123681456 58.821672141551971 34.328067956492305 26.648978661745787 27.855128116905689 13.24742393568158 131.78460594825447 336.74246908724308 2570.5582812372595 81.036187566816807 187.10574226267636 21.216143811121583 61.775336742401123 81.715686095878482 35.337509803473949 315.98801702260971 76.017952742055058 216.85397012159228 252.69864460080862 27.956422859802842 43.597789660096169 79.665615709498525 2472.6484912391752 133.13112194277346 91.048426957800984 2709.9439482167363 67.291608447209001 31.007760915905237 4791.8553964365274 1816.8856725543737 73.924084417521954 496.40233211219311 51.364861451089382 32.082427656278014 23.529241168871522 17.81544217467308 219.30325521528721 11.596140824258326 661.3930124565959 5619.381632277742 131.51972492225468 20.530495539307594 106.35610493645072 80.555099176242948 116.98313635401428 564.9990754481405
leaf_count=242 36 1850 1201 218 586 4003 510 252 13480 3520 114 35 27228 70 318 32 15034 571 379 435 204 74 2205 1913 12883 460 1943 374 611 147 218 980 698 457 1129 287 45 1072 3135 441 932 12485 392 283 12488 3779 771 9786 284 114 310 251 3821 265 2950 15518 401 271 1149 770 1110 2020
internal_value=0.073619 0.0615308 0.040564 0.0661792 0.0636604 0.0604192 0.0632556 0.090994 0.0535107 0.0649461 0.0227755 0.0158547 0.0769956 0.0736216 0.0683702 0.0703877 0.036275 0.0394304 0.0564285 0.00709399 0.0861789 0.161601 0.0627697 0.0835892 0.07111 0.0335764 0.0203128 0.0361578 0.0629989 0.0750661 -0.0015129 0.0692626 0.0793029 0.0528579 0.0279588 0.0809121 0.0296193 -0.00775543 0.0817735 0.0912195 0.0608014 0.0764204 0.0785161 0.0722803 0.0783141 0.0656307 -0.00082602 -0.0126062 0.119314 0.0279426 0.0982784 0.0879236 -0.0127007 0.0941515 0.0821458 0.0782378 0.0604602 0.0924407 0.0246707 -0.00447358 -0.00237758 0.0928442
internal_weight=44813.2 9788.86 1778.27 8010.59 7444.45 6658.23 6259.34 786.224 3432.75 2061.84 988.538 398.885 35024.4 19740.3 10265.2 9594.79 1370.91 670.412 476.429 698.954 67.7515 41.1026 789.73 441.823 9498.5 288.194 268.142 347.907 216.123 2826.6 631.202 417.608 9475.07 545.571 328.717 8929.5 148.121 595.865 8781.38 154.347 154.568 2791.66 383.28 9210.31 4822.86 4387.44 96.294 576.068 63.5195 105.08 742.746 606.344 244.317 25.0136 8753.42 6280.77 289.584 152.05 137.534 104.523 193.982 582.815
internal_count=169540 80828 20825 60003 58153 54734 49179 3419 36037 17000 13966 5555 88712 61484 36459 32709 19037 3750 2322 12031 713 278 6859 3228 31868 2435 2403 3631 1426 13142 11318 1751 25025 2284 1827 22741 851 11100 21890 815 1434 12632 1372 29433 12771 16662 841 10858 502 1315 2833 2581 4121 300 21603 18468 1935 672 1263 806 1428 2271
is_linear=0
shrinkage=0.03


Tree=12
num_leaves=63
num_cat=0
split_feature=25 16 42 31 48 38 7 7 25 7 1 17 16 33 31 42 22 0 41 23 25 18 11 25 3 1 30 4 43 48 9 36 25 35 26 20 20 9 30 17 36 35 26 35 16 4 17 20 4 9 23 35 23 22 20 14 22 0 28 27 28 7
split_gain=1825.72 884.233 701.333 781.683 671.504 632.616 576.669 528.032 514.964 539.161 487.712 636.043 458.097 505.953 860.422 653.593 538.177 465.154 435.977 433.719 431.853 424.78 423.472 553.611 680.87 467.304 409.39 676.516 497.382 416.898 408.987 516.46 427.259 464.546 390.685 384.636 505.32 365.996 362.33 564.906 476.382 414.494 417.134 352.681 533.07 344.527 542.714 438.894 342.954 425.675 727.962 604.142 340.549 361.843 335.964 423.387 487.825 323.319 316.301 414.447 315.893 313.017
threshold=3.2274729226465975 -0.58306796024401819 0.60352441906602039 3.4269913598616477 0.66199150208513668 -0.015680034365002579 0.93343335057872312 0.41827105310088392 5.4880424890184889 0.66349786160156266 -1.9037887213576867 -0.59267349693648819 -1.3684012033809096 22055997.800000004 2.9790058709620086 0.650442863239303 16.505350991086402 -0.022581016567434605 -0.11915020727009927 -1.1150255800843485 1.7104389964877182 2.0496925011101639 -2.0501663694004164 4.3287064052691067 0.66744853718394015 0.65148886531413408 -2.0410053010945428 62.019230769230838 0.33056703397612491 0.89290376725102594 -3690.4999999999995 -0.53862204952939907 3.1131919177316218 7.85416457981992 1.1525787643489391 -0.075570750778929566 -0.12027852558046374 332328.50000000006 -1.5636988118592337 0.38773399999062608 5.4422923525362341 448.28867917933331 1.0890255062689491 68.485502010433123 0.22114397234582159 43.23577804146877 -0.34040328982756357 0.25700255847653336 74.025974025974122 -2311.4999999999995 -0.26706150562131009 59.404494560991729 0.024443300522480709 -2.8252898816762615 -0.90747621946385137 1636.5000000000002 7.1660230656634907 0.60697003945698624 0.51875410563553026 2.3571068532415436 0.30880055306776288 1.3087127936363872
decision_type=2 2 2 2 2 2 2 2 2 2 2 2 2 2 2 2 2 2 2 2 2 2 2 2 2 2 2 2 2 2 2 2 2 2 2 2 2 2 2 2 2 2 2 2 2 2 2 2 2 2 2 2 2 2 2 2 2 2 2 2 2 2
left_child=1 4 3 5 6 48 30 -5 9 12 -7 21 22 17 -15 19 -17 43 -13 -16 -4 -12 45 24 -24 -26 27 -6 -28 -30 -1 -32 33 -33 -11 36 -19 -37 39 41 52 42 -22 44 -14 58 -47 -48 49 50 -3 -51 60 -54 -9 56 -56 -41 59 -2 -40 -42
right_child=8 2 20 7 26 10 -8 54 -10 34 11 18 13 14 15 16 -18 35 -20 -21 38 -23 23 -25 25 -27 28 -29 29 -31 31 32 -34 -35 -36 37 -38 -39 40 57 61 -43 -44 -45 -46 46 47 -49 -50 51 -52 -53 53 -55 55 -57 -58 -59 -60 -61 -62 -63
leaf_value=-0.014671743673385793 0.084102275267802937 -0.01893803229198911 -0.0077426208786687024 -0.0091280950680287867 0.12649110833011432 0.11410997827163234 0.056431938494469688 0.13483686523707827 0.077408763276988535 -0.035840832465771348 -0.032088717720588689 0.082855169755823077 0.081259046372270549 -0.034350860139555635 0.069348267129357696 0.09420439402717562 -0.037410284123941207 0.057446696128824318 0.048079886801967175 -0.01425291796259885 0.091037841492962332 0.074704781367335008 -0.026399805496554771 0.055694110090723906 0.16091208198007878 -0.033588959179049527 -0.03164690927754215 -0.032801130248094987 0.07153954939993902 0.014954711560162029 -0.010692518311747154 0.099200183015951043 0.14398057199282607 -0.011185357381387708 0.073883808745350846 0.070029263572712871 -0.0079000860597468175 -0.0075307295621094015 0.0042001357527898893 -0.032124085669165241 -0.033364921514221997 0.087718028507996856 -0.016834622520905784 0.089140692159379212 0.043471335066009975 -0.010316617206113873 0.073259486427959444 0.011469787655753089 0.086977465647315608 -0.019018422945122789 0.068475319615495897 0.041135172104643729 0.011993451072426971 0.070136210749640396 0.11229648847701726 0.061314663264769705 -0.033309377957856705 0.10799857050808084 0.089508485913318975 -0.0018911572951190888 0.087307962472165393 0.07117311313139367
leaf_weight=372.90710153244436 107.74169393256307 116.51785404235125 62.041149612516165 66.754927290603518 141.47466006688774 118.47245322540402 300.72602278366685 85.630803264677525 10039.942844916135 28.684967961162329 125.88570676743984 435.32849033176899 1004.5448900107294 109.73815782554448 89.85170890763402 320.14688300713897 30.068131387233734 1960.8574164807796 1310.6126415878534 144.17588272318244 37.999688487499952 44.554814670234919 208.9127509817481 334.57592959329486 32.588200766593218 16.134394731372595 63.931184958666563 28.387655563652515 427.43138511478901 162.36509095132351 146.95284778252244 60.672961108386517 45.031455492600799 76.842554815113544 13326.340103775263 5283.4564714990556 112.29222906380892 55.073737919330597 42.273367065936327 16.15348082780838 59.09731550142169 64.319074938073754 185.73457091487944 1538.4610019475222 511.70081271417439 126.53003230504692 427.79115498252213 137.06949314661324 79.043032830581069 355.41850822791457 319.28154160454869 258.7951640188694 104.64327314682305 1303.6811538320035 297.76365114189684 818.35497009381652 21.786333281546831 134.69466555304825 472.89521685056388 93.875612242147326 1866.8987086582929 44.160683158785105
leaf_count=7531 404 2053 1009 694 655 296 1935 198 13340 208 2445 4412 2895 1126 208 523 180 8273 12280 903 215 352 2249 1268 43 136 1334 349 2989 1532 2464 592 146 1298 26656 17897 761 335 450 188 745 143 2035 3708 2621 979 1466 928 372 5917 3506 2356 1010 5967 859 3677 201 302 978 627 8198 123
internal_value=0.068453 0.0572151 0.0613436 0.0531646 0.0382606 0.0451083 0.0217412 0.0728667 0.0715913 0.0693821 0.0551045 0.0513976 0.0650366 0.0673931 0.0424651 0.0569326 0.0828216 0.0690415 0.0567948 0.0179903 0.0706164 -0.00388145 0.0515768 0.0302998 -0.00275459 0.0970629 0.058327 0.0998162 0.047406 0.0560191 0.00682542 0.0311344 0.0646968 0.0378605 0.0736452 0.0649493 0.0539036 0.0692273 0.0718785 0.046011 0.0751821 0.0212297 0.00179697 0.0789448 0.0685455 0.0607707 0.0457559 0.0583176 0.027057 0.022465 0.0451073 0.00634771 0.0771571 0.0658297 0.0773465 0.072903 0.102287 0.0928611 0.0760662 0.0442361 0.0854725 0.0115683
internal_weight=46716.1 10202.6 8375.9 4454.2 1826.72 3163.91 1003.13 1290.29 36513.4 26473.5 2034.85 1916.38 13118.5 11160.4 693.981 584.243 350.215 10466.4 1745.94 234.028 3921.7 170.441 1958.11 592.211 257.635 48.7226 823.59 169.862 653.728 589.796 702.407 329.5 182.547 137.516 13355 7411.68 2073.15 5338.53 3859.66 438.901 3420.75 288.053 223.734 3054.71 1516.25 1365.9 691.391 564.861 1129.06 1050.01 435.799 614.214 3317.5 1408.32 1223.54 1137.9 319.55 150.848 674.513 201.617 1909.17 103.258
internal_count=169540 80828 60003 39618 20825 33989 13966 5629 88712 75372 19785 19489 48508 39430 2940 1814 703 36490 16692 1111 20385 2797 9078 3696 2428 179 6859 1004 5855 4521 12031 4500 2036 1890 26864 27266 9034 18232 19376 2883 16493 2393 2250 9224 5516 5382 3373 2394 14204 13832 5559 8273 15625 6977 4935 4737 1060 490 2009 1031 8648 868
is_linear=0
shrinkage=0.03


Tree=13
num_leaves=63
num_cat=0
split_feature=25 16 42 35 43 4 2 39 2 9 22 7 10 31 20 27 33 35 35 15 4 8 22 24 46 11 8 31 15 4 2 15 15 15 33 33 22 4 6 15 25 26 42 31 7 8 46 22 15 25 4 2 24 25 35 27 8 11 46 4 49 46
split_gain=1672.56 877.608 758.776 870.117 958.005 965.411 646.053 635.42 555.328 548.157 498.696 498.554 630.439 641.855 509.524 496.372 492.876 480.859 463.303 446.181 427.961 471.363 448.666 476.241 406.418 398.25 384.776 380.788 374.945 369.34 366.17 362.034 353.741 353.51 350.523 370.3 326.977 390.366 362.175 319.835 311.024 308.154 304.518 304.393 302.086 340.325 405.662 295.079 292.87 292.026 288.722 582.273 546.963 312.912 294.01 284.704 471.187 284.337 623.378 423.001 304.208 282.838
threshold=3.3537708285279453 -0.83471189739366836 0.72466061273160898 18.311489001269969 0.89716955941255017 34.432234432234345 0.6010440550756484 4772.4586290322577 2.03176402129353 -20889.499999999996 -19.321896197501044 0.70772346572206357 2.5000000000000004 1.8239347562051955 0.63287912388825429 1.1192441457748541 1499637.9000000001 191.26566360777431 97.733422750393288 0.84492595168158069 56.281407035175874 0.47414009831692727 2.8347776792375439 -0.0064623340748641671 0.09696130277847731 -2.7547939026611652 0.71630515381007098 1.526688111730701 -0.51710532421635125 57.22642900692798 2.0430511442188224 -0.52913893110978183 -0.6904833598177188 -1.7977404866475861 92825.800000000003 32590.300000000007 5.4000544365813816 25.58252646819297 0.97000000000000053 -1.450697320537488 7.1684897513489609 2.1505652199917944 0.40291986359761306 3.1163078517154017 1.2827163491196927 0.20365178939543413 0.8042854449008372 -11.180264597526058 -1.7977404866475861 1.8747122802599507 51.785714285714313 1.8154992378985664 -0.2538083374339164 1.7104389964877182 14.975026319814839 2.9830685253741938 0.13382552773860437 -5.2022950548471574 0.19655649424435553 53.940491669352248 0.28072520874378465 0.79215175307973473
decision_type=2 2 2 2 2 2 2 2 2 2 2 2 2 2 2 2 2 2 2 2 2 2 2 2 2 2 2 2 2 2 2 2 2 2 2 2 2 2 2 2 2 2 2 2 2 2 2 2 2 2 2 2 2 2 2 2 2 2 2 2 2 2
left_child=1 8 3 4 5 9 -5 24 20 -3 -2 12 39 19 32 -9 41 -17 -16 -14 44 31 25 -24 -8 -23 -26 -7 -4 -20 -29 42 33 -15 35 -10 37 -36 43 -12 -34 49 -22 -39 45 46 -1 -30 -13 -6 51 52 -49 -52 -53 56 -50 -41 59 -59 -60 -38
right_child=10 2 28 6 16 27 7 15 34 -11 11 48 13 14 18 17 -18 -19 29 -21 21 22 23 -25 26 -27 -28 30 47 -31 -32 -33 40 -35 36 -37 61 38 -40 57 -42 -43 -44 -45 -46 -47 -48 50 55 -51 53 54 -54 -55 -56 -57 -58 58 60 -61 -62 -63
leaf_value=-0.029480631127623644 0.080881833528550398 -0.0029179310843072256 -0.032377611006784081 -0.031799228865098061 -0.031916747034263095 -0.031572945858038201 -0.0044582678086152487 -0.015257523040826271 -0.032973244706328571 0.10568940953873235 -0.033631242738821121 -0.035277645989653814 -0.022326214120425597 0.098623514025958481 0.005951421949247632 0.044415642393557581 -0.033754780993223897 0.068942501818192128 0.02134088660656484 0.12848990101193403 0.17685625697462912 0.075757931218464483 0.16196152696865462 0.018338124100338443 0.087786746740292285 -0.03209392873143202 0.054216448059037796 0.026628208281762298 0.10875308632515167 0.087639871134864405 -0.018399481600487794 -0.03257302493922639 0.059070425328969361 -0.034489253837055672 0.086061234360656116 0.10616837925062837 0.015999008984676263 -0.033098152953515647 0.095180343632390363 0.077987262619980235 0.076635747468342119 -0.035311939994442786 -0.029235271273145 0.024687996521454481 0.10361289796363028 -0.010966873294641234 0.21592448017141791 0.053449511402221213 -0.036718101078286609 0.084995228560230424 -0.031554891553019888 0.088601117956692524 -0.033065116004533608 0.073443008568444351 0.041972488386940239 0.075213233724022346 0.067247668230982452 0.012049849316564141 0.056787212750869336 0.059075075509238878 0.07257257638089909 0.090974504551327939
leaf_weight=10.730228791013362 2269.2133620157838 55.029321344569325 32.118480022996664 69.15941147506237 19.481551259756088 154.99851719848812 55.012146959081292 94.706966560333967 18.971724355593324 171.90706755779684 26.833727160468698 22.943364288657904 135.47253483347595 23.523914158344269 305.57171452976763 1796.0771373696625 39.053147915750742 1213.8832018729299 137.60473409667611 19.277290504425764 14.779571393504741 73.152230285108089 66.153163524344563 30.565297598019242 1111.505004292354 51.916822649538517 434.8278649225831 900.65721997991204 167.88597532734275 169.57370468229055 197.45757681131363 92.860732086002827 7966.3037417735904 66.038672504946589 92.377594288438559 147.48019938729703 61.534954991191626 109.05247801356018 49.227950880303979 2386.4447613395751 1039.7826849743724 20.976914994418621 10.458252405747769 321.50604333356023 23.074181152507663 461.77744863554835 12.275892602279781 147.87201869674027 38.808079566806555 493.09566461667418 25.237975269556046 309.08993422798812 116.88010098598897 2654.6424394212663 206.0420553740114 6725.0883193835616 7888.4995792247355 301.29763758741319 1460.5754183139652 403.19535257481039 4781.5615095924586 176.93984014727175
leaf_count=218 2433 943 493 1424 242 3778 577 1886 205 730 266 168 1434 57 1985 15477 424 5810 689 59 96 529 298 320 4978 927 2543 11503 435 456 1847 1506 26022 651 409 324 472 1641 173 3158 1189 150 212 2029 149 9323 25 1237 261 1388 421 785 1685 9170 1010 7714 15850 1742 4491 1264 11485 374
internal_value=0.0639425 0.0543771 0.0577208 0.0517915 0.0354225 0.0226445 0.0588184 0.0601572 0.0351374 0.079443 0.0671971 0.0662786 0.0630809 0.0577649 0.0587311 0.0521998 0.0683482 0.0543277 0.0321589 -0.00281534 0.0173347 0.0433364 0.0690227 0.117256 0.0755409 0.0310648 0.0783899 0.0123009 0.0687647 0.0581157 0.0185194 -0.00505125 0.0605171 0.00114309 0.0505467 0.0901893 0.0423019 0.0299031 0.0189278 0.0686755 0.061107 0.0758764 0.0934807 0.0100021 -0.000112114 -0.0052584 0.104881 0.0696697 0.0704625 0.0804924 0.0677415 0.0515144 0.0152639 0.0724417 0.0700739 0.0706307 0.0667338 0.0689736 0.0658658 0.0390132 0.0688892 0.0717883
internal_weight=48480 12312.4 10487.6 6827.83 2052.66 1480.05 4775.17 4706.01 1824.83 226.936 36167.6 33898.4 19223.1 9863.15 9708.4 3104.67 572.607 3009.96 612.75 154.75 847.744 339.886 221.788 96.7185 1601.35 125.069 1546.33 1253.11 3659.77 307.178 1098.11 118.099 9095.65 89.5626 977.091 166.452 810.639 572.164 479.786 9359.91 9006.09 533.554 25.2378 430.559 507.858 484.784 23.0061 3627.65 14675.3 512.577 3459.76 779.884 264.752 2679.88 515.132 14652.4 7927.31 9333.07 6946.63 704.493 6242.14 238.475
internal_count=169540 88166 68936 53700 21005 18801 32695 31271 19230 1673 81374 78941 54948 32542 31049 23173 2204 21287 3130 1493 13603 3888 2074 618 8098 1456 7521 17128 15236 1145 13350 1814 27919 708 5627 529 5098 4252 3843 22406 27211 1780 308 3670 9715 9566 243 14743 23993 1630 14308 4717 2922 9591 1795 23825 16111 22140 18982 3006 15976 846
is_linear=0
shrinkage=0.03


Tree=14
num_leaves=63
num_cat=0
split_feature=25 43 15 39 21 4 22 14 36 43 27 4 42 4 3 22 41 44 33 43 25 41 8 29 47 31 45 14 47 14 43 45 15 47 21 45 42 27 15 17 3 8 0 27 3 6 16 6 36 28 46 23 42 8 14 25 36 16 47 22 4 46
split_gain=1545.85 698.57 816.894 755.543 584.198 533.21 505.442 491.485 537.203 477.807 449.626 435.975 401.882 615.485 486.741 380.138 511.334 508.68 505.602 554.416 461.979 364.111 360.461 358.612 442.879 391.414 350.61 469.877 348.548 411.166 345.144 411.504 335.518 391.979 410.143 405.866 331.077 360.074 325.8 318.11 305.702 355.261 316.265 304.511 300.884 365.565 294.527 293.688 291.115 290.056 289.187 281.806 275.799 272.934 266.548 262.294 256.047 459.201 432.087 280.891 253.607 321.973
